{"type":"LSTM","options":{"inputSize":49,"inputRange":49,"hiddenLayers":[50,65,75,60,50,45],"outputSize":49,"decayRate":0.999,"smoothEps":1e-8,"regc":0.000001,"clipval":5,"maxPredictionLength":100,"dataFormatter":{"indexTable":{"h":0,"a":1,"i":2,"k":3,"u":4," ":5,"n":6,"t":7,"r":8,"e":9,"W":10,"s":11,"p":12,"o":13,"f":14,"w":15,"d":16,",":17,"\n":18,"L":19,"v":20,"c":21,"g":22,"l":23,"N":24,"'":25,"m":26,"b":27,".":28,"A":29,"y":30,"P":31,"z":32,"x":33,"O":34,"q":35,"M":36,"D":37,"H":38,"C":39,"T":40,"Y":41,"E":42,"I":43,"j":44,"Q":45,"stop-input":46,"start-output":47,"unrecognized":48},"characterTable":{"0":"h","1":"a","2":"i","3":"k","4":"u","5":" ","6":"n","7":"t","8":"r","9":"e","10":"W","11":"s","12":"p","13":"o","14":"f","15":"w","16":"d","17":",","18":"\n","19":"L","20":"v","21":"c","22":"g","23":"l","24":"N","25":"'","26":"m","27":"b","28":".","29":"A","30":"y","31":"P","32":"z","33":"x","34":"O","35":"q","36":"M","37":"D","38":"H","39":"C","40":"T","41":"Y","42":"E","43":"I","44":"j","45":"Q","46":null,"47":null,"48":null},"values":[{"input":"haiku nature","output":"Whispers of the wind,\nLeaves dance in the golden light,\nNature's calm embrace."},{"input":"poem love","output":"Love is a gentle touch,\nA whisper in the night,\nA bond that time can't break."},{"input":"give info photosynthesis","output":"Photosynthesis is the process by which green plants use sunlight to synthesize foods from carbon dioxide and water."},{"input":"story hero","output":"Once upon a time, in a land far away, a brave hero embarked on a quest to save the kingdom from a fearsome dragon."},{"input":"summary Moby Dick","output":"'Moby Dick' is a novel by Herman Melville about Captain Ahab's obsessive quest to kill the white whale, Moby Dick."},{"input":"sonnet time","output":"Time, the relentless thief, steals moments dear,\nYet in its wake, it leaves memories clear."},{"input":"explain relativity","output":"The theory of relativity, developed by Albert Einstein, revolutionized our understanding of space, time, and gravity."},{"input":"generate limerick cat","output":"There once was a cat from Peru,\nWho loved to wear a bright blue shoe.\nHe danced all night,\nIn the pale moonlight,\nAnd sang a delightful meow too."},{"input":"describe mitosis","output":"Mitosis is the process where a single cell divides into two identical daughter cells, ensuring genetic consistency."},{"input":"narrative journey","output":"The journey began at dawn, with the sun rising over the horizon, casting a golden glow on the path ahead."},{"input":"explain quantum mechanics","output":"Quantum mechanics is a fundamental theory in physics that describes nature at the smallest scales of energy levels of atoms and subatomic particles."}],"characters":["h","a","i","k","u"," ","n","t","r","e","W","s","p","o","f","w","d",",","\n","L","v","c","g","l","N","'","m","b",".","A","y","P","z","x","O","q","M","D","H","C","T","Y","E","I","j","Q","stop-input","start-output","unrecognized"],"specialIndexes":[46,47,48]},"learningRate":0.03},"trainOpts":{"iterations":1500,"errorThresh":0.003,"logPeriod":10,"learningRate":0.01,"callbackPeriod":10,"timeout":"Infinity"},"input":{"rows":50,"columns":49,"weights":[0.2633613049983978,0.21901294589042664,-0.8649154305458069,-0.11559876054525375,-0.13759949803352356,0.35636061429977417,0.08878888934850693,0.2169339954853058,0.07745396345853806,0.04626484215259552,0.3439711630344391,0.3294191062450409,-0.44730842113494873,-0.5108829736709595,0.16120260953903198,-0.13382075726985931,0.04438917338848114,-0.002998082432895899,0.06686390191316605,0.337930291891098,-0.005946287419646978,-0.47167953848838806,0.134100079536438,-0.17655004560947418,0.02260197512805462,-0.06613924354314804,0.2748910188674927,-0.32335737347602844,-0.3496130108833313,-0.11788159608840942,0.04947657138109207,-0.043826475739479065,0.025603005662560463,0.07562126219272614,-0.3536963164806366,0.032714441418647766,-0.5269747376441956,0.07925534248352051,-0.03324175253510475,-0.13463094830513,-0.20434284210205078,0.14008808135986328,0.14130425453186035,0.34659430384635925,-0.42987555265426636,0.21147829294204712,0.1702221930027008,-0.059453099966049194,-0.3545040190219879,-0.6857831478118896,-0.8811691999435425,-0.01858430728316307,-0.04622974246740341,0.6780036687850952,-0.7464416027069092,0.6933733820915222,-0.41960009932518005,-0.4691070318222046,0.7921074032783508,-0.6816111207008362,-0.5747758150100708,0.31334537267684937,0.4607711732387543,0.08042913675308228,0.7689993977546692,0.282570481300354,-0.41583311557769775,0.11382468789815903,0.04857518896460533,0.03999355807900429,0.69005286693573,-0.015205646865069866,-0.1497490108013153,1.5310883522033691,-0.27748551964759827,-0.48043084144592285,-0.8969916105270386,-0.24296259880065918,-0.37356725335121155,0.9733339548110962,-0.4582631289958954,-0.6901172399520874,1.451737880706787,0.5314786434173584,0.7598250508308411,0.24081791937351227,-0.2736617624759674,0.3699181377887726,-0.24238428473472595,0.3266599476337433,-0.3506777882575989,0.13284046947956085,-0.6168687343597412,0.6008980870246887,-0.5391480922698975,-0.19376692175865173,1.0300525426864624,0.3277609348297119,0.353292852640152,0.491036593914032,0.04032457619905472,-0.5553288459777832,-0.40829914808273315,-0.3960588276386261,-0.8922342658042908,0.5186299681663513,0.28853097558021545,-0.07588484138250351,0.4356301724910736,0.47949740290641785,0.7391137480735779,0.5540048480033875,-0.5028074979782104,-0.4498615264892578,-0.40270668268203735,-0.49003878235816956,0.6672098636627197,-0.3038671612739563,0.36519911885261536,-0.6114498376846313,-0.4014180302619934,-0.5793645977973938,0.20689155161380768,0.3842547833919525,-0.2690684497356415,0.5319194793701172,0.4476778209209442,0.8353028297424316,0.5763115882873535,0.4235069453716278,-0.48181021213531494,-0.811914324760437,-0.4871092140674591,0.01742655038833618,-0.381257027387619,0.9570513367652893,0.6313713192939758,-0.040798988193273544,0.4974362254142761,0.5196070075035095,-0.34627917408943176,-0.4517573118209839,-0.3676101267337799,0.35647398233413696,-0.29300636053085327,-0.4118101894855499,-0.719430148601532,-0.9773632884025574,0.3730449080467224,0.7467024326324463,0.0655871257185936,1.1393951177597046,0.21242208778858185,1.0126160383224487,-1.6930979490280151,-1.5156311988830566,0.5036404132843018,-0.9372514486312866,-1.1484618186950684,-0.1677943915128708,-0.5242892503738403,0.43868565559387207,0.6376438736915588,1.451084852218628,-0.09949708729982376,-1.0019317865371704,0.35790911316871643,-0.3839319944381714,0.447055459022522,0.1615442931652069,-1.189887523651123,1.0856397151947021,-0.3157843053340912,-0.11828378587961197,-1.1366643905639648,-0.4577384293079376,-1.4786787033081055,0.08455009013414383,-0.32229533791542053,0.10148381441831589,1.2996751070022583,1.0071022510528564,0.32261648774147034,1.216463565826416,0.4735657572746277,0.1311490833759308,1.3595126867294312,-0.5177068710327148,-1.539133071899414,0.6691088676452637,0.640670895576477,2.219395399093628,-1.0697585344314575,0.3944763243198395,0.7046769261360168,-0.019600793719291687,-0.5619014501571655,-1.6397207975387573,0.7823218703269958,1.0109527111053467,-0.0032576327212154865,0.1958606094121933,1.1410269737243652,-1.9814739227294922,-1.3080672025680542,1.8987951278686523,-0.7878442406654358,0.11797341704368591,1.3523694276809692,-0.020527150481939316,0.8964306116104126,-0.056570954620838165,0.7409259676933289,-1.0318795442581177,-0.15314625203609467,1.833746075630188,-0.5620185136795044,1.333497405052185,0.6070223450660706,-1.018067717552185,1.472578525543213,-0.5137226581573486,-1.6715856790542603,-1.7320064306259155,-0.4590689241886139,-0.3014889359474182,-0.26775163412094116,-1.3557932376861572,0.3168829381465912,1.9876880645751953,1.4658689498901367,1.471207618713379,1.9228459596633911,1.2500044107437134,-0.7369391918182373,0.49392396211624146,-0.6323884129524231,0.27973702549934387,0.8881577253341675,0.45225340127944946,0.797856867313385,-0.05229790136218071,0.1990555077791214,2.669062852859497,1.451037049293518,0.5865689516067505,0.3960086703300476,-0.05898765102028847,0.20464320480823517,-0.7859322428703308,0.014694086275994778,-0.41984713077545166,1.1401585340499878,0.8519505858421326,-2.231558322906494,1.811994194984436,0.9666860103607178,-0.07700107246637344,0.03787945210933685,-0.5206666588783264,0.28763875365257263,-1.3469690084457397,0.07125750184059143,1.1624327898025513,-0.03337671607732773,0.1450182944536209,-0.340032160282135,0.10672298073768616,-0.5553690195083618,-0.6081165671348572,0.5258076786994934,1.4297397136688232,2.129300117492676,0.5621667504310608,0.7872152328491211,-0.16633127629756927,-0.33740726113319397,-0.09713041037321091,-0.9243950247764587,-0.5645219683647156,-1.6143431663513184,-0.4668307304382324,0.3210368752479553,-0.4767003655433655,-1.6958773136138916,0.07526759058237076,1.2505601644515991,-2.015740156173706,-0.19626058638095856,-1.5869741439819336,2.238147497177124,-0.5111101269721985,-0.567152738571167,-1.1079983711242676,0.10682965815067291,0.2785903513431549,-0.8140912652015686,-0.06005224585533142,-0.5424220561981201,-0.1530994325876236,-0.21360711753368378,-0.06089496612548828,0.1362168937921524,-0.07340224832296371,0.9908133149147034,0.3084714412689209,-0.11288903653621674,0.3777149021625519,-0.05271647870540619,-0.48398950695991516,0.0559752956032753,-0.1482114940881729,0.07711058855056763,-0.4041021466255188,0.013145898468792439,0.4434535503387451,-0.28892186284065247,0.5410547256469727,-0.1778525561094284,-0.008205866441130638,1.0219930410385132,0.5520308613777161,0.35837817192077637,0.2526324987411499,0.3266758620738983,0.5714693665504456,-0.09780595451593399,-0.18167069554328918,-0.7273561358451843,-0.36962413787841797,-0.0007278957054950297,0.11077464371919632,0.6915103793144226,-0.34379035234451294,0.3735417127609253,-0.22674231231212616,-0.6143642663955688,-0.29181915521621704,0.021122973412275314,0.11327143013477325,-0.18309268355369568,0.04438956454396248,0.41949838399887085,0.01518411748111248,0.28152328729629517,0.5910511612892151,-0.378452867269516,0.030406275764107704,-0.7037283182144165,-0.3164820671081543,0.18538588285446167,-0.09885168820619583,-0.28759244084358215,0.03734707087278366,-0.13980931043624878,1.2218903303146362,1.1135040521621704,-0.7532925605773926,-0.21040529012680054,0.6947917342185974,-0.6944389343261719,0.2911091148853302,-0.8342260718345642,0.8146608471870422,-0.10282977670431137,-0.8591405749320984,-0.31440502405166626,0.0781884491443634,0.6615238785743713,-0.011896523647010326,0.14444580674171448,0.6627978086471558,0.10488180816173553,0.37985923886299133,0.07034897059202194,-0.5980997085571289,0.6313482522964478,-0.04080525413155556,-0.08950673788785934,-0.004280948080122471,1.0065689086914062,0.45937779545783997,0.5897724628448486,0.8334040641784668,-0.654572069644928,-0.3556961119174957,-0.6658859848976135,-0.0001453300064895302,-0.21405240893363953,-0.738053023815155,0.04031071811914444,0.04104001075029373,0.5799296498298645,0.8326776623725891,-0.8264659643173218,0.8511137962341309,-0.8966598510742188,0.8386646509170532,-0.4779752790927887,0.320175439119339,0.5206170678138733,-0.5050192475318909,-0.14862877130508423,-0.5687642693519592,-1.085645318031311,-0.7221065163612366,0.8122631311416626,-0.3936585783958435,-0.6037841439247131,0.8876251578330994,0.19063521921634674,-0.36470597982406616,-0.6310908794403076,-0.06958942115306854,-0.014649524353444576,1.082521915435791,-0.6385567784309387,-0.47698771953582764,0.6327514052391052,0.6884446144104004,0.5182516574859619,0.3935004472732544,-0.7708413004875183,-0.5147004723548889,0.7424817681312561,-1.0937107801437378,0.10784191638231277,-1.029909372329712,-0.506110429763794,0.3406292200088501,-0.7053664922714233,-0.07795995473861694,-0.5245897769927979,0.24915191531181335,-0.6005643606185913,0.9516268968582153,-0.5369036197662354,0.7336568832397461,0.4711202383041382,-0.674610435962677,-0.14672531187534332,1.1360746622085571,0.24151891469955444,-1.9573264122009277,-0.052016519010066986,-1.109508752822876,0.01708798296749592,-0.9570401310920715,0.6671077013015747,0.825300931930542,-0.6468074321746826,0.4270157217979431,0.9263901710510254,0.0331573523581028,-0.31212812662124634,-0.19532106816768646,-0.9671803712844849,-0.7219910025596619,0.10058049857616425,0.1656641662120819,-0.45804187655448914,0.16946539282798767,-0.9882156848907471,-0.013742468319833279,1.091315746307373,-1.1451442241668701,0.018682952970266342,1.3670413494110107,0.9463188052177429,0.3495493531227112,1.1512690782546997,0.3228073716163635,-0.011274199932813644,-0.10597345978021622,-1.3283628225326538,-1.1582210063934326,-1.1130762100219727,-0.8569904565811157,0.2594327926635742,0.11121100932359695,-0.16377919912338257,0.21617168188095093,0.7563417553901672,-0.39085596799850464,-0.00822377298027277,-0.08918633311986923,0.4820999205112457,-0.323801189661026,-1.1739935874938965,-0.48323512077331543,-1.6055285930633545,-0.15498504042625427,0.2935654819011688,-0.15541738271713257,1.4670839309692383,0.12753480672836304,0.1516907960176468,-0.09874413907527924,-0.441555380821228,0.5603041648864746,-1.231218695640564,-0.7281050682067871,-1.3630878925323486,-0.19344475865364075,0.11067425459623337,0.010776211507618427,0.5442018508911133,0.10750739276409149,0.22124513983726501,-0.8669906258583069,-0.08972436189651489,0.6692795157432556,0.12507471442222595,-0.33916395902633667,1.4608150720596313,0.05781816318631172,-1.1528639793395996,-0.27595019340515137,-0.04761824384331703,-0.661656379699707,-0.079967200756073,-0.17878663539886475,0.08578857034444809,0.4870917499065399,0.221775621175766,1.6205697059631348,0.04635252431035042,-0.03233233094215393,-0.21329368650913239,0.19516758620738983,-0.36904770135879517,-0.4267396628856659,-0.2768666446208954,0.22353219985961914,0.5039334297180176,-0.9849405884742737,0.24564968049526215,0.49233195185661316,-0.1979253739118576,-2.8986899852752686,-4.968337535858154,5.158790111541748,0.5659023523330688,2.628953218460083,0.21458800137043,5.755669593811035,-0.6938093304634094,0.18855084478855133,4.135180473327637,2.594369888305664,-0.5410738587379456,-0.6360409259796143,1.8101919889450073,-1.122192621231079,-3.7938432693481445,1.2956452369689941,-0.29912135004997253,-2.2601869106292725,0.2860811650753021,2.2038097381591797,6.863272666931152,-1.032554030418396,-5.968262672424316,-0.37483590841293335,0.937100350856781,-1.9656485319137573,-1.7985739707946777,4.71109676361084,-4.956557273864746,-2.488518476486206,0.6121618151664734,-0.600715696811676,-1.9957711696624756,-0.4831257164478302,2.822866678237915,1.1346911191940308,0.873012125492096,-0.6145780682563782,-1.7536606788635254,1.4470818042755127,2.427946090698242,-1.0334986448287964,-0.5994622707366943,-2.443969249725342,-0.07948175072669983,-3.7130517959594727,0.712236762046814,2.264497756958008,-0.15124382078647614,-0.7222016453742981,0.2488231062889099,0.2477409690618515,0.33149999380111694,-0.7330600023269653,-0.4421229064464569,-0.3308476209640503,0.48692354559898376,0.6783888936042786,-0.058189574629068375,-0.5444064736366272,0.3721054792404175,-0.1254839152097702,-0.24269847571849823,-0.18883128464221954,-0.4795233905315399,-0.14966189861297607,-0.6055068969726562,-0.30922895669937134,0.25582966208457947,0.06815364211797714,-0.1944069266319275,-0.40614232420921326,-0.20139218866825104,0.34179168939590454,-0.40551191568374634,-0.5159714221954346,0.5432771444320679,-0.4832717180252075,0.028319889679551125,-0.07708298414945602,-0.2936829626560211,-0.4268534779548645,0.8280843496322632,0.12785154581069946,-0.09365339577198029,0.3359154760837555,-0.15782710909843445,-0.31938034296035767,-0.27319568395614624,0.04067891091108322,0.3807505965232849,-0.12157081067562103,0.013956564478576183,0.7859879732131958,-0.3953460156917572,-0.4604228734970093,0.5323978662490845,1.97532320022583,1.7231873273849487,-1.4971649646759033,0.977794885635376,-0.9399237632751465,0.8349243402481079,-1.4242628812789917,0.3961917459964752,0.8072658181190491,-0.7225338816642761,0.3343850076198578,-0.1599455028772354,0.4454922080039978,-0.4050862789154053,0.7754666805267334,-0.017919432371854782,-2.1584360599517822,0.5358543992042542,0.8500151038169861,0.4306587278842926,-0.7880504131317139,-0.4421830177307129,0.6379331946372986,2.2515170574188232,-2.1470627784729004,-0.08821851015090942,0.7370919585227966,1.2306921482086182,0.10514068603515625,1.0007885694503784,-0.14854289591312408,0.34497612714767456,0.6272265911102295,-0.7120676636695862,-0.7789711952209473,-0.6062253713607788,-0.549809992313385,-0.360307514667511,-0.09059642255306244,-0.6042121052742004,-0.7865669131278992,1.0077319145202637,-0.639069139957428,0.6778393983840942,-1.2737877368927002,0.7846660017967224,0.7183342576026917,-1.2810766696929932,-1.2673519849777222,0.05796528980135918,-0.19027100503444672,-0.07898584753274918,-0.2415209710597992,-1.1424556970596313,-0.21020004153251648,-0.4145234227180481,0.21182815730571747,0.010580934584140778,-0.5998766422271729,0.2549627721309662,0.31365716457366943,0.0967298373579979,0.34834280610084534,-0.274520605802536,-0.12838411331176758,-0.34130415320396423,-0.19386836886405945,1.020822286605835,-0.41954779624938965,0.1943800449371338,0.1254253089427948,-0.3488132655620575,0.15530230104923248,-0.7518759369850159,0.23603984713554382,0.5616229176521301,0.3669252097606659,0.34248849749565125,0.5274595618247986,0.3269173502922058,0.16170383989810944,-0.21546173095703125,-0.27780523896217346,-0.7097843885421753,-0.4192991852760315,0.03227423503994942,0.14331470429897308,0.298578143119812,0.3968792259693146,0.1731218546628952,0.03535047546029091,-0.21397806704044342,-0.16820456087589264,0.21381467580795288,-0.3209851086139679,-0.24328680336475372,-0.19151058793067932,-1.055240511894226,0.07692158222198486,-1.121895432472229,0.8305132985115051,0.3989768922328949,0.029874032363295555,0.43120869994163513,0.1594923734664917,-0.4734443426132202,-0.810914933681488,0.8844864964485168,0.12846574187278748,0.27155691385269165,-0.9089847803115845,-0.7925874590873718,0.4830767810344696,-0.2922610342502594,0.012009073980152607,0.42105692625045776,0.6921955347061157,0.6749436259269714,-0.4338655173778534,2.474712610244751,0.4395384192466736,-1.424064040184021,0.702659010887146,-0.4926210343837738,-1.031668782234192,-0.7477614879608154,0.050259530544281006,0.2950718402862549,-0.8157010674476624,-0.664597749710083,0.5092369318008423,1.0326335430145264,0.16179460287094116,1.0968552827835083,0.15215344727039337,-0.9887168407440186,-0.5617698431015015,-0.3083404302597046,-0.5618979334831238,-0.2052290290594101,-0.3977620005607605,0.5620877146720886,0.26300862431526184,-0.42050740122795105,-0.46744996309280396,0.83841472864151,-0.3770313858985901,-0.2928895056247711,-0.22671183943748474,-0.5817204713821411,1.5735000371932983,0.06931688636541367,1.9777337312698364,-0.5371747016906738,0.11260727792978287,-0.05440272390842438,-0.7374939322471619,0.1809866726398468,0.8272622227668762,-0.8487319350242615,-1.7246062755584717,1.2014647722244263,-0.15006785094738007,-0.07597342878580093,1.4601844549179077,0.10791267454624176,0.8873845934867859,-1.477070927619934,-0.5990622639656067,1.1589897871017456,0.9121953248977661,-0.33709290623664856,-2.1271941661834717,0.5699194669723511,0.7755813002586365,-0.888260006904602,-0.4018765091896057,-1.367026448249817,-1.0477797985076904,1.7994357347488403,-0.28870201110839844,0.28748807311058044,-0.30555859208106995,-0.623250424861908,-1.1976124048233032,-1.3650691509246826,0.08097735047340393,-1.7409826517105103,0.1181504875421524,-0.253846675157547,0.22266481816768646,-0.07359789311885834,0.09071292728185654,1.7604985237121582,-0.22620777785778046,0.5436356663703918,0.3844510614871979,0.21532988548278809,-0.08030907809734344,0.8620187640190125,-0.42463061213493347,0.9360489845275879,-0.34205031394958496,-0.15949468314647675,0.041863005608320236,-0.3190946877002716,0.3820159137248993,-0.24035528302192688,-1.8055431842803955,-1.1604900360107422,0.9025381207466125,-0.4695882797241211,-0.1956329643726349,0.8494943976402283,-0.9351678490638733,0.9591541290283203,-1.0240379571914673,-0.38886305689811707,0.6643560528755188,0.5432572960853577,-0.3064008057117462,-1.0783069133758545,0.6194673776626587,0.2570255398750305,-0.8888254761695862,0.5195489525794983,-0.13459597527980804,-0.8784884810447693,0.5087441205978394,-0.4202873408794403,-0.2061314433813095,-0.5919174551963806,0.15862281620502472,-1.975513219833374,-0.7049944996833801,0.1826547533273697,-0.21777522563934326,0.1084834411740303,-0.009296741336584091,0.7404308915138245,-0.3025576174259186,0.058586038649082184,0.0733557790517807,-0.269288569688797,0.7904694676399231,0.008808101527392864,0.04670335352420807,0.320679247379303,-0.2165915071964264,0.10567721724510193,-0.24995222687721252,0.17564363777637482,-0.30012327432632446,0.06454969942569733,0.0724794939160347,-0.04609224945306778,-0.11531879752874374,-0.3429531455039978,0.05099990963935852,-0.3095315992832184,-0.027050821110606194,-0.07953762263059616,-0.014449289068579674,-0.3275914490222931,-0.3097221851348877,0.10828866809606552,0.6386479139328003,-0.24424238502979279,0.24902650713920593,0.06273350864648819,0.19643990695476532,0.08182790875434875,0.08996506035327911,0.15789110958576202,-0.1839308738708496,0.260388046503067,0.11660685390233994,-0.07320957630872726,0.0828259289264679,0.14401796460151672,0.031181303784251213,0.4031628668308258,0.4071047008037567,0.038552477955818176,-0.06344693154096603,0.2049407958984375,-0.08983474224805832,0.27437856793403625,-0.26682835817337036,0.1320708990097046,-0.1650748997926712,-0.27613240480422974,0.11160300672054291,0.3533188998699188,-0.19489550590515137,-0.9927985668182373,-2.3930177688598633,2.872852325439453,0.8606618642807007,-1.405021071434021,-1.9361083507537842,-2.3612895011901855,0.028476402163505554,-0.04938233271241188,-0.12810802459716797,-0.7425687313079834,-1.1443495750427246,-1.9884146451950073,2.4982452392578125,1.1072144508361816,-0.9968757629394531,0.47003835439682007,-2.3460304737091064,3.44470477104187,-3.916046380996704,-1.5922998189926147,4.0308074951171875,2.83493709564209,1.1312633752822876,-2.777005434036255,-0.04381346330046654,0.21956230700016022,-2.3942196369171143,0.27311229705810547,-1.2844512462615967,-3.692681312561035,0.7104594111442566,-0.15714547038078308,-2.6229233741760254,0.588556170463562,2.1080987453460693,-2.5890257358551025,-1.0712720155715942,2.2012040615081787,-0.28471052646636963,-2.017238140106201,2.1641104221343994,-0.3273141384124756,1.6468143463134766,-2.179637908935547,1.0665382146835327,-0.08182449638843536,2.1090352535247803,0.5781497955322266,1.7941144704818726,-1.9125369787216187,3.1071362495422363,-0.8166081309318542,2.6660072803497314,-1.629925012588501,0.822439432144165,1.0218137502670288,-1.3461676836013794,3.773916006088257,5.673530101776123,-2.697854995727539,0.5138801336288452,4.334921360015869,-2.235490322113037,-2.332019567489624,2.408430337905884,4.560216426849365,1.608365535736084,-4.297036170959473,-0.7856116890907288,5.816575050354004,-0.9061148762702942,-0.026147153228521347,-7.373697280883789,1.5574406385421753,2.3595285415649414,-4.503026008605957,0.31128445267677307,-1.2156078815460205,-3.2344439029693604,1.6637961864471436,0.16445769369602203,-2.48876690864563,-2.3057544231414795,-2.99336838722229,-7.314670085906982,-0.31973183155059814,-3.7487070560455322,-2.9548370838165283,1.813799262046814,-1.8465608358383179,-0.6857483386993408,-0.07499755173921585,2.4560060501098633,6.740243434906006,-2.686025857925415,-3.338028907775879,-0.07570256292819977,-0.526147186756134,0.23057867586612701,-1.4522522687911987,1.3616799116134644,0.2041161060333252,0.1551932394504547,-1.2747658491134644,-0.9634995460510254,0.9178293347358704,-0.2618214190006256,-0.6559624671936035,-0.09279001504182816,1.6126455068588257,-1.5030382871627808,0.5266449451446533,0.2910587787628174,-0.026914875954389572,0.2559387683868408,-0.5019051432609558,1.0937981605529785,-0.3112912178039551,-1.4145176410675049,0.5734915137290955,0.5614210963249207,1.2699729204177856,-1.1555925607681274,-0.9450539350509644,0.49940839409828186,-0.8373882174491882,1.4815114736557007,2.1462960243225098,-0.1299404799938202,1.110850214958191,1.6687371730804443,0.6340797543525696,0.6775991916656494,0.39508557319641113,2.445209264755249,1.0708868503570557,1.3019263744354248,-0.9847670197486877,1.0032812356948853,-0.8022013306617737,0.6522750854492188,-0.5886471271514893,-1.1580473184585571,0.6540995240211487,-0.2113713026046753,-0.16437406837940216,-0.5642871260643005,0.6238455176353455,0.3177228271961212,0.5417385101318359,0.3426893353462219,0.7795872688293457,-0.2760014533996582,0.09151122719049454,0.33406925201416016,0.16634228825569153,-0.715573787689209,0.5108343958854675,-0.13988813757896423,0.3903181254863739,-0.507439374923706,0.02967488206923008,0.5644517540931702,-0.7079456448554993,0.6696580052375793,-0.28718265891075134,-0.015954114496707916,0.8785938024520874,-0.7616550922393799,0.5505602955818176,-0.4763006269931793,0.016990134492516518,-0.033229079097509384,0.2945529818534851,-0.3935031294822693,-0.485871285200119,-1.0333656072616577,1.0032685995101929,-0.19877547025680542,0.3198147714138031,0.06921280175447464,0.6369738578796387,-0.19233427941799164,-1.0954501628875732,-0.04074991121888161,-0.6709709763526917,0.028589172288775444,-0.09915613383054733,0.614707350730896,0.3076401650905609,-0.11815544217824936,0.16264359652996063,0.10893303155899048,0.8435710668563843,-0.4722617268562317,-1.003033995628357,0.10902193188667297,-0.819839358329773,-0.0022876709699630737,-0.5200656652450562,1.4382967948913574,-0.19055671989917755,-1.1160212755203247,1.2834978103637695,0.026630599051713943,-0.06968095153570175,0.5124092102050781,1.3566949367523193,-0.4845356345176697,0.853512704372406,1.1998136043548584,-0.6617367267608643,-0.9307986497879028,0.0730610340833664,0.4473319351673126,0.7018519639968872,-0.14805525541305542,-0.08213578909635544,0.1885346919298172,0.324445903301239,-0.6798161864280701,-1.4554308652877808,0.0843401551246643,-0.8501850962638855,0.9376551508903503,-0.21519123017787933,-0.42173027992248535,0.645463764667511,0.05048276484012604,0.8778709173202515,0.5716274380683899,0.5851947069168091,0.4878793954849243,0.017392806708812714,0.8874549269676208,-0.9604058861732483,0.39884042739868164,-1.0922400951385498,0.32840004563331604,-0.6162511706352234,-0.5248697996139526,0.4775008261203766,0.637770414352417,-0.3641997277736664,-0.3600597083568573,0.77555912733078,0.4188704490661621,0.7599507570266724,0.34275901317596436,0.5286069512367249,-0.034446753561496735,-0.3715411126613617,0.33318963646888733,-0.5928281545639038,-0.7828096747398376,-1.5622150897979736,-0.3310825526714325,0.20275607705116272,0.3961363434791565,0.5009665489196777,0.35405001044273376,-0.6775594353675842,0.47540760040283203,-0.12713803350925446,0.124062180519104,0.6101600527763367,-0.777565598487854,0.75572669506073,-0.37693658471107483,-0.20244751870632172,-0.39185479283332825,-0.4937031865119934,-0.9102495312690735,-0.12686029076576233,-0.17759954929351807,0.46783459186553955,0.5103327035903931,0.8616615533828735,0.44536975026130676,0.3895776569843292,-0.7547879815101624,-0.3379325568675995,0.35362708568573,-0.7742412090301514,-0.3142618238925934,0.19935621321201324,0.4557453393936157,0.6076680421829224,-0.2720378041267395,0.479528546333313,0.3574126362800598,0.3196070194244385,1.2472742795944214,3.035419225692749,-4.577832221984863,3.8658599853515625,-3.473228931427002,-2.457021474838257,0.038465291261672974,-0.3825424611568451,4.199565410614014,-0.9999884963035583,4.76948356628418,2.0284900665283203,2.2533280849456787,2.6050405502319336,2.0053629875183105,-2.7510275840759277,-2.0890767574310303,1.4654934406280518,-1.3833993673324585,1.9634294509887695,-4.956282615661621,2.922119617462158,3.049394369125366,7.286456108093262,-4.149020671844482,-4.150078773498535,5.890763759613037,0.25310438871383667,-4.6093902587890625,1.3711100816726685,3.7978482246398926,-2.2306432723999023,1.4129153490066528,-3.205059289932251,-4.323902130126953,1.596845030784607,-1.7729191780090332,-5.494838237762451,-0.7603313326835632,-4.11435079574585,1.6156060695648193,-1.970320463180542,-4.7040114402771,-0.8898345828056335,-3.842756748199463,2.2358944416046143,1.6158332824707031,-2.018450975418091,3.6559627056121826,-3.6897621154785156,-3.640026807785034,5.354250431060791,-3.0031967163085938,4.4926042556762695,1.4350395202636719,0.9029027819633484,-0.24342162907123566,-2.9633946418762207,-0.2755742073059082,0.8603047728538513,-5.162088394165039,-0.0665629431605339,1.5308077335357666,-2.948512315750122,1.3338960409164429,0.7056236267089844,-0.6712750196456909,-2.569751262664795,0.13268941640853882,2.667653799057007,0.4126470386981964,-3.6099116802215576,-2.798717975616455,1.9452769756317139,3.1115169525146484,-0.858334481716156,-0.6656131148338318,3.001027822494507,-5.182429313659668,2.617780923843384,2.8403890132904053,1.3003674745559692,1.099097728729248,2.5315427780151367,5.172313213348389,0.2804505228996277,1.219731092453003,2.040576696395874,2.2211861610412598,-0.7570493221282959,-3.2410097122192383,-1.1923006772994995,1.510040283203125,0.16974207758903503,-0.6293384432792664,-3.690589666366577,-0.720475435256958,1.7364550828933716,0.6716030240058899,0.5253743529319763,0.11213912069797516,0.010466155596077442,-0.45015132427215576,-0.21975906193256378,-0.4305919110774994,0.7509620189666748,0.6039326786994934,-0.20950433611869812,0.9046642184257507,0.4559663236141205,0.5288406610488892,0.13574464619159698,-0.1301785707473755,-0.7592602372169495,-0.5515831112861633,-0.41595926880836487,0.3327486217021942,0.1379135549068451,0.2847840189933777,-0.4157813489437103,-0.1223885715007782,0.03284861892461777,-0.49749132990837097,0.16975262761116028,0.23569980263710022,0.4992184340953827,0.20747482776641846,0.17059947550296783,0.02961231768131256,0.032347943633794785,-0.3625915050506592,-0.46750199794769287,-0.5548635125160217,-0.29612669348716736,-0.4672285318374634,0.3543780446052551,0.12593241035938263,-0.9956688284873962,0.22784103453159332,0.7671137452125549,-0.08413886278867722,-0.2521108388900757,-0.9350059032440186,0.5408250093460083,-0.12422938644886017,-0.6848062872886658,-0.018962312489748,1.035696268081665,1.5797866582870483,-1.0472557544708252,0.5953887701034546,-0.5362566709518433,0.7143052816390991,-0.3250349760055542,0.3406241238117218,0.5351279973983765,-0.43747541308403015,0.3344319760799408,0.7179054617881775,-0.58747398853302,-0.31882864236831665,0.8534605503082275,-0.5800948739051819,-0.34795403480529785,0.6169363260269165,0.4743909537792206,0.815555989742279,-0.5083210468292236,-0.19733992218971252,0.762677788734436,1.2077027559280396,-0.9731334447860718,-0.6435701847076416,1.1119837760925293,0.5332348942756653,-0.33536046743392944,0.9554618000984192,-0.29868778586387634,-0.4333273470401764,0.36898523569107056,-0.11492468416690826,-0.8839105367660522,-0.9701178669929504,-0.3436019718647003,-1.4614715576171875,-0.3175484240055084,-0.11525209993124008,-0.22816778719425201,0.15765009820461273,-0.2767399251461029,0.43009912967681885,-0.5112435817718506,0.5668299794197083,0.6643047332763672,-0.09414227306842804,-0.32085609436035156,-0.47013306617736816,-0.6472601294517517,-0.4554798901081085,-0.3592072129249573,0.37014076113700867,-0.017835723236203194,0.620526909828186,-1.1574746370315552,-0.9252057671546936,0.12626920640468597,0.2741122841835022,-0.04837460815906525,0.019854476675391197,-0.17753225564956665,-0.24409902095794678,0.32861796021461487,1.1652700901031494,0.1804339587688446,-0.33703193068504333,-0.8683720827102661,-0.090903639793396,0.6026454567909241,-0.6568422913551331,-0.05966351181268692,0.6620866060256958,-0.03209391608834267,-1.234421968460083,0.6924387812614441,0.8164577484130859,0.10084060579538345,0.32769155502319336,0.3515722453594208,0.30679962038993835,0.09043970704078674,-0.0051583521999418736,0.8273383378982544,0.8628318309783936,0.625112771987915,-0.067536860704422,1.4819880723953247,-0.22176317870616913,-0.778217077255249,0.7484821677207947,0.11452091485261917,0.401394248008728,-0.941752552986145,-0.2734697461128235,0.808868408203125,-0.6474603414535522,-1.2600044012069702,-2.4470198154449463,1.3591536283493042,1.1427593231201172,0.25769397616386414,1.4761470556259155,2.6146230697631836,-2.4745397567749023,-0.5369791984558105,1.186568021774292,-2.535661458969116,-2.1125972270965576,-3.059889554977417,-2.3992936611175537,1.8370177745819092,1.4970072507858276,1.7526521682739258,1.744321346282959,-3.682549476623535,1.0846693515777588,-1.6228872537612915,0.9722011089324951,1.8557626008987427,0.31740519404411316,1.583398699760437,-2.7359156608581543,-0.6636135578155518,-0.10435478389263153,-1.7697499990463257,0.1808888167142868,-1.452430248260498,-1.5450915098190308,2.3255746364593506,0.2680417001247406,1.8802911043167114,0.5623921751976013,3.3753693103790283,-1.6071991920471191,-1.8485881090164185,0.26180586218833923,-2.0569260120391846,0.3941332697868347,2.744403839111328,0.876334547996521,1.3016557693481445,-1.752411127090454,0.9402121305465698,2.173346757888794,2.4084644317626953,0.17610107362270355,-0.16483190655708313,0.5561108589172363,-0.28752830624580383,-0.4000939428806305,0.4524088203907013,-0.20006021857261658,0.05822452902793884,0.2019668072462082,-0.2484544813632965,0.6202762126922607,0.4585171043872833,-0.8644156455993652,0.264500230550766,-1.0479295253753662,-0.4272799491882324,-0.29662203788757324,0.3059132397174835,-0.05219704285264015,-0.39965304732322693,0.5515915155410767,0.9406697750091553,-1.225489616394043,0.1948740929365158,-0.4504908323287964,0.5678093433380127,0.4997289776802063,0.3784143626689911,1.5105993747711182,-0.11622346937656403,0.14673791825771332,-0.012910413555800915,0.12182959169149399,-0.2932583689689636,-0.0924425944685936,-0.25459977984428406,0.02881559357047081,1.3645716905593872,-0.3273067772388458,-0.28869637846946716,0.3966405689716339,0.08243495225906372,0.11642944067716599,-0.03687867522239685,-0.2659291625022888,-0.10650976747274399,-1.5170081853866577,-0.3229072690010071,0.3914802074432373,0.428864449262619,3.655484676361084,-1.7614433765411377,-1.4061819314956665,-1.8903803825378418,0.6048509478569031,-0.2596697211265564,0.17342619597911835,0.6021639108657837,-2.09013295173645,5.548734188079834,3.60099720954895,3.45306134223938,0.3404732346534729,-0.40248483419418335,1.9202704429626465,1.035651445388794,-0.5424899458885193,1.9594236612319946,0.23314419388771057,-0.1723947823047638,-1.1378412246704102,-2.7719926834106445,1.0896430015563965,2.373663902282715,0.9126332998275757,2.514981269836426,-0.1343582272529602,1.5796765089035034,1.2646963596343994,0.995372474193573,1.8974277973175049,-0.1230398640036583,2.9704689979553223,-1.7468676567077637,-2.791311264038086,-0.8599377274513245,0.7081735134124756,1.144110918045044,-1.1386468410491943,0.7858182787895203,-1.3865406513214111,-3.3737094402313232,-0.09031499177217484,0.5064036250114441,1.4904429912567139,-1.0392096042633057,1.3060081005096436,-2.8861615657806396,0.13114462792873383,-2.346559524536133,2.65458083152771,-1.5452576875686646,-0.9922791123390198,-1.029420256614685,2.8945415019989014,-0.24682393670082092,-0.6709651947021484,0.2552468478679657,1.2135250568389893,-1.1654329299926758,2.066131353378296,2.8619375228881836,-3.205617904663086,-0.28999224305152893,1.2669419050216675,-2.9971988201141357,-2.530928134918213,-0.403023898601532,4.194453716278076,2.9856343269348145,-2.8837594985961914,-3.512284278869629,-0.7874224185943604,3.0812366008758545,0.7377889156341553,0.027886198833584785,2.729678153991699,-4.871758460998535,0.6950714588165283,0.9147124290466309,-3.084015369415283,-0.37547510862350464,-0.1677839159965515,0.7954724431037903,0.19473199546337128,3.181522846221924,0.737781822681427,-1.83440101146698,2.0351712703704834,-1.4709302186965942,-0.7270508408546448,-3.9972739219665527,-2.6561601161956787,-0.46399179100990295,-3.8088600635528564,-1.9067543745040894,2.380544662475586,-0.9160466194152832,-1.9469208717346191,3.100435495376587,1.001528024673462,3.039396047592163,-2.1654369831085205,1.9764535427093506,0.4098084270954132,3.4700775146484375,3.667304754257202,0.9848229885101318,-3.0439655780792236,-2.638713836669922,1.669748067855835,1.4713753461837769,-3.5871522426605225,-2.783017873764038,-0.8860021829605103,-0.15459629893302917,-0.5469201803207397,1.0787482261657715,0.17825348675251007,-0.7038750052452087,-0.058942023664712906,0.04186160862445831,-0.6580643653869629,0.05697495490312576,0.5835534930229187,0.6776651740074158,-1.4003188610076904,0.7621611952781677,-0.6303181052207947,-1.511534571647644,-2.5412912368774414,0.755435049533844,2.0610556602478027,-1.145734429359436,-0.5749722123146057,1.3242560625076294,-5.511248588562012,3.034696340560913,7.328986644744873,-1.752618432044983,-2.5596542358398438,-4.018935203552246,5.420045852661133,-2.2793381214141846,0.07263796031475067,0.992424488067627,-4.394863605499268,0.8298159241676331,-1.1142090559005737,-0.5343472361564636,3.778254270553589,1.403435468673706,-2.361468553543091,-6.041000843048096,-1.9936392307281494,-1.6467721462249756,-5.555637836456299,-8.95740795135498,-0.6928054094314575,-3.3749680519104004,0.04651074483990669,5.523377895355225,2.838639736175537,2.683739423751831,-3.5205721855163574,-0.45825937390327454,-2.6362602710723877,-2.882575750350952,-1.8646736145019531,-1.4766087532043457,0.8665729761123657,-1.0416319370269775,-0.35445988178253174,-0.9682374000549316,-3.922816514968872,-0.09221543371677399,1.6446728706359863,0.6335898637771606,2.619691848754883,3.8429224491119385,4.260317325592041,-0.5107218623161316,5.998486518859863,-3.560659170150757,0.9868095517158508,5.111155986785889,0.24269592761993408,-2.8007097244262695,6.901377201080322,3.549588918685913,8.312593460083008,-5.003794193267822,3.994431495666504,2.260746955871582,0.2717466950416565,3.2868471145629883,0.1028100997209549,-1.6151574850082397,-1.556688904762268,-0.846191942691803,-1.1055456399917603,-4.385209083557129,3.15036940574646,2.1042041778564453,-1.9446967840194702,2.240673065185547,-1.295552372932434,0.9539347290992737,1.345381498336792,-0.3321790099143982,-2.83707857131958,-3.9510300159454346,-1.4193079471588135,-0.219808429479599,-2.0987000465393066,0.6489127278327942,-0.14935754239559174,-2.423482656478882,1.2060747146606445,-1.3819811344146729,-0.01867499016225338,1.4339264631271362,1.0936816930770874,2.8836238384246826,3.2085824012756348,1.1795518398284912,0.8275915384292603,0.11927203834056854,-2.7921392917633057,-2.254652261734009,0.5046558380126953,-0.5500379800796509,2.6879518032073975,1.0692393779754639,-3.1143195629119873,0.07155153155326843,2.7306220531463623,-1.7922247648239136,-2.6309945583343506,-2.1996145248413086,1.3048393726348877,-0.8897156715393066,-5.511943817138672,2.6344223022460938,1.7714225053787231,2.3647913932800293,-2.029755115509033,0.7711725831031799,-2.477762460708618,0.23912018537521362,-1.112444519996643,2.002267837524414,1.3923965692520142,-1.5595344305038452,-0.7249187231063843,2.811152219772339,-2.475740909576416,0.39478251338005066,0.0013722996227443218,-1.5487298965454102,-1.68948495388031,0.09192080050706863,2.388638734817505,0.8554288148880005,-0.3861071467399597,-2.164039134979248,1.0222187042236328,3.1211256980895996,-2.2107362747192383,-0.6089774370193481,3.0408201217651367,1.5269019603729248,-2.0880801677703857,1.8656121492385864,-0.37314504384994507,0.5201718807220459,0.04844767972826958,-1.468961477279663,-2.691946029663086,-3.8614935874938965,-1.9042094945907593,-1.5043810606002808,0.8223497271537781,-0.5931596159934998,0.4724670648574829,0.12128027528524399,-1.2466061115264893,0.33059927821159363,-0.9150894284248352,0.7391905784606934,1.1775341033935547,-1.5985809564590454,-2.197813034057617,1.1573415994644165,0.8729502558708191,3.6511640548706055,-4.193336009979248,-0.11819695681333542,-3.793152332305908,-1.5409679412841797,3.9755237102508545,2.676664352416992,2.197969913482666,2.4093244075775146,0.04089977592229843,5.298800468444824,1.6397795677185059,-2.824058771133423,-1.6053212881088257,1.3901329040527344,-3.8582420349121094,2.3243746757507324,-5.195135593414307,3.6130294799804688,-1.1479741334915161,-3.7768471240997314,-1.124037742614746,-0.29660528898239136,2.7823336124420166,1.5423706769943237,1.5250540971755981,6.67874813079834,-2.1897053718566895,3.965751886367798,4.793610572814941,-4.379397869110107,-0.991884708404541,-0.7271813154220581,-1.591767430305481,-3.754397392272949,5.006266117095947,5.486067771911621,-3.9816055297851562,2.5791289806365967,0.5602195858955383,-3.694467782974243,-2.5230236053466797,-0.7047602534294128,2.7425472736358643,-4.580087661743164,-1.9611620903015137,-4.478123188018799,2.5414328575134277,2.626866340637207,-1.7507606744766235,-1.3518611192703247,-2.889124870300293,-1.19779372215271,-1.0992810726165771,2.6787595748901367,3.1775565147399902,-1.9803835153579712,1.2067674398422241,1.4550518989562988,1.9031989574432373,1.2408947944641113,-0.9915838241577148,-2.5387282371520996,-2.9577982425689697,-0.09523513168096542,3.0871870517730713,-0.46781930327415466,0.45244497060775757,0.7753645181655884,-0.9503219723701477,1.122353434562683,-2.080939531326294,0.9429032206535339,1.9409259557724,1.1804450750350952,0.8930777907371521,2.5246801376342773,2.0331358909606934,1.509436011314392,-0.6505417823791504,-1.1377394199371338,-1.5829039812088013,-2.103714942932129,-2.4747045040130615,1.5842105150222778,2.4738569259643555,-2.1854922771453857,1.343381404876709,-2.0466887950897217,-1.561321496963501,-1.097575306892395,-2.8313629627227783,2.883563280105591,-0.011661318130791187,-2.2603557109832764,-0.64485764503479,2.242476224899292,1.8207221031188965,-0.47887617349624634,0.9700161814689636,-5.4538774490356445,6.16119909286499,0.6070483326911926,-5.958216190338135,-2.456226348876953,-2.616032600402832,-0.22149305045604706,1.1546419858932495,-5.158611297607422,-8.590713500976562,3.218904733657837,3.6333935260772705,-0.9492316842079163,9.925127983093262,-0.9483405351638794,2.89241623878479,-5.9399847984313965,7.4106340408325195,5.133049011230469,2.920921802520752,1.9378403425216675,-7.625003814697266,3.8019559383392334,0.7341345548629761,-0.7624645829200745,2.587331771850586,-1.802154779434204,-0.6003067493438721,7.945284843444824,-1.1075211763381958,-4.412493705749512,-0.455389142036438,5.319005966186523,-4.797702312469482,-3.771684169769287,4.487896919250488,-3.27361798286438,-0.005279699340462685,1.0009793043136597,8.05993938446045,-3.423902988433838,-7.931868553161621,1.0573502779006958,1.0355983972549438,-3.9147655963897705,-1.698191523551941,-0.9743167161941528,1.5690736770629883,-0.31212860345840454,0.7867672443389893,-0.024531317874789238,1.837665319442749,-1.9830551147460938,-0.8542023301124573,0.09204987436532974,-3.0879907608032227,-0.9824129939079285,-0.22927460074424744,-0.6996634602546692,0.11511631309986115,2.78179931640625,2.736379861831665,-0.49632343649864197,-1.4856181144714355,1.430331826210022,-0.7914933562278748,1.528925895690918,1.9723970890045166,-0.9138410687446594,2.0951790809631348,-2.352163553237915,-2.0523324012756348,-2.0028371810913086,-2.5443708896636963,-0.023118771612644196,0.9711652994155884,-2.2702229022979736,1.0765842199325562,2.6845223903656006,1.8673927783966064,0.30965474247932434,2.0994694232940674,-1.8597291707992554,-1.458418607711792,2.6177961826324463,-2.177013397216797,-1.5380131006240845,0.9411733746528625,1.6962487697601318,2.6482350826263428,-2.6701486110687256,2.4012577533721924,3.136699676513672,1.7761213779449463,-0.4485859274864197,-1.5175529718399048,-0.2919434905052185,4.847741603851318,3.2863821983337402,0.18161725997924805,5.019916534423828,0.71148681640625,2.4836771488189697,9.86420726776123,-3.600788116455078,-3.0253372192382812,-7.485124588012695,3.148822784423828,5.312087535858154,1.552154541015625,1.2714473009109497,-0.2726038694381714,-6.946376800537109,6.096559524536133,-6.510083198547363,3.770395517349243,6.297375202178955,-0.2802361845970154,1.5164151191711426,-3.1783084869384766,-2.0355894565582275,-2.4513936042785645,-6.07034158706665,-2.1644091606140137,2.112111806869507,0.6323830485343933,0.07573647797107697,-0.7638871669769287,1.53944730758667,6.873686790466309,8.29189682006836,-3.8482816219329834,0.11015200614929199,5.151839733123779,0.8579249382019043,-6.314878940582275,4.718269348144531,-0.6781892776489258,4.051708221435547,-6.548410415649414,5.165966510772705,2.6002085208892822,6.88881778717041,1.5997847318649292,4.994727611541748,-1.3616646528244019,-5.035647392272949,-1.6741886138916016,-6.2603864669799805,-3.654157876968384,0.45864346623420715,0.6344552636146545,-0.11677389591932297,3.2723965644836426,6.3976850509643555,3.754232883453369,0.6684591174125671,-4.924811840057373,-2.6681599617004395,0.6741917133331299,-8.385600090026855,1.5133131742477417,-8.795631408691406,4.471529960632324,-6.810817718505859,-8.097274780273438,-1.2730615139007568,-0.3979506492614746,6.4300737380981445,-0.15620137751102448,-2.0029566287994385,9.330191612243652,-1.466964602470398,0.8346981406211853,2.481822967529297,-3.0190370082855225,-2.818425178527832,-2.421210289001465,-4.276497840881348,1.91287100315094,10.742608070373535,-4.0514607429504395,-1.6174083948135376,0.756502628326416,4.9506683349609375,-1.9652583599090576,-6.8462018966674805,3.727508068084717,0.8645934462547302,-8.328352928161621,-2.192812204360962,-1.9118273258209229,-4.497150421142578,-1.811902642250061,2.9265365600585938,0.8568824529647827,3.7612388134002686,1.1748292446136475,3.777170181274414,-4.170549392700195,-5.003602027893066,2.235388994216919,-7.369403839111328,0.4474070072174072,0.9245684146881104,-2.1822566986083984,-0.729590117931366,7.429632186889648,7.216933250427246,-1.4864890575408936,1.0611445903778076,3.064584493637085,-1.2217057943344116,-1.7820059061050415,2.5079967975616455,-2.1391983032226562,5.365076541900635,-0.005201856140047312,-3.68843150138855,-3.8933537006378174,-3.864014148712158,-1.5372731685638428,-5.483443737030029,-2.9660487174987793,3.0283517837524414,9.273775100708008,1.5747328996658325,5.25349235534668,0.9017237424850464,-0.2135731428861618,-0.35915660858154297,4.921632766723633,-1.204777479171753,-6.2168755531311035,4.647202014923096,-0.7320316433906555,6.886067867279053,-5.009265899658203,2.188154458999634,3.7626404762268066,1.1713491678237915,4.67059850692749,-0.7597050666809082,-3.5186915397644043,1.3010950088500977,-6.9019036293029785,-2.386047124862671,-0.7881211042404175,8.623760223388672,8.826638221740723,-4.477003574371338,0.8608247637748718,5.090256690979004,2.8635568618774414,0.2818697690963745,-4.047714710235596,3.5173699855804443,-0.6717924475669861,-0.7334263324737549,4.845356464385986,6.094070911407471,3.2433114051818848,-2.767533302307129,3.2892298698425293,3.25850510597229,0.1960214227437973,3.2872889041900635,2.5470874309539795,2.863502264022827,-1.3087668418884277,6.1023149490356445,-4.49484395980835,-2.7320563793182373,-2.811821460723877,1.5238932371139526,-5.937810897827148,-6.0450286865234375,-2.743232488632202,1.931715965270996,-2.9353017807006836,-7.887717247009277,3.3214120864868164,9.009710311889648,-8.19588565826416,0.0639423206448555,0.18048670887947083,3.901188850402832,0.09846759587526321,-3.4601287841796875,-1.5602415800094604,0.5966233015060425,1.5459603071212769,0.9717583060264587,-6.674938201904297,-2.9536378383636475,-9.995043754577637,-1.676174521446228,2.141397476196289,1.253575086593628,-3.8707776069641113,2.1095869541168213,2.4573822021484375,4.174344062805176,0.782044529914856,-13.159406661987305,0.4682670831680298,0.3750362992286682,-7.870859622955322,3.106027126312256,-9.708234786987305,14.323394775390625,0.5710476636886597,-9.164654731750488,-1.5040940046310425,0.8104805946350098,15.479363441467285,1.168053150177002,-2.340553045272827,14.53284740447998,0.36719053983688354,5.836446762084961,6.319940567016602,-6.759775161743164,-0.27372637391090393,-2.2415249347686768,-2.7050442695617676,-1.4113378524780273,9.812110900878906,4.147582530975342,1.0741779804229736,5.048630714416504,0.4045346677303314,-0.5769293904304504,-1.9795150756835938,-0.5469560623168945,-0.44595471024513245,-14.000287055969238,-1.8718459606170654,-1.0594123601913452,0.6979144215583801,0.7042312622070312,-0.5981159806251526,-0.5221545100212097,-0.8841131329536438,-0.6207717061042786,-0.824394166469574,0.6303615570068359,0.9464682340621948,-0.6899724006652832,0.7711834907531738,0.7836437821388245,0.4167661964893341,0.42964479327201843,-0.6613364815711975,-0.1322311908006668,-0.24881303310394287,-0.5457806587219238,0.8851961493492126,-0.637385904788971,0.6113094091415405,-0.8648667931556702,-0.40233397483825684,0.7146164178848267,-0.40417298674583435,0.6116667985916138,0.4817188084125519,-0.009916454553604126,0.5152892470359802,0.36866873502731323,0.356039434671402,0.45836392045021057,-0.6282731890678406,-0.23531508445739746,-0.5484307408332825,-0.5429447889328003,-0.6271555423736572,0.3269146680831909,0.29770347476005554,0.1707114428281784,0.5138393044471741,-0.04131842032074928,-0.9410102963447571,-0.6488855481147766,-0.6738122701644897,1.454898476600647,-0.28613975644111633,-0.40016183257102966,-1.0992846488952637,-0.023472802713513374,0.7232323288917542,-0.7890921235084534,-1.3408572673797607,-0.241765096783638,0.24068698287010193,0.062036316841840744,-0.7905382513999939,-0.3970031440258026,-0.3507143259048462,0.6925531625747681,0.5088753700256348,0.029755020514130592,-0.016881728544831276,-0.2270389348268509,0.32450300455093384,0.35955196619033813,0.08053407073020935,-0.3020322024822235,-1.9249869585037231,0.21316610276699066,0.6770229935646057,-0.3086021840572357,0.5459330081939697,0.03813287988305092,-0.22751934826374054,0.4218496084213257,0.30060216784477234,-0.08814302086830139,0.4812432825565338,1.2211439609527588,1.5417348146438599,0.23777075111865997,0.4189152121543884,-0.7059253454208374,0.005823243409395218,0.7806893587112427,0.28205522894859314,0.8969399333000183,1.0547338724136353,0.41495558619499207,-1.1501420736312866,-0.211857408285141,0.024823565036058426,0.34897395968437195,-1.0960466861724854,-0.2491070181131363,0.18070681393146515,0.7181965112686157,-0.02465345337986946,0.05280313640832901,0.02167566679418087,0.05426312983036041,0.07688458263874054,-0.05052489787340164,-0.03904877230525017,0.0713312029838562,-0.0012691006995737553,0.043337736278772354,-0.020765695720911026,-0.06822371482849121,-0.009019224904477596,0.023095598444342613,-0.023347171023488045,0.06074927747249603,-0.04450783133506775,0.03242901712656021,0.05774348974227905,-0.046023622155189514,0.06776260584592819,0.0691169798374176,-0.009810490533709526,-0.011408750899136066,0.029341991990804672,0.03334479406476021,0.061284445226192474,0.02720193937420845,0.0554950088262558,0.04421024024486542,0.0007374383858405054,-0.040655866265296936,-0.07190342247486115,0.00002392309579590801,0.03331904113292694,0.0518038310110569,-0.0013974453322589397,-0.05673642456531525,0.010514803230762482,0.024562831968069077,-0.04860958829522133,0.04005361720919609,-0.041859205812215805,0.01426292397081852,0.0031636874191462994,-0.0006107334047555923,-0.05862506106495857,-0.055726826190948486,-0.047325026243925095]},"hiddenLayers":[{"inputMatrix":{"rows":50,"columns":49,"weights":[0.6902134418487549,0.5661844611167908,-0.5510001182556152,-0.10014794766902924,-0.3358340561389923,0.15630674362182617,-0.2294163703918457,0.3228515386581421,0.3925137221813202,0.422997385263443,0.38317638635635376,0.42468586564064026,0.18446557223796844,0.6901983618736267,0.07540945708751678,-0.115230992436409,-0.3370302617549896,0.07940152287483215,0.6272497177124023,-0.5053544640541077,0.1463792324066162,0.2594073414802551,-0.3578392565250397,0.35919085144996643,-0.5942288041114807,-0.023921284824609756,0.6095531582832336,-0.382783979177475,-0.16696174442768097,-0.959536075592041,-0.036495741456747055,0.1196596771478653,0.1108240932226181,0.05335952341556549,-0.41671615839004517,0.04208839684724808,-0.6141685247421265,0.45402148365974426,0.2537149488925934,-0.9598915576934814,0.7396219372749329,-0.9123594760894775,-0.13957104086875916,-1.1013176441192627,-0.008544896729290485,0.9358581304550171,-0.06727484613656998,-0.5885699391365051,-0.7018125653266907,0.3613240718841553,0.4616030752658844,-0.562470555305481,-0.8738692402839661,-0.34516170620918274,-0.45427849888801575,-0.7029675245285034,0.9053905010223389,0.2556764781475067,-0.5850069522857666,0.5899321436882019,1.9991265535354614,1.420039176940918,0.5005179643630981,-1.3512210845947266,-1.3475176095962524,-0.5137230753898621,-0.9604916572570801,1.778063416481018,-1.043110966682434,1.0231081247329712,-0.39074259996414185,-1.6663050651550293,-0.320944607257843,-0.6265973448753357,1.1055489778518677,-0.012798191979527473,0.765845775604248,0.09862717986106873,1.215734839439392,0.8085623979568481,0.47066283226013184,-0.730873703956604,-0.6696246862411499,-0.41018468141555786,-0.9309965372085571,-1.2670501470565796,0.8339174389839172,-0.2275700569152832,-0.09789126366376877,0.40520694851875305,1.0359790325164795,-0.7177096009254456,-0.921452522277832,-0.9847491383552551,0.1445212960243225,-1.139920711517334,-0.866448163986206,-1.5868299007415771,0.7863545417785645,0.4365357458591461,-0.17376317083835602,0.1834433674812317,-0.54885333776474,0.08863203227519989,-0.5228134393692017,0.792523980140686,1.1645232439041138,-0.38703757524490356,0.7507478594779968,1.1977918148040771,-0.44320112466812134,0.06908264756202698,0.24953021109104156,-0.4756287634372711,-1.187512993812561,0.4521183967590332,0.7104543447494507,0.2660790979862213,-0.16836783289909363,-0.986782431602478,0.260797381401062,0.4532954692840576,-0.6632512211799622,-0.14147475361824036,0.5124443769454956,0.631130576133728,-0.2581946849822998,0.45821458101272583,0.09506377577781677,-0.02789292298257351,0.07175783067941666,-1.2071564197540283,-0.869621992111206,-1.0229380130767822,-1.1199040412902832,-0.3991779685020447,-0.10086436569690704,-1.3979182243347168,-0.12400851398706436,1.877542495727539,-0.5381673574447632,0.25856947898864746,-1.4716854095458984,1.0701266527175903,0.174809068441391,-0.8915520310401917,-0.9270111918449402,0.23376499116420746,0.5384520292282104,-0.22159428894519806,0.013286552391946316,-0.03728610649704933,-0.1959192156791687,-0.21636712551116943,0.1970321238040924,0.10388802736997604,0.014018021523952484,-0.060680091381073,0.2575390040874481,-0.06676381826400757,-0.12548744678497314,0.5756375193595886,0.02656729519367218,0.03311065584421158,-0.10620609670877457,0.05676804110407829,0.4992736279964447,-0.6056163907051086,-0.6808216571807861,0.40373873710632324,-0.2824326157569885,0.14520680904388428,-0.5251540541648865,0.02747374400496483,-0.632105827331543,-0.6521828770637512,0.1188855916261673,-0.386922687292099,-0.4609180986881256,0.060700759291648865,0.6439956426620483,0.31950801610946655,-0.4245845675468445,0.644581139087677,-0.16918061673641205,-0.22694696485996246,-0.009742158465087414,-0.1380501389503479,0.15840581059455872,-0.23556676506996155,0.11395145207643509,0.5310377478599548,0.28488144278526306,0.9808319807052612,0.2655121684074402,-0.030010459944605827,0.9227277636528015,0.6130663156509399,-1.7384620904922485,-1.0505999326705933,-1.4565469026565552,-0.594656229019165,0.19310343265533447,0.2229873389005661,-0.12068408727645874,-0.19579622149467468,1.903014898300171,1.4261034727096558,1.9221737384796143,0.919714093208313,-0.46738550066947937,-0.09726106375455856,0.2316952347755432,-1.0488473176956177,0.08707687258720398,-0.5581846833229065,-0.1180088222026825,-0.07516611367464066,-0.06450741738080978,-0.13416938483715057,-0.425912469625473,0.29883891344070435,0.33601346611976624,0.2938529849052429,-0.35223978757858276,1.1661584377288818,0.9324211478233337,1.3219507932662964,-0.7944209575653076,0.052541688084602356,-1.7189533710479736,-0.5948159098625183,0.03233346343040466,-0.09912269562482834,1.4672621488571167,0.12086780369281769,0.7931579351425171,-0.2339092344045639,-0.838653028011322,-0.6231563687324524,-0.7841465473175049,0.18875166773796082,-0.5148137211799622,-0.1651761531829834,-0.3303251564502716,-0.4399297833442688,-0.572709858417511,0.9581214785575867,-0.25989577174186707,0.686323881149292,0.9475785493850708,1.0879887342453003,-2.455902099609375,-1.512446403503418,0.48462867736816406,-1.909659504890442,-2.145265817642212,-0.8686292767524719,-0.9166250228881836,0.5421463251113892,1.4311846494674683,1.6034423112869263,0.6109411716461182,-1.6248184442520142,0.28477999567985535,-0.5531964302062988,1.3487385511398315,0.4876181185245514,-0.03055134229362011,0.7659942507743835,-0.7751695513725281,0.4261977970600128,-1.2696516513824463,-1.1905125379562378,-0.6933554410934448,-0.18580082058906555,0.27298101782798767,1.034134030342102,0.8548645377159119,1.3470110893249512,0.038665466010570526,2.0084211826324463,-0.4097673296928406,-0.5085580348968506,2.0257086753845215,-0.7706160545349121,-1.0930618047714233,1.89421808719635,0.8836678266525269,1.4766942262649536,-2.8031394481658936,0.5268791913986206,1.134219765663147,1.3921122550964355,0.9751972556114197,0.5963189601898193,-0.3312116861343384,-0.8886688947677612,-0.6549134850502014,-1.1944992542266846,-0.09883402287960052,-0.29079487919807434,0.19283372163772583,0.4899674952030182,0.5715118646621704,-0.37729424238204956,0.3031744062900543,1.5041855573654175,-1.1557590961456299,-0.6087977290153503,-0.5004206299781799,-1.6874001026153564,0.6692846417427063,-1.4311319589614868,1.0597903728485107,-0.09422249346971512,-1.878738284111023,0.25182878971099854,-0.05752432718873024,0.8451427221298218,-0.2752956449985504,-0.12825679779052734,1.4220504760742188,0.2339649498462677,1.4108638763427734,0.6418536901473999,-1.5760385990142822,0.021511098369956017,-0.05669662728905678,0.22732965648174286,0.021661238744854927,1.6383930444717407,1.506312370300293,-0.6662501096725464,1.3750050067901611,-0.1386418342590332,-0.5278551578521729,-1.5934810638427734,-0.4485068917274475,1.1283502578735352,-0.9328901171684265,0.07061482220888138,-0.28083109855651855,-0.14160451292991638,-0.43569639325141907,0.7427958846092224,0.13579297065734863,0.2339468002319336,0.4276207983493805,0.07422982156276703,0.2093956470489502,0.039560411125421524,-0.2359251230955124,-0.3472763001918793,0.8083893656730652,-0.3421887457370758,-0.1916116178035736,-0.1928064227104187,0.03879515826702118,0.022621186450123787,0.12688866257667542,0.5288583040237427,-0.42040500044822693,0.20570336282253265,-0.44852307438850403,-0.10689428448677063,-0.048891324549913406,-0.2687693238258362,0.15124182403087616,0.05725272744894028,0.37468016147613525,-0.01018767710775137,-0.5866339206695557,-0.2130015343427658,-0.18103258311748505,0.3027905523777008,0.15451185405254364,0.565224826335907,-0.5256516933441162,-0.38012707233428955,0.15138840675354004,-0.14313124120235443,-0.4492025375366211,-0.7068738341331482,0.9038392305374146,-0.03043406456708908,0.35307565331459045,-0.4387832283973694,0.3918464779853821,-0.08405435085296631,-0.09460563212633133,-0.7005935907363892,1.1472406387329102,0.9528776407241821,-1.0132845640182495,0.2090039700269699,-1.4057917594909668,0.643307626247406,-1.1262315511703491,0.9846674203872681,1.4139984846115112,-1.2123545408248901,0.710421085357666,0.961514413356781,-0.441355437040329,-0.5049855709075928,0.4822162389755249,-0.9863477349281311,-1.020081877708435,0.557458758354187,0.13643568754196167,-0.38277706503868103,-0.4229572117328644,-0.8624722361564636,-0.06475874781608582,2.1124987602233887,-1.4571359157562256,-0.41699308156967163,1.5648945569992065,1.1408532857894897,-0.13666808605194092,0.8677672147750854,-0.35981225967407227,-0.10356097668409348,0.3460117280483246,-1.1165095567703247,-0.8894515037536621,-1.849838376045227,-1.1517481803894043,-0.36040279269218445,-0.13848590850830078,-1.0093798637390137,0.0024138321168720722,0.3500397801399231,-1.2253268957138062,0.28592386841773987,-0.7389494776725769,0.728771984577179,0.7223386168479919,-1.1138010025024414,-0.7272409796714783,0.01934308186173439,-0.005897474009543657,-0.9733595848083496,-0.002418649150058627,0.24142450094223022,0.2480807900428772,0.19213679432868958,-0.8814015984535217,-0.1436251997947693,0.045750245451927185,-1.7602260112762451,-0.8731077909469604,-0.4294811487197876,-0.11734039336442947,0.4785211384296417,0.8171524405479431,0.43439164757728577,0.2331489771604538,-0.04837113991379738,-1.611332654953003,-0.5609195232391357,0.3805939257144928,-0.26141470670700073,1.2016627788543701,0.002450364176183939,-0.2848411202430725,0.1456262767314911,-0.2617751955986023,-0.1006607934832573,0.004424876533448696,0.4143407344818115,0.056089747697114944,0.08924168348312378,0.5429987907409668,0.6381374597549438,0.08840089291334152,0.5483502149581909,-0.03511122986674309,0.21345768868923187,0.9477897882461548,-0.2559698820114136,0.41903018951416016,0.8433014154434204,0.3334014117717743,0.7877229452133179,-0.7037500739097595,0.753180742263794,0.1843554973602295,0.38678592443466187,0.6291527152061462,0.5026123523712158,-0.3676721155643463,-0.29002344608306885,-0.7450124621391296,0.5559163689613342,-0.6733534336090088,1.1000404357910156,0.6837582588195801,-0.8691446781158447,1.2970601320266724,1.259543538093567,-0.31820735335350037,-0.2794934809207916,-0.06034358963370323,-0.5714992880821228,-0.6128429174423218,0.7133269309997559,1.3445110321044922,0.262051522731781,-0.040707748383283615,-0.18598827719688416,-0.21145258843898773,-0.041083935648202896,-0.43340378999710083,-0.22175830602645874,0.6979236602783203,0.5414206385612488,-0.31852588057518005,0.25237539410591125,-0.35775038599967957,-0.3597041964530945,0.3992782235145569,-0.43252402544021606,-0.562690019607544,-0.7450288534164429,-1.3280822038650513,-0.4032618999481201,-0.45448067784309387,-0.8042029738426208,-0.3264315128326416,1.0599452257156372,-0.8014166951179504,0.28598862886428833,-1.0697245597839355,0.6364843249320984,-0.07518967986106873,-0.7563086152076721,-1.0044066905975342,0.19524528086185455,-0.37014245986938477,-0.11852238327264786,1.0206470489501953,0.17988012731075287,0.41051721572875977,0.2804643213748932,0.3935668170452118,0.584255576133728,-0.15466716885566711,-0.40960603952407837,-0.6745533347129822,-0.36440277099609375,-0.22082722187042236,0.8929831981658936,-0.20669212937355042,-0.41578957438468933,0.7286059856414795,-0.12530586123466492,1.214748501777649,-0.5049791932106018,-0.6975999474525452,1.2377132177352905,0.016546258702874184,-0.6061098575592041,-0.5998804569244385,0.4719124436378479,0.05709801986813545,-0.7106916904449463,-0.16905178129673004,-1.2061712741851807,-0.9024524688720703,0.5653637051582336,-0.7150565385818481,0.802413284778595,-0.3312288224697113,-0.18479451537132263,-0.46538928151130676,-0.8090893030166626,-1.167404055595398,-0.5720044374465942,0.5674335360527039,-0.19170251488685608,0.4708399176597595,-0.686773955821991,0.8008708357810974,0.8240450024604797,-0.4272688925266266,-0.05471121519804001,0.6168941259384155,0.6027194261550903,-0.6881604790687561,0.34595704078674316,-0.8260757327079773,1.1627558469772339,-0.08869189769029617,-0.23063568770885468,0.5669010877609253,-0.14971062541007996,1.2562638521194458,0.17436116933822632,-0.6157558560371399,-1.3383101224899292,0.7987949252128601,-0.8555525541305542,-0.796964168548584,1.9170011281967163,-1.1752824783325195,-0.5584961771965027,-1.273247241973877,0.36289501190185547,0.6288720965385437,0.9003339409828186,-1.012674331665039,-1.6667944192886353,0.9317393898963928,0.8899138569831848,0.5788593888282776,0.666027843952179,-0.6699529886245728,-0.2273898720741272,1.3847908973693848,-1.0685514211654663,-1.008401870727539,-0.4715251624584198,0.4962950050830841,-0.7465208768844604,-0.7773318290710449,-0.5371216535568237,-1.1347848176956177,0.4447244107723236,-0.09514310956001282,-0.039715513586997986,0.06911840289831161,-0.0718546211719513,0.041671447455883026,-0.056832801550626755,0.6262621879577637,-0.5630433559417725,-0.5707045197486877,0.18160653114318848,0.4701228737831116,0.504416286945343,0.24097014963626862,0.7298290729522705,-0.3928719758987427,-0.5422989130020142,0.8468536138534546,-1.025559425354004,-0.10527021437883377,-0.9778711199760437,-0.5471305251121521,0.5273771286010742,0.42121249437332153,0.9128573536872864,0.22451436519622803,0.21673648059368134,0.5742121934890747,-0.0910814106464386,-1.1862905025482178,1.2858858108520508,-0.3253917694091797,0.5804417729377747,-0.1309259533882141,-0.4538215696811676,-0.9359989166259766,-1.6770516633987427,-0.9209200143814087,-0.8714621663093567,-0.27570798993110657,0.21978969871997833,0.48785895109176636,0.4081606864929199,0.5639710426330566,-0.20947644114494324,-1.0066107511520386,-0.41945669054985046,-0.07913356274366379,-0.5553337335586548,-0.8134216666221619,0.5402383208274841,0.4468283951282501,0.6455031633377075,0.28497758507728577,0.945723295211792,0.517453670501709,-0.16176825761795044,0.5975499749183655,0.07476413995027542,0.039987195283174515,0.17418992519378662,0.0005782298976555467,-0.3330220580101013,-0.7073249220848083,1.2677682638168335,1.2120734453201294,0.11696349084377289,0.5194994807243347,0.2720637321472168,0.05204126611351967,0.16828159987926483,-0.2289867401123047,-0.567899227142334,-0.9032800197601318,-0.4893997609615326,1.3484916687011719,-0.086941197514534,0.4445619583129883,-0.6413280367851257,-0.144043430685997,-0.14887286722660065,-0.46797415614128113,0.6172283887863159,-0.09057100862264633,0.2347274273633957,0.47297564148902893,-0.00527592608705163,-0.25567734241485596,-0.23869986832141876,-0.5206734538078308,-0.7758779525756836,-0.23053333163261414,-0.15420545637607574,-1.4138745069503784,0.09194374084472656,0.02356741763651371,-1.382080316543579,0.2962557375431061,0.38425976037979126,-0.8299137949943542,-0.4264468848705292,-0.6868728995323181,1.4318338632583618,-0.49554377794265747,-0.9822178483009338,-1.2756503820419312,0.7126988172531128,0.36982014775276184,-0.251973956823349,0.013792140409350395,-0.23804247379302979,-0.5881304740905762,-1.576370358467102,0.7968030571937561,0.47441351413726807,-0.565155029296875,0.6127720475196838,0.17565587162971497,-0.13666406273841858,0.4301963448524475,-0.3513886332511902,-0.9940901398658752,-1.089388132095337,-0.5371202826499939,0.9524137377738953,-0.593856930732727,0.9584639668464661,-0.8324441909790039,-0.9039301872253418,0.25959500670433044,-0.8022581934928894,0.775987446308136,0.376469224691391,0.8474406003952026,0.7426100373268127,0.25396713614463806,0.14318953454494476,-0.02052776701748371,-0.5700011849403381,-1.0930867195129395,-0.3737502992153168,-0.18269404768943787,-1.0402655601501465,1.1982864141464233,0.041309431195259094,-1.1385064125061035,0.07363024353981018,1.371038794517517,-1.097978115081787,-0.13515877723693848,-1.0697230100631714,1.156230092048645,-1.0163339376449585,-1.391204595565796,-0.9732678532600403,-0.43753084540367126,-0.3580513000488281,0.9107844829559326,0.6721712350845337,0.62344890832901,1.0711946487426758,0.05514175817370415,0.3381602168083191,0.3411371409893036,0.6814702153205872,-0.9200953245162964,-0.8097277879714966,-0.10957013070583344,-1.5415277481079102,1.5194611549377441,0.0985490083694458,0.00002097285323543474,1.045741081237793,0.7962872982025146,0.03241453692317009,-0.7624273300170898,-0.4278005361557007,1.0012060403823853,-1.0908771753311157,-0.10584767907857895,-0.8344201445579529,-0.7036783695220947,-0.49630483984947205,-1.6102657318115234,-0.653137743473053,-1.1417572498321533,-1.4225033521652222,1.3514845371246338,-0.0354161374270916,0.9431901574134827,0.4424149990081787,-0.550284743309021,-1.6176866292953491,-1.1560536623001099,-0.27720388770103455,-1.7270970344543457,-0.3073652982711792,-0.1334870159626007,1.6748154163360596,-0.18374121189117432,0.7420496940612793,1.9814410209655762,-0.19506385922431946,-0.3343453109264374,0.33566346764564514,0.3676718473434448,-0.8556075096130371,0.39155644178390503,-0.4350191652774811,0.08445284515619278,-0.08149273693561554,-0.02791610360145569,0.1241561695933342,-0.06476250290870667,0.23799188435077667,0.4784301817417145,-0.04800901189446449,-0.4812004268169403,0.252960205078125,-0.1988857090473175,-0.2248702496290207,0.1439027041196823,0.2980859875679016,0.9122605919837952,-0.571389377117157,-0.28632667660713196,0.19570009410381317,0.8606116771697998,-0.22531746327877045,-0.5626856088638306,0.20343609154224396,0.10033687204122543,-0.34142616391181946,0.43140557408332825,-0.40936028957366943,-0.5747684836387634,0.4091661274433136,-0.1357164829969406,-0.6895060539245605,-0.3000972270965576,-0.13204975426197052,-0.6636033058166504,-0.4765119254589081,-0.7332876324653625,-0.6387422680854797,0.4334714412689209,-0.21034252643585205,0.47661182284355164,-0.0500711053609848,0.3622487187385559,0.5185922384262085,-0.13319027423858643,-0.6561543941497803,-0.2080058455467224,-0.13639609515666962,-0.27230706810951233,1.4890116453170776,0.13981373608112335,0.788178563117981,0.1398816853761673,-0.2929031252861023,-0.09374015778303146,0.25961193442344666,0.6370036005973816,-0.17123818397521973,-0.7142385244369507,-0.6100269556045532,0.5204665064811707,-0.26222264766693115,-0.32102447748184204,0.9972937107086182,-1.590813398361206,1.269563913345337,-0.7556836605072021,0.2832130193710327,0.5901360511779785,0.21494907140731812,-0.10088519752025604,-0.7763293981552124,0.244498610496521,0.2018057405948639,-0.31644752621650696,-0.44549697637557983,-1.4972883462905884,-0.7612485885620117,0.9489569067955017,-0.12042469531297684,-0.11401950567960739,0.17837029695510864,0.3954924941062927,-0.9493318200111389,-1.202451467514038,-0.741820216178894,-0.5722370147705078,0.044278331100940704,-0.3105771541595459,0.5500521659851074,-0.19407331943511963,0.227591410279274,0.10205448418855667,0.6338812708854675,1.1709129810333252,0.19673316180706024,0.42725127935409546,-0.027633430436253548,0.3629694879055023,-0.6961228847503662,0.6785235404968262,-0.12109582126140594,-0.2549755275249481,0.13308918476104736,-0.6103706955909729,0.43579670786857605,0.43470919132232666,-0.25335291028022766,-0.3255191743373871,0.6446726322174072,-0.06886981427669525,-0.025164108723402023,0.5642056465148926,-0.15462122857570648,-0.011032071895897388,-0.6831247210502625,0.8921685218811035,0.27157530188560486,0.42536410689353943,-0.8458039164543152,-0.7695220708847046,0.6504029631614685,0.7514263391494751,-0.5824731588363647,0.7275903224945068,0.3386397957801819,-0.3234706223011017,0.5126563906669617,-0.5281394124031067,-0.6886665225028992,-0.5342484712600708,0.6452440619468689,-0.361629456281662,-0.007053222972899675,0.4564584791660309,-0.39257991313934326,-0.070024773478508,0.5539543628692627,0.7343601584434509,0.032029055058956146,-0.1654800921678543,0.4158608615398407,-0.13985933363437653,0.22386734187602997,-0.2760204076766968,-0.037016332149505615,-0.20904408395290375,0.9613717794418335,-0.0694282278418541,1.2034188508987427,0.04932743310928345,-0.916266679763794,-0.5267241597175598,-0.44181859493255615,-0.395350843667984,-0.5481729507446289,-0.09113892912864685,-1.3573249578475952,0.6510102152824402,0.4294935464859009,0.0019696506205946207,1.2081432342529297,-1.1380177736282349,1.8012151718139648,-0.7497726082801819,0.6986981630325317,1.6314390897750854,-0.22190669178962708,-0.19516050815582275,-1.1411476135253906,-0.1514967530965805,0.025922246277332306,-1.8569303750991821,0.21784816682338715,-0.16742293536663055,-1.7505764961242676,1.254795789718628,-0.21732349693775177,0.02971496619284153,-0.042347390204668045,1.138948678970337,-1.0650513172149658,-1.8916507959365845,0.6236991882324219,-1.3925092220306396,-0.7729974985122681,0.4219413995742798,1.1023656129837036,0.7330352663993835,-0.7292322516441345,1.802671194076538,0.2533847391605377,0.6850177049636841,0.29255300760269165,0.04401556774973869,0.34621548652648926,-0.8133012056350708,0.22070682048797607,-0.2993641495704651,-0.24462227523326874,0.4659707546234131,0.36680036783218384,0.2576310336589813,0.2262628674507141,-0.06934372335672379,0.5270437598228455,0.6437309384346008,-0.5913516283035278,-0.6006831526756287,-0.27965041995048523,-0.35621562600135803,0.2863190770149231,-0.9757871031761169,0.18676289916038513,-0.1678640991449356,-0.5674376487731934,-0.3266446888446808,0.03959601745009422,0.7839055061340332,-0.33739936351776123,-0.11398282647132874,1.4670673608779907,-0.5281423926353455,0.615051805973053,0.9062876105308533,-0.3952358067035675,-0.14608967304229736,0.22972460091114044,0.24099113047122955,-0.333889365196228,0.5246614813804626,0.5874406695365906,-0.33877620100975037,0.466423362493515,0.4413270354270935,-0.6000420451164246,-0.5554580092430115,-0.5673548579216003,0.532595157623291,-1.097072720527649,-0.3762141764163971,-0.4434349834918976,-0.1808653026819229,-0.01377647090703249,0.5541008114814758,0.7328433990478516,-0.001710420474410057,0.7980235815048218,-0.1401892900466919,-0.3465680181980133,-0.17064383625984192,0.27652013301849365,-0.10190311819314957,-0.7157714366912842,-0.8472340106964111,-0.6316996216773987,0.9929882884025574,0.24649186432361603,0.4757184088230133,0.8524340391159058,-0.6481311321258545,-0.026247914880514145,-1.0500456094741821,0.5022487044334412,0.3964724838733673,-0.14105767011642456,0.14304371178150177,-0.7490972876548767,0.039487484842538834,-0.02608388476073742,0.08174949884414673,-0.05421465262770653,-0.6798033118247986,-0.7068831920623779,0.8717249631881714,0.1464846134185791,0.6334911584854126,-0.04899483919143677,0.6482818722724915,-0.3778504431247711,-0.6618397235870361,0.11117023974657059,-0.6876111626625061,-0.2867220640182495,0.752918541431427,0.7222142815589905,0.23671944439411163,-0.3865262269973755,0.8809729218482971,0.1646968573331833,0.6950595378875732,-0.18869580328464508,-0.29695358872413635,0.2613525092601776,0.08781736344099045,0.23988698422908783,1.1883702278137207,0.03577197343111038,0.308208167552948,-0.06960327923297882,-0.485011488199234,-0.7081118226051331,-0.6566416621208191,-1.2473845481872559,-0.5010177493095398,0.43358737230300903,-0.26774147152900696,0.12342371046543121,0.5293318033218384,-0.7950915098190308,1.073128342628479,-0.36982327699661255,0.6952306628227234,0.5144545435905457,0.1719067096710205,-0.5509448647499084,-0.3509921133518219,0.5980419516563416,0.5053316950798035,-0.31208401918411255,-0.2209291309118271,-0.6260619759559631,-0.04115715250372887,0.5780603885650635,-0.4787774682044983,0.6264817118644714,0.0030665278900414705,-0.06249929219484329,-0.4431942105293274,-0.45363330841064453,0.702235758304596,-0.757809042930603,-0.5758082270622253,-0.060187049210071564,1.0762706995010376,0.029611604288220406,-0.8608039021492004,1.259717583656311,-0.49875304102897644,0.41919538378715515,0.18895192444324493,0.011164863593876362,0.3516358435153961,0.14893901348114014,-0.3647311329841614,-0.7339789867401123,-0.09577898681163788,-0.356983482837677,-0.08037395030260086,0.38692736625671387,0.846962571144104,0.7844321727752686,0.8848590850830078,0.6360006928443909,0.1360618621110916,-0.198990136384964,-0.03803558275103569,-0.4197084903717041,0.06699539721012115,0.20617419481277466,-0.21360589563846588,0.21619929373264313,-0.905490517616272,-0.7271088361740112,-0.23206855356693268,0.5808403491973877,-0.14289043843746185,-0.13313215970993042,0.9006689190864563,0.022248094901442528,0.019422519952058792,-1.0139881372451782,-0.3529508411884308,-0.03326171636581421,0.030374443158507347,0.2053411453962326,0.04731460288167,1.1530603170394897,-0.5151398777961731,-0.2300577461719513,0.45418912172317505,-0.03933412954211235,-0.3292020559310913,-0.5206385850906372,-0.4787048399448395,0.3958132565021515,-1.3761082887649536,0.025405945256352425,0.32594797015190125,1.663710594177246,1.748131513595581,-0.9708171486854553,-0.08863992989063263,-0.812999427318573,0.15776465833187103,-0.7424793839454651,0.7898240089416504,1.555997371673584,-1.264444351196289,0.9028127193450928,1.1921213865280151,-0.045484308153390884,0.21543949842453003,-0.24491120874881744,-0.8816777467727661,-0.929521381855011,0.21605482697486877,1.1530393362045288,0.1368631273508072,0.28374049067497253,-0.06818658858537674,-0.06848698109388351,0.9563217163085938,-1.1326924562454224,0.017463987693190575,0.7745445370674133,1.2089202404022217,-0.8664041757583618,1.1501003503799438,-0.07961097359657288,0.07076416164636612,0.27286219596862793,-0.891440212726593,-0.9556121826171875,-0.9105677008628845,-1.0210309028625488,0.07343008369207382,-0.28651347756385803,-0.843036413192749,0.6386116743087769,0.7423800230026245,-0.6905367374420166,0.006904629524797201,-1.0605663061141968,0.6682418584823608,0.4968551993370056,-1.1019368171691895,-0.9632071852684021,1.149238109588623,1.0151968002319336,-0.8802628517150879,0.34217631816864014,-1.6563462018966675,-0.6064079403877258,-1.9032617807388306,-0.1985553801059723,0.7385417819023132,-0.5643346309661865,2.300008535385132,0.09804312884807587,0.04209035262465477,0.5781407952308655,0.033403411507606506,-0.7562950253486633,-2.2309086322784424,-0.14132821559906006,-0.4798940122127533,-0.47767284512519836,-0.0509040467441082,-1.410152554512024,-0.39654821157455444,0.9790162444114685,-1.1518901586532593,-0.0008060048567131162,1.13441002368927,0.7636211514472961,0.8434088230133057,0.8142116069793701,0.5382108688354492,0.28008756041526794,-0.7016137838363647,-1.1977235078811646,-1.4303224086761475,-0.9281501770019531,-0.028011783957481384,0.23809479176998138,0.5783398747444153,-0.870703935623169,0.7975829243659973,0.07995130121707916,-0.4593219757080078,-0.5290849804878235,-1.1470273733139038,0.8683151602745056,-0.2311476469039917,-1.6622368097305298,0.6013546586036682,-0.08347374200820923,0.4809412658214569,-0.8837615847587585,0.559111475944519,-0.47578391432762146,0.883745014667511,0.5018671751022339,-0.3174251317977905,0.02969096228480339,-0.13100925087928772,0.6338055729866028,0.5495924949645996,-0.2489936798810959,-1.0592598915100098,0.902353048324585,-0.07162339240312576,0.09627272933721542,1.3126448392868042,-0.7635122537612915,0.15897521376609802,-1.3622066974639893,0.6847445368766785,0.455883651971817,1.023640751838684,0.13409662246704102,-1.1727911233901978,0.6049802303314209,-0.08820267766714096,-0.5290572047233582,-0.028221940621733665,-0.02609938383102417,0.2405710369348526,1.1154899597167969,0.10777824372053146,-0.6891673803329468,-0.4862465262413025,0.6470308303833008,-1.04059898853302,-0.11124774813652039,-0.23941293358802795,-0.1236194595694542,-2.07814884185791,0.11174940317869186,0.5883206129074097,-0.050460826605558395,0.05051865428686142,0.9075495004653931,0.2594752013683319,1.078967809677124,0.46489468216896057,-0.01726154424250126,-1.0825990438461304,-0.292627215385437,-0.15461355447769165,-0.18150341510772705,-0.26617881655693054,0.2371576577425003,0.13592274487018585,-0.14964304864406586,0.5301916003227234,0.7514612078666687,0.14744971692562103,0.10532040148973465,-0.4612634479999542,-0.1598045527935028,-0.04166069254279137,0.0009337584488093853,0.06224074214696884,-1.4690403938293457,0.35579007863998413,-0.2239234447479248,-0.6661061644554138,0.5385263562202454,-0.13046304881572723,0.7395269274711609,-0.14028161764144897,0.34822461009025574,0.7652361392974854,0.5142908096313477,0.29416537284851074,0.7640003561973572,0.07491794973611832,-0.11677271872758865,-0.0778663232922554,-0.3067128658294678,-0.12459389865398407,1.0632638931274414,0.15933330357074738,0.140283465385437,0.2578140199184418,0.8802419900894165,0.17630259692668915,-0.13495782017707825,-0.30794569849967957,0.12017325311899185,-0.7638376355171204,-0.15127266943454742,-0.11831528693437576,1.1742749214172363,1.3013861179351807,-0.1538492888212204,-0.49540963768959045,-1.0071994066238403,0.2647920548915863,-1.3473149538040161,0.8994465470314026,0.3075766861438751,-0.7805153131484985,1.0755486488342285,0.506377100944519,-0.4517535865306854,0.35661032795906067,-0.7744084000587463,-0.5632153749465942,-0.9896749258041382,-0.15984784066677094,1.8139252662658691,-1.732481598854065,0.7928037047386169,-0.8903716802597046,-1.3984808921813965,0.12336603552103043,-1.099883794784546,0.7312056422233582,0.2787438631057739,1.3022392988204956,0.2551725506782532,0.9067174196243286,0.5693228840827942,1.5772807598114014,-0.17395171523094177,-1.179175853729248,-0.885850727558136,-0.30423182249069214,-0.9714792370796204,1.051362156867981,0.8729525208473206,1.0618280172348022,0.41379687190055847,0.04287212714552879,-2.5482213497161865,-0.14456605911254883,-0.29730209708213806,1.3235034942626953,-0.020975949242711067,-0.6849112510681152,-1.271738052368164,-0.5507493019104004,0.024644695222377777,0.4160540699958801,-0.5745922923088074,0.4707495868206024,-0.0011478548403829336,-0.22049333155155182,0.08511513471603394,-1.0967804193496704,-0.30860456824302673,-0.09219616651535034,-0.10793071985244751,-0.04543957859277725,0.5789284110069275,-0.5554580688476562,0.3377915918827057,0.8828286528587341,-0.9558632969856262,-0.16121096909046173,-0.5084753632545471,0.5159340500831604,-0.6120814681053162,-0.8663462400436401,-0.28744664788246155,0.4729421138763428,0.6233771443367004,-0.4190090596675873,0.37460556626319885,0.5609918236732483,-0.36989304423332214,0.1675402820110321,0.6211350560188293,-0.6083730459213257,-0.09138119965791702,0.00882176123559475,0.5507431626319885,0.009120412170886993,0.6603477001190186,0.08782926946878433,0.6249719262123108,0.9991970658302307,0.41306281089782715,-0.45599812269210815,-0.4492073357105255,0.44198232889175415,-0.7006505727767944,-0.6381427049636841,0.24151742458343506,-0.4686116576194763,-0.4876404106616974,-0.19637461006641388,0.20699523389339447,-0.4337396025657654,0.3318358361721039,-0.18878312408924103,0.03696314990520477,-0.29068079590797424,-0.5513392686843872,0.14970199763774872,-0.2794188857078552,-0.008108101785182953,0.8138799071311951,0.49157944321632385,-0.3528585433959961,0.6058840751647949,0.44807326793670654,-0.2231224775314331,0.21829979121685028,-0.1394619196653366,0.20059144496917725,-0.721003532409668,0.03102688305079937,-0.6302326321601868,0.3807868957519531,0.3763073980808258,-0.5326722264289856,-0.4335525333881378,0.34367597103118896,-0.0023107067681849003,0.4857744872570038,-0.26470857858657837,-0.35898712277412415,0.3867313861846924,0.1739119589328766,0.27909815311431885,-0.005518775433301926,0.7337571382522583,0.18667548894882202,0.6521133780479431,-0.12958496809005737,-0.6224491000175476,0.34988024830818176,0.010760203935205936,0.43440303206443787,-0.24662569165229797,-0.34737876057624817,0.3614382743835449,-0.1776120662689209,1.0828198194503784,1.5461772680282593,-1.6762083768844604,0.10078146308660507,-1.5104566812515259,0.9538269639015198,-0.28472912311553955,-0.09381803125143051,0.12652122974395752,-2.094660997390747,0.06675604730844498,0.5882179737091064,-0.8037561774253845,-0.6578311920166016,0.5154140591621399,-0.7196666598320007,-0.9576756954193115,0.8552446961402893,-0.013131940737366676,-0.01466313935816288,-0.6003808379173279,0.8893845677375793,0.1985512673854828,1.0842816829681396,-1.1290569305419922,-0.646379292011261,2.187776803970337,0.7021286487579346,0.29221296310424805,1.2990268468856812,-0.280585378408432,-0.3991805911064148,0.7838406562805176,-0.8890925049781799,-0.7840606570243835,-1.8216657638549805,0.05443723499774933,-0.664641261100769,-0.2805333733558655,0.5525965690612793,-0.5490456819534302,-0.058614540845155716,-0.5394551753997803,0.9811695218086243,-0.49700433015823364,-0.14096151292324066,0.4550304114818573,-0.9747679233551025,0.20941998064517975,-0.38487738370895386,-0.06089090183377266,-0.4166818857192993,-0.23541143536567688,0.10274915397167206,0.36358970403671265,0.804409384727478,-0.14254310727119446,-0.17648565769195557,0.2900124192237854,-0.4782055616378784,-0.03859025612473488,0.03640030696988106,-0.1802823543548584,0.24683165550231934,0.7363913655281067,0.29179027676582336,0.07538554072380066,1.1241204738616943,-0.5044483542442322,-0.2712268531322479,0.590347170829773,0.7172263860702515,0.26707711815834045,0.47029581665992737,0.009610249660909176,-0.21426080167293549,-0.5007796883583069,-0.8209351897239685,-0.04400097578763962,-0.6815503835678101,-0.2297687530517578,0.1879868358373642,0.46867531538009644,0.3400542140007019,-0.1382184624671936,0.04715689271688461,0.3980764150619507,-0.20850852131843567,0.1937989890575409,-0.30606064200401306,-0.3766708970069885,0.046237312257289886,0.7032270431518555,0.6449359059333801,-0.718941330909729,0.4858768582344055,0.18607327342033386,-0.9775398969650269,-0.9904727339744568,-0.49123796820640564,0.3128378391265869,-0.2607080936431885,0.6772125363349915,-0.3086213767528534,0.3883633315563202,-0.9460509419441223,-0.8230075836181641,0.8447694778442383,-0.18698236346244812,-0.3601488173007965,-0.2520725429058075,0.4259318709373474,-0.4880034327507019,0.0031222167890518904,0.507086455821991,-0.3952564299106598,0.18425396084785461,-1.180942416191101,0.4538164436817169,0.6014174818992615,-0.7483788132667542,-1.104948878288269,0.6455795764923096,0.5926253199577332,-0.7197317481040955,-0.6961526274681091,0.08382057398557663,-0.5006091594696045,0.3250523507595062,0.2802867591381073,-0.36089807748794556,0.6085479259490967,0.34270671010017395,0.7510536909103394,0.715171217918396,0.6805180907249451,0.2956223487854004,-0.21605610847473145,0.3689018487930298,0.16888347268104553,0.16226518154144287,-0.3279403746128082,1.0561896562576294,-0.6397669911384583,-0.1053890585899353,0.9695237874984741,0.15239350497722626,-0.6619270443916321,-0.1290331482887268,1.6571674346923828,-0.13311897218227386,0.28151097893714905,-0.9158411622047424,1.0037797689437866,-1.1619287729263306,-0.23918643593788147,1.4075734615325928,0.06704459339380264,-0.788453221321106,-0.21919596195220947,0.9429947733879089,-0.7452808618545532,-0.12365660816431046,0.8323118686676025,-0.741430938243866,-1.301312804222107,-0.6390622854232788,0.5259907841682434,2.0541460514068604,-0.6086612939834595,-1.1352543830871582,0.42017480731010437,0.6998936533927917,-0.279910683631897,-0.9788327813148499,1.0746031999588013,-0.32344698905944824,0.7240802049636841,0.5912806391716003,-0.845073938369751,1.480355143547058,0.3278394341468811,1.085931658744812,1.5733623504638672,0.8575230240821838,0.31224149465560913,0.3270367383956909,0.8842675685882568,-0.8358072638511658,0.18290919065475464,-0.2981981337070465,0.6953473687171936,-0.05907093733549118,-0.6168696880340576,1.8699239492416382,1.4032450914382935,1.3321975469589233,1.3614988327026367,-1.2634905576705933,0.004344854969531298,-1.5809448957443237,-0.2114623486995697,-1.2552580833435059,1.7826850414276123,2.4394824504852295,-0.4559745788574219,1.4587938785552979,1.7583746910095215,0.07594454288482666,0.02123928628861904,-0.10880791395902634,-0.8587253093719482,-1.9542230367660522,-0.16759441792964935,0.7566345930099487,-0.7707223892211914,0.6074650287628174,-1.0761735439300537,-0.17724597454071045,-0.22166045010089874,-1.9850685596466064,0.422933965921402,-0.23796048760414124,0.9263393878936768,0.3583729565143585,0.9331911206245422,0.3974016010761261,0.004251942969858646,-0.29210394620895386,-2.041985273361206,-0.9972606897354126,-1.046130895614624,-2.144390106201172,0.6434579491615295,0.198724627494812,-1.7483519315719604,0.15670529007911682,0.9232395887374878,-1.784647822380066,0.02341722510755062,-1.8810899257659912,2.2188491821289062,0.16944444179534912,-1.842423677444458,-1.2540069818496704,0.8793331980705261,0.6911360025405884,-0.2985896170139313,-0.6569936871528625,-0.5801867842674255,-0.10837281495332718,-0.3263310194015503,0.809256911277771,0.5136731266975403,-0.7364776134490967,-0.16893935203552246,-0.12507331371307373,-0.4692443609237671,0.141341894865036,-0.7581732273101807,-0.25883036851882935,-0.3421962261199951,-0.5930215120315552,1.34843111038208,-1.2320635318756104,0.9914232492446899,-1.1195051670074463,-1.8155369758605957,0.11888441443443298,-0.5740422606468201,0.3356771171092987,0.2739786207675934,0.5583359599113464,1.7008482217788696,0.4498625695705414,0.482125461101532,0.27423128485679626,-0.8239615559577942,-0.3022693395614624,0.17839664220809937,-0.37435343861579895,-0.9431359171867371,1.198096752166748,0.1575019210577011,-0.3322235643863678,-0.011903720907866955,0.7731315493583679,-0.2504865229129791,0.18226926028728485,-0.9258790016174316,0.5601974725723267,-1.1276804208755493,-0.5946581959724426,-1.4093117713928223,1.462439775466919,0.8962380886077881,-1.4966663122177124,-0.1658426821231842,-1.7624733448028564,-0.6958659887313843,-1.3075052499771118,1.5273786783218384,1.7901760339736938,-0.8067284822463989,2.3111228942871094,1.3274637460708618,0.309696763753891,0.5421374440193176,-0.15344911813735962,-0.827512264251709,-1.5390729904174805,-0.0336475744843483,1.3122159242630005,-0.6208369731903076,0.1106468066573143,-1.2497963905334473,0.3375278115272522,1.325006365776062,-1.9039252996444702,0.3326892852783203,1.1608357429504395,0.9972213506698608,0.9323659539222717,0.98820960521698,-0.2112419605255127,0.11877299100160599,-0.3106074929237366,-1.0120378732681274,-2.0805511474609375,-1.5965663194656372,-2.1202545166015625,0.31781038641929626,0.1926741898059845,-1.4987123012542725,0.2352491319179535,1.525767207145691,-1.518715262413025,-0.22411882877349854,-2.4506592750549316,2.0109686851501465,-0.5304170846939087,-1.918601155281067,-1.6729518175125122,1.7535936832427979,0.9212575554847717,-1.6276249885559082,0.3319621980190277,-1.9314242601394653,0.10604498535394669,-1.3938965797424316,0.8969342112541199,1.9767414331436157,-0.8346983194351196,1.3879550695419312,0.254935085773468,-0.4143574833869934,0.40684112906455994,0.01329269539564848,-1.9117670059204102,-2.324620246887207,-0.13246072828769684,0.539599597454071,-0.6110402941703796,0.01392554584890604,-1.4999617338180542,-0.557500422000885,1.5398832559585571,-1.7316492795944214,0.20582325756549835,1.5558698177337646,1.0244358777999878,0.9871007204055786,1.220882534980774,0.8292114734649658,0.6503973007202148,-0.3423283100128174,-2.145949602127075,-0.48052841424942017,-1.5496312379837036,-0.6130728721618652,0.30424603819847107,0.7385636568069458,-1.811782956123352,0.6977538466453552,1.5741857290267944,-0.6924018859863281,-0.36042261123657227,-2.072012424468994,2.002129077911377,-0.44623446464538574,-1.6718037128448486,-0.6920210123062134,0.32247671484947205,0.3995695114135742,-0.0901646614074707,-0.46410128474235535,-0.3286186158657074,0.5941471457481384,0.007211006712168455,0.4975791573524475,0.16306515038013458,-0.7480039596557617,0.1646307110786438,0.010890546254813671,0.10894373804330826,-0.5389209985733032,-0.4123578369617462,-0.06760839372873306,0.14396657049655914,0.45372474193573,0.6457396149635315,-0.612838625907898,0.4163650870323181,-0.3867854177951813,-1.054213523864746,0.7308552861213684,-0.3935943841934204,0.43907782435417175,0.38302865624427795,0.46278151869773865,1.1162952184677124,0.08168318122625351,-0.12933920323848724,0.07774365693330765,0.5543960928916931,-0.08552573621273041,0.16698917746543884,-0.45612242817878723,-0.5304455161094666,1.6962183713912964,-0.21259821951389313,-0.16225390136241913,-0.4149053394794464,0.7932847142219543,-0.2553999722003937,0.5405866503715515,-0.3900682032108307,0.37112176418304443,-0.1881709098815918,-0.15389209985733032,-0.6248826384544373,0.22776338458061218,0.07587563991546631,-0.15615631639957428,-1.085577368736267,-0.2085956633090973,-0.21377548575401306,-0.15067267417907715,-0.013133494183421135,-0.01397126354277134,-0.11709682643413544,0.5151273012161255,0.3545039892196655,0.3964758515357971,0.6274585127830505,-0.9090673327445984,-0.33684805035591125,-0.17374490201473236,-0.7094062566757202,0.2944999039173126,-0.8090813159942627,0.7918824553489685,-0.19678492844104767,-0.6595708727836609,-0.13312165439128876,-0.23659521341323853,0.9553350210189819,-0.28568795323371887,0.07661513239145279,0.36045578122138977,-0.07260600477457047,0.8800433874130249,1.119391918182373,-0.31389087438583374,-0.15271691977977753,-0.1699620634317398,-0.01388968899846077,0.014414642006158829,0.6750391721725464,1.121331810951233,-0.11112368851900101,0.0801277831196785,-0.29324832558631897,-0.012600623071193695,-0.20252180099487305,-0.13482312858104706,-0.046777959913015366,-0.5986295342445374,-0.09926286339759827,-0.35358360409736633,1.377397894859314,1.0606650114059448,-0.739890456199646,-0.598587691783905,-0.9759696125984192,0.4515897035598755,-0.6085076332092285,0.7917080521583557,0.9910708665847778,-0.7979394793510437,0.34670257568359375,0.690350353717804,-0.2447047233581543,0.24342457950115204,0.05269566550850868,-0.44760698080062866,-0.4298764169216156,0.2610606551170349,1.5312198400497437,-0.6968873739242554,0.012905708514153957,0.573901355266571,0.5099690556526184,1.2299498319625854,-0.5916619300842285,-0.17018316686153412,0.8833419680595398,0.5739510655403137,-0.4163229167461395,0.9609231948852539,0.5263050198554993,0.23017330467700958,0.14140379428863525,-0.3993208110332489,-1.059877872467041,-0.9287277460098267,-0.7507259845733643,-0.30351805686950684,-0.005025667604058981,-0.37387776374816895,0.25234949588775635,0.47454431653022766,-0.6189880967140198,0.08101953566074371,-0.6315649151802063,0.0636202022433281,0.3528885245323181,-0.7343621253967285,-1.3280630111694336,-1.6163698434829712,-1.1656312942504883,-0.16586172580718994,0.8791284561157227,0.34966665506362915,0.8573564887046814,1.2261103391647339,-1.1778942346572876,-1.4708739519119263,0.3713115155696869,0.02587483450770378,-0.6395551562309265,-0.38711175322532654,-1.2115062475204468,0.7379368543624878,1.5405361652374268,1.0527061223983765,1.6007394790649414,-1.5130150318145752,1.1491267681121826,-1.1411054134368896,0.9930257797241211,0.5742837190628052,0.20269325375556946,0.3357203006744385,-1.3892021179199219,-0.6135908365249634,-0.18712355196475983,-1.0243831872940063,-0.3809240758419037,-0.05086279660463333,-1.6347172260284424,1.7617907524108887,0.5589267611503601,0.013708237558603287,0.8311631083488464,1.8089282512664795,-0.26614639163017273,-1.7127240896224976,1.2998274564743042,-1.2104136943817139,-0.7480126023292542,1.676702618598938,1.5013161897659302,0.6889442205429077,-1.6004700660705566,0.0781533271074295,1.117535948753357,1.950748085975647,0.3752362132072449,-0.06568481773138046,-0.013432305306196213,0.9837379455566406,-0.030180782079696655,0.9912996292114258,-0.18848104774951935,0.30682674050331116,0.47659555077552795,-0.08126487582921982,0.09733675420284271,0.2702975273132324,-0.6254635453224182,-1.1079936027526855,0.730263352394104,-0.37876617908477783,-0.2385576367378235,1.3742611408233643,0.3268663287162781,0.9265961050987244,-0.7260416150093079,-0.05413169413805008,0.9056481122970581,0.13892300426959991,-0.198185533285141,-0.8071770071983337,0.09948263317346573,0.34324806928634644,-0.48280373215675354,0.1441907435655594,-1.2539602518081665,-1.6155458688735962,1.0940124988555908,-0.30517148971557617,0.24308866262435913,-0.3418591022491455,-0.2089635282754898,-0.37754735350608826,-1.5795307159423828,-0.2844298481941223,-0.5852894186973572,0.5242067575454712,-0.18124516308307648,0.8278231024742126,-0.5616241097450256,0.3071402311325073,0.6358984708786011,-0.29587528109550476,-0.1083044707775116,0.007287793792784214,0.7570819854736328,-0.7481406927108765,0.04234740510582924,-0.32541608810424805,0.29567691683769226,-0.1618281751871109,0.3337765038013458,0.28503310680389404,-0.473752498626709,0.2214057892560959,0.454953134059906,-0.07736191153526306,-0.2711690664291382,-0.024187328293919563,0.08536045253276825,0.08061083406209946,0.40779924392700195,0.5652483105659485,-0.855090856552124,-0.22290895879268646,-0.37057575583457947,0.17583569884300232,0.17945177853107452,0.0232175812125206,0.07992290705442429,0.25195616483688354,0.13992109894752502,0.49912479519844055,0.4203154146671295,-0.1645042598247528,-0.2258826345205307,0.23690152168273926,-0.15905891358852386,-0.9557351469993591,-0.4182641804218292,-0.26303520798683167,0.6868044137954712,-0.3020659387111664,0.10201884061098099,-0.37826433777809143,-0.022793488577008247,-0.6683734655380249,0.1559101790189743,0.18737535178661346,-0.35827895998954773,0.44360223412513733,-0.2939422130584717,-0.8374521136283875,0.24390040338039398,-0.20387785136699677,0.2697950005531311,1.0823326110839844,0.2046123892068863,0.7917910814285278,-0.2276003658771515,0.1281510591506958,-0.20678748190402985,-0.3438483774662018,-1.912766456604004,-1.2886210680007935,-1.0405718088150024,-0.7588297724723816,0.4220266044139862,0.19017431139945984,-0.22669018805027008,0.9753467440605164,-0.8200451135635376,-0.6308090090751648,-0.3662532866001129,0.39159685373306274,-0.076532743871212,0.745811939239502,-0.48653292655944824,-0.35569146275520325,0.43446627259254456,0.5151906609535217,0.429873526096344,0.6323333382606506,-0.6706483960151672,-0.7557764649391174,0.9148018956184387,-0.2097523808479309,0.9812777638435364,-0.31566065549850464,0.29747772216796875,-1.077318549156189,-0.8734828233718872,0.760513961315155,-1.7498998641967773,0.07505964487791061,0.22338822484016418,1.18031907081604,1.706928014755249,-0.40978291630744934,0.7299430966377258,-0.20795735716819763,0.2390722632408142,0.6226139664649963,0.7796892523765564,-0.3070540130138397,0.03477832302451134,-0.6529400944709778,0.6328772902488708,-0.7079354524612427,0.3977639377117157,0.857243537902832,-0.9776562452316284,0.3535977900028229,0.2523502707481384,-1.0664364099502563,-0.6492199301719666,0.21296535432338715,-0.9173870086669922,-1.2607263326644897,0.775231659412384,0.44693702459335327,-0.1222076416015625,-0.14393027126789093,0.10522371530532837,-0.05988723039627075,0.5244894623756409,-0.7878046035766602,-0.16359961032867432,0.4994635283946991,0.9548349976539612,0.4094010889530182,0.7316024303436279,0.029484296217560768,-0.22024479508399963,0.6235476136207581,-0.48738694190979004,-0.12081905454397202,-0.9279803037643433,-0.3942408263683319,-0.8436835408210754,-0.02124457247555256,-0.5859463810920715,-0.6788086891174316,0.5045122504234314,-0.6318637132644653,0.5290278196334839,-0.2015521228313446,0.498037189245224,0.4859813451766968,-0.9468215703964233,-0.3626759946346283,0.3401358723640442,0.9774335622787476,-0.9054386615753174,-0.13816659152507782,-0.8794094324111938,0.45081257820129395,-2.125641107559204,1.7512950897216797,1.0062696933746338,-1.528045892715454,-0.21179507672786713,0.31304365396499634,-0.29360267519950867,-0.39468875527381897,-0.030860843136906624,-2.3010151386260986,-1.1041755676269531,0.12372983992099762,0.9251697659492493,-0.3778560161590576,0.13230368494987488,-1.5332826375961304,-0.3461987376213074,-0.01233398076146841,-2.1811506748199463,0.03643345832824707,0.8658641576766968,1.954882264137268,0.28659939765930176,1.6722350120544434,-0.3411015570163727,0.35863491892814636,0.3603706359863281,-1.8033491373062134,-0.3782479763031006,-1.4512379169464111,-1.0516663789749146,-0.3816135823726654,-0.10675525665283203,-0.30945873260498047,-0.2695402503013611,0.47479671239852905,-1.2077335119247437,0.3783045709133148,-0.8160740733146667,1.059920310974121,-0.3588608503341675,-1.6200554370880127,-0.7562925219535828,1.5768924951553345,0.537123441696167,-0.4683435559272766,-0.017057230696082115,-0.3823179602622986,-0.10827025771141052,-1.2382920980453491,0.6029402017593384,1.3879181146621704,0.041262250393629074,0.8882045149803162,0.24728329479694366,-0.07371227443218231,-0.11293745785951614,-0.16054071485996246,-1.095799446105957,-1.266129493713379,0.26575684547424316,0.5263584852218628,-0.722106397151947,0.30808892846107483,-1.693182110786438,-0.18352295458316803,0.40752434730529785,-0.9611980319023132,0.37989041209220886,-0.11603870242834091,0.39209046959877014,0.2363491803407669,0.49286752939224243,0.33669525384902954,0.45861315727233887,0.3947020471096039,-1.1013461351394653,0.37596988677978516,-0.3458101153373718,-1.055992603302002,-0.03120313212275505,0.17882756888866425,-0.8822875022888184,-0.1272675096988678,0.7462828755378723,-0.24358417093753815,0.14595083892345428,-1.1732761859893799,1.2430850267410278,-0.3478466272354126,-1.3498116731643677,-0.8658172488212585]},"inputHidden":{"rows":50,"columns":50,"weights":[0.9922099709510803,1.196431279182434,-0.10801734030246735,-1.503875494003296,0.10815683752298355,-0.6174208521842957,0.19774837791919708,2.3596863746643066,0.05548439547419548,-0.7283756732940674,