{"type":"LSTM","options":{"inputSize":38,"inputRange":38,"hiddenLayers":[40,55,65,70,40,35],"outputSize":38,"decayRate":0.999,"smoothEps":1e-8,"regc":0.000001,"clipval":5,"maxPredictionLength":100,"dataFormatter":{"indexTable":{"G":0,"e":1,"n":2,"r":3,"a":4,"t":5," ":6,"h":7,"i":8,"k":9,"u":10,"b":11,"o":12,"W":13,"p":14,"m":15,"l":16,"v":17,"P":18,"d":19,"f":20,"s":21,"y":22,"g":23,"C":24,"S":25,"z":26,"'":27,"M":28,"D":29,"c":30,"E":31,"x":32,"j":33,"q":34,"stop-input":35,"start-output":36,"unrecognized":37},"characterTable":{"0":"G","1":"e","2":"n","3":"r","4":"a","5":"t","6":" ","7":"h","8":"i","9":"k","10":"u","11":"b","12":"o","13":"W","14":"p","15":"m","16":"l","17":"v","18":"P","19":"d","20":"f","21":"s","22":"y","23":"g","24":"C","25":"S","26":"z","27":"'","28":"M","29":"D","30":"c","31":"E","32":"x","33":"j","34":"q","35":null,"36":null,"37":null},"values":[{"input":"Generate a haiku about nature","output":"haiku nature"},{"input":"Write a poem on love","output":"poem love"},{"input":"Provide information on photosynthesis","output":"give info photosynthesis"},{"input":"Create a short story about a hero","output":"story hero"},{"input":"Summarize the plot of 'Moby Dick'","output":"summary Moby Dick"},{"input":"Compose a sonnet about time","output":"sonnet time"},{"input":"Explain the theory of relativity","output":"explain relativity"},{"input":"Generate a limerick about a cat","output":"generate limerick cat"},{"input":"Describe the process of mitosis","output":"describe mitosis"},{"input":"Write a narrative on a journey","output":"narrative journey"},{"input":"Explain the concept of quantum mechanics","output":"explain quantum mechanics"}],"characters":["G","e","n","r","a","t"," ","h","i","k","u","b","o","W","p","m","l","v","P","d","f","s","y","g","C","S","z","'","M","D","c","E","x","j","q","stop-input","start-output","unrecognized"],"specialIndexes":[35,36,37]},"learningRate":0.03},"trainOpts":{"iterations":1500,"errorThresh":0.003,"logPeriod":10,"learningRate":0.01,"callbackPeriod":10,"timeout":"Infinity"},"input":{"rows":39,"columns":38,"weights":[-0.039219439029693604,-0.7508315443992615,1.4178898334503174,1.7515724897384644,1.298059344291687,0.470055490732193,1.1308783292770386,0.3557050824165344,-0.1862267702817917,-0.3336813151836395,0.2963195741176605,-1.1036280393600464,0.35913804173469543,-0.6711856126785278,-1.9073978662490845,-0.6557092666625977,-0.056647006422281265,0.18625517189502716,1.5950995683670044,0.5188291668891907,0.568790078163147,-1.2810670137405396,-0.7058536410331726,1.1380441188812256,-1.2110556364059448,1.6324148178100586,-0.18259760737419128,-0.9970719814300537,1.9425500631332397,-0.31741097569465637,0.3012649118900299,0.9991486668586731,2.1018588542938232,2.262153148651123,-0.8217700719833374,-0.0956011638045311,-0.47782114148139954,0.38006213307380676,-1.3287134170532227,0.5045620203018188,-2.3252720832824707,2.167201519012451,0.149155855178833,-0.7765975594520569,5.419960975646973,1.3151484727859497,-2.962994337081909,-0.8321192264556885,1.5215877294540405,-0.06342097371816635,2.0780508518218994,0.22630634903907776,-4.972540378570557,2.840381145477295,1.8639246225357056,2.4701414108276367,3.593717098236084,-2.158616304397583,1.7420040369033813,-6.47750997543335,0.29543665051460266,-2.7292728424072266,0.24182234704494476,4.723844051361084,0.5426668524742126,0.5325449705123901,7.112445831298828,1.8553022146224976,-0.14411401748657227,1.2131249904632568,5.840559959411621,7.231193542480469,0.4381731152534485,-1.9091606140136719,-0.48873087763786316,3.9267992973327637,-0.53184574842453,-0.1219867393374443,-0.06873711198568344,-0.30402061343193054,0.046281471848487854,-0.6335287690162659,-1.017336368560791,-0.324435293674469,-0.49782833456993103,0.2191605269908905,-0.9249407649040222,0.3914341926574707,-0.9205630421638489,0.802082896232605,0.1812843531370163,0.2945237159729004,-0.19439804553985596,0.3786330819129944,-0.28983786702156067,0.3882690370082855,0.01888386718928814,0.8097537159919739,0.5699148774147034,-0.7328196167945862,0.15408872067928314,0.10116703063249588,0.29967358708381653,-0.29418718814849854,-0.22064661979675293,0.9158945083618164,0.22402577102184296,-0.4374343156814575,0.13403494656085968,-0.026486404240131378,0.6165552139282227,1.4657436609268188,0.2803944945335388,-0.6742365956306458,0.2015293836593628,0.08888711780309677,-0.41590261459350586,-0.25600314140319824,-0.46536242961883545,-0.12028958648443222,-0.059831876307725906,-0.17874644696712494,-0.41609230637550354,0.5072735548019409,-0.20554248988628387,0.22475935518741608,-0.2853197753429413,0.42321163415908813,-0.23573662340641022,0.36690130829811096,0.3367704153060913,0.6164292097091675,-0.2679576873779297,-0.9223985075950623,-0.2915549576282501,-0.27396655082702637,-0.26606646180152893,-0.26984527707099915,-0.05338899418711662,0.027369651943445206,-0.06373552978038788,0.2939816415309906,-0.23124533891677856,-0.35812753438949585,-0.533505916595459,0.06975194066762924,-0.10632424056529999,-0.09825454652309418,-0.30407091975212097,0.35550472140312195,-0.42622169852256775,-0.06064143776893616,1.2915680408477783,-0.07395241409540176,-0.17901788651943207,-1.3926331996917725,-1.4256950616836548,-0.9106431603431702,-2.841599464416504,0.33139568567276,0.2705988883972168,0.9773216247558594,-1.5487650632858276,-0.14986667037010193,-1.619314193725586,0.056018661707639694,0.4308217465877533,0.552623987197876,-0.009152382612228394,0.4498642086982727,-2.5410590171813965,-0.1340523213148117,0.14962483942508698,2.0196681022644043,-0.33055102825164795,-0.3543955385684967,1.4792048931121826,-1.287320852279663,0.41496166586875916,0.9336990714073181,-1.4102128744125366,-0.38957977294921875,-1.2978140115737915,-0.140085369348526,-1.7093204259872437,-1.8242448568344116,0.006004627328366041,2.5986807346343994,0.28759434819221497,-0.8340857028961182,-0.9121091961860657,0.05137750878930092,0.32117897272109985,-0.05353150516748428,-0.7592194676399231,0.530234158039093,0.2308412492275238,0.0466633215546608,-0.026265844702720642,-0.20659802854061127,0.13838191330432892,-0.09941275417804718,0.3604833781719208,-0.2015148550271988,-0.006281845737248659,-0.8153116703033447,0.624396026134491,-0.07866044342517853,0.20137177407741547,0.05121353268623352,-0.1381945013999939,-0.5133101940155029,-0.6085779070854187,-0.23450127243995667,0.07379957288503647,-0.7769995331764221,-0.5447885990142822,0.6234188079833984,-0.0978367030620575,-0.3456276059150696,0.10292954742908478,0.6054776310920715,-0.4153156876564026,-0.12133625894784927,-1.1931722164154053,-0.46514418721199036,-0.9076154828071594,1.1567033529281616,0.11014458537101746,-0.038243312388658524,0.06002682074904442,0.5505985021591187,0.2777060568332672,-0.3339271545410156,0.08222340047359467,-0.12233398109674454,0.09432389587163925,-0.700899600982666,0.39653724431991577,0.19438019394874573,-0.07809416204690933,-0.16312818229198456,-0.6579376459121704,-0.02570761926472187,-0.26168036460876465,-0.22772398591041565,0.8864791989326477,0.23687021434307098,-0.2892165184020996,-0.01832403428852558,0.1761018931865692,0.6589439511299133,-0.5817239880561829,0.45934316515922546,0.26962482929229736,-0.5355979800224304,0.429619163274765,0.30320364236831665,0.3054286539554596,-0.6967414617538452,0.6249011158943176,0.471017986536026,0.2965374290943146,0.16812169551849365,0.4808957874774933,-0.19081273674964905,-0.24976719915866852,0.17924343049526215,-0.12465815991163254,-0.262709379196167,1.1714493036270142,0.3477311432361603,-0.1670558899641037,-0.10620427131652832,0.8035869002342224,-0.7089635133743286,0.5950626134872437,0.042323727160692215,0.2945934534072876,-0.2558930814266205,0.1968449056148529,-1.3574117422103882,-0.026584729552268982,-0.6466178297996521,-1.0899791717529297,1.2650156021118164,0.5270093083381653,0.327903687953949,0.09740997850894928,-0.8010698556900024,-0.15963415801525116,0.0989542156457901,-0.6486550569534302,-0.5880263447761536,0.3455711305141449,-0.8511139750480652,1.2702535390853882,0.751553475856781,-0.5362303256988525,0.2139229029417038,-1.1941052675247192,0.036095816642045975,-0.32577911019325256,-0.11313947290182114,0.8659118413925171,0.6644323468208313,0.07974277436733246,0.26614445447921753,-0.029613710939884186,-0.0038489073049277067,0.6308057308197021,-0.18811161816120148,0.6150828003883362,-0.6458578109741211,0.7313245534896851,0.7557563185691833,0.08884084224700928,-0.775865912437439,0.24142464995384216,-0.46350887417793274,0.12539546191692352,-0.6411160230636597,0.11081046611070633,0.46207162737846375,-0.5725518465042114,-0.772553026676178,-0.01621517911553383,0.47381117939949036,-0.07681702822446823,-0.605840265750885,0.7337595820426941,-0.12459845095872879,0.10451169312000275,-0.024470724165439606,0.25870856642723083,0.2683054208755493,-0.3960745334625244,0.21077460050582886,0.3311537206172943,-0.7722835540771484,0.7223839163780212,-0.2463598996400833,0.5613871216773987,0.2858884632587433,0.27437037229537964,1.5953916311264038,0.9011567831039429,0.09607914090156555,0.27558037638664246,-0.92155921459198,1.2363526821136475,-2.0144197940826416,1.4212852716445923,0.6997194886207581,0.39382699131965637,-0.8635555505752563,-0.2978374660015106,-0.3078545331954956,0.5407508015632629,-1.5890944004058838,-0.44608327746391296,0.7992385625839233,-1.1417548656463623,0.4581797122955322,0.4575255513191223,1.8844231367111206,-1.235332727432251,0.0017911234172061086,0.34711140394210815,-0.617335855960846,0.4543193578720093,0.2569025456905365,1.7319300174713135,0.43839675188064575,0.21552345156669617,0.6154221296310425,0.0016939474735409021,-0.3900533616542816,0.239500492811203,-0.23604294657707214,-1.2047768831253052,-3.5436248779296875,4.02681827545166,0.20003408193588257,-0.019006244838237762,2.4776723384857178,-2.429746150970459,3.713332176208496,2.0756423473358154,0.7646603584289551,-0.35038724541664124,-3.4367871284484863,1.9097087383270264,0.2562378942966461,0.029522564262151718,-3.933875799179077,2.571272373199463,-0.5499790906906128,2.290741443634033,3.1276683807373047,1.7839429378509521,3.276319742202759,-3.7101211547851562,2.7124571800231934,0.6089178919792175,0.9562196731567383,-2.9994850158691406,0.9991170763969421,1.1258621215820312,-2.880847454071045,0.1789805293083191,2.640746831893921,1.2223087549209595,1.4749828577041626,-1.7171297073364258,-0.9694424271583557,-2.5398244857788086,2.306165933609009,1.166736125946045,-0.8862171769142151,-0.02882925048470497,0.23341810703277588,-0.6524682641029358,-0.12704099714756012,-0.5697715282440186,0.6734628081321716,-0.8361299633979797,0.8653572201728821,-0.3722674548625946,0.4333948493003845,-0.9084698557853699,0.026350539177656174,-1.8381890058517456,0.9104438424110413,-0.039824049919843674,-0.10256186872720718,-0.7407189607620239,-1.497053623199463,0.2684585750102997,-0.8553756475448608,-0.8752776384353638,0.9202204346656799,-0.9236757755279541,0.7265563607215881,0.131858691573143,0.6306475400924683,-0.3925801217556,-0.44758403301239014,-0.7929976582527161,0.457337349653244,1.1812244653701782,-0.30208584666252136,-0.10891041904687881,0.8355210423469543,-0.5508830547332764,-1.2057075500488281,0.13463537395000458,0.015937216579914093,-1.708573341369629,-1.2811332941055298,-1.8613101243972778,0.08909109234809875,-0.47410112619400024,1.1187697649002075,-1.2024599313735962,2.6809654235839844,-3.4627676010131836,-1.4977927207946777,-0.7120754718780518,1.2197158336639404,-0.4142380654811859,-1.5735112428665161,0.2783823311328888,3.020709991455078,-0.4591529667377472,-1.0762913227081299,-0.5770645141601562,-0.5603787302970886,-0.8506553173065186,-0.44507843255996704,-0.8430079817771912,-0.3525768220424652,-0.6577798128128052,1.6034923791885376,-0.1737206131219864,-0.20115791261196136,-2.8814778327941895,-0.44982877373695374,-0.06452109664678574,-0.04313801974058151,-0.15812347829341888,-0.05791911110281944,-0.4279869496822357,0.26044681668281555,0.06862939149141312,-0.5628629922866821,-0.0845491886138916,0.26613759994506836,0.9632456302642822,-0.14641797542572021,-0.5588613152503967,-0.5995349287986755,1.0012903213500977,-0.48527127504348755,-0.11871279776096344,0.35218530893325806,-0.23521319031715393,-0.10477976500988007,-0.15196046233177185,0.07593558728694916,-0.3812567889690399,-0.3746557831764221,-0.4935719668865204,1.221632719039917,0.8962945342063904,0.5841285586357117,0.664416491985321,0.4222613573074341,-0.41732698678970337,0.3937431573867798,0.4476785659790039,-0.18696151673793793,-0.7289920449256897,0.450025737285614,0.5104007124900818,0.16242891550064087,-0.2450280487537384,-0.7707317471504211,0.22184954583644867,0.6364891529083252,0.674924910068512,-0.40505728125572205,4.0785651206970215,0.24155472218990326,-4.009907245635986,-0.15792623162269592,2.470097303390503,-3.958028554916382,-3.4332525730133057,-2.133727788925171,-2.751272439956665,-0.38555359840393066,2.0588560104370117,2.3872127532958984,-0.5553151369094849,4.4940361976623535,-3.2909791469573975,0.6210111379623413,1.7068229913711548,-6.41071081161499,1.4563735723495483,-3.7494091987609863,-2.192009687423706,1.291166067123413,2.6111056804656982,3.1358139514923096,1.1750004291534424,4.5647382736206055,-0.5599492788314819,1.8049466609954834,-0.8203606605529785,-0.5441299080848694,4.235729694366455,1.8407925367355347,4.356578350067139,1.304117202758789,-0.5284388661384583,1.9291315078735352,-1.0215169191360474,-3.978052854537964,0.4899149239063263,0.13743162155151367,-0.29951155185699463,-0.01575397700071335,-0.7086211442947388,-0.49704840779304504,1.1567857265472412,-0.025171078741550446,1.2345231771469116,-0.1166810616850853,0.5823599100112915,0.3454037010669708,-0.4097619950771332,-1.7002079486846924,-0.30687621235847473,-0.2919767200946808,-0.4090551435947418,0.19509775936603546,0.9729504585266113,-0.07625623047351837,-0.735607922077179,-0.7926501035690308,0.5170130729675293,-0.605932354927063,-0.30647340416908264,-0.4722435772418976,0.7634193897247314,-0.26238736510276794,1.3476498126983643,0.747605562210083,0.026699969545006752,-0.5447078943252563,0.6222316026687622,0.8342431783676147,0.10383355617523193,-0.9034521579742432,-0.0637669712305069,-0.5429459810256958,-1.999462366104126,-0.25864318013191223,0.2706659734249115,0.47154727578163147,-0.6274026036262512,1.3323934078216553,0.572202742099762,-0.3829768896102905,3.3399605751037598,-1.1845535039901733,0.14391958713531494,-1.4685543775558472,2.307337522506714,-1.5292549133300781,-1.2580448389053345,-1.9846643209457397,0.379708468914032,-1.3926399946212769,-0.20526403188705444,1.812159776687622,-0.4888911247253418,-0.45901820063591003,-0.9379594922065735,-0.6633188724517822,-1.0822640657424927,0.3209330439567566,-0.8148552179336548,0.26403799653053284,0.3616941273212433,-1.457885503768921,-0.4389617145061493,0.04681289196014404,-0.8525019288063049,-0.01766814850270748,-1.1613024473190308,-2.1213765144348145,-0.22005321085453033,1.842379093170166,1.9101483821868896,0.36167120933532715,-1.0035446882247925,0.04557020217180252,-0.5196571946144104,-1.667293906211853,-0.23183120787143707,-1.4207086563110352,-1.1944564580917358,-0.4120473265647888,0.01567927934229374,0.8236014246940613,0.17176249623298645,0.13446350395679474,0.5661435127258301,1.3550505638122559,-0.21453382074832916,-0.8484973311424255,-0.10723137110471725,-0.44658881425857544,-0.529180645942688,-0.02597041241824627,1.235485315322876,0.42775729298591614,0.036089569330215454,-0.4876406490802765,1.0285805463790894,0.3111330270767212,-0.22046226263046265,0.3861546516418457,0.235015407204628,-0.07616132497787476,-0.456483393907547,-0.020144078880548477,0.5732592344284058,0.20171168446540833,0.8957152366638184,-1.0617774724960327,-1.2880831956863403,-0.5766504406929016,0.058990780264139175,2.2216262817382812,-3.144707679748535,3.248464345932007,2.2581467628479004,0.6782047152519226,-0.0345265232026577,-0.6400941014289856,4.905275344848633,-2.645296096801758,4.110226631164551,-0.9872990250587463,-1.1180163621902466,-2.597550868988037,2.7353675365448,-2.2421624660491943,0.6272039413452148,0.4358741044998169,2.2026824951171875,-4.848649978637695,-2.5870566368103027,0.06841674447059631,-0.8548749089241028,-0.5103811025619507,-3.2172696590423584,-0.24543026089668274,1.326351284980774,-2.19051194190979,1.517415165901184,1.4877005815505981,2.812298059463501,3.066129446029663,-2.881148099899292,-4.3723907470703125,-2.9434468746185303,3.471078395843506,7.700289249420166,-0.8378191590309143,1.5590916872024536,9.197811126708984,-8.090866088867188,0.8726341724395752,1.2200528383255005,-2.315748691558838,1.4919792413711548,1.9973125457763672,7.3609538078308105,3.7506778240203857,-4.699053764343262,-6.360771656036377,-10.301539421081543,2.7964322566986084,0.4138016998767853,-4.579545497894287,3.0409598350524902,-13.213045120239258,-5.869733810424805,-3.999497175216675,0.3666662573814392,10.002472877502441,-2.9488186836242676,6.349201202392578,2.4131081104278564,5.802104473114014,-0.891505777835846,-0.5720601677894592,-3.5659823417663574,-3.694827079772949,5.042852878570557,0.06027546152472496,2.565368175506592,-1.5874983072280884,1.965943455696106,-5.4642415046691895,-5.615199089050293,-2.7261946201324463,-1.2527074813842773,-2.927769422531128,-1.7005754709243774,5.4353861808776855,-1.7639949321746826,4.275493144989014,0.5701926946640015,-1.6097508668899536,-0.6771994233131409,-7.991870403289795,3.7356138229370117,-0.569415271282196,1.0517312288284302,0.21056224405765533,6.095768451690674,-0.8107172846794128,-5.306168079376221,-0.06981213390827179,11.198948860168457,0.3149333596229553,-4.867278099060059,0.14983157813549042,1.514710783958435,-2.0685465335845947,-9.723539352416992,0.45986640453338623,-0.8768700957298279,-3.3715012073516846,-1.9159473180770874,4.363171577453613,-2.347672462463379,-1.0118380784988403,-2.7885470390319824,-3.1081039905548096,-2.95495867729187,5.088387966156006,0.9417703747749329,-0.7418263554573059,-1.0848419666290283,-1.8281841278076172,-0.24894066154956818,-0.8674279451370239,-2.346036672592163,-0.49070271849632263,-1.5441982746124268,2.428530216217041,-3.494983434677124,-0.6252895593643188,-3.2601540088653564,4.171672821044922,0.7511506080627441,0.8756250143051147,-1.2657318115234375,0.48458048701286316,-0.9183257222175598,-0.5864067673683167,0.28789466619491577,1.7423449754714966,0.09024728089570999,-0.6124253273010254,-0.23599962890148163,-0.18645025789737701,0.554975152015686,1.1572192907333374,-0.7990727424621582,0.08637624233961105,-0.19412507116794586,-2.361867666244507,-0.2513262629508972,-0.4114263951778412,0.7175312042236328,3.0140020847320557,0.38681524991989136,-1.7409517765045166,-0.4689541161060333,-0.9932625889778137,-1.4367226362228394,-1.2962759733200073,-0.35765793919563293,0.47115203738212585,-1.0227707624435425,-0.6705611944198608,-0.17296066880226135,3.9674129486083984,-2.109498977661133,0.33157849311828613,-1.3688513040542603,0.7198047637939453,1.2913424968719482,2.0163145065307617,-0.9312986135482788,2.1412198543548584,-0.55254727602005,-1.0056087970733643,-0.5278587341308594,1.5870740413665771,0.38620927929878235,-2.31766414642334,2.398503303527832,-0.6792313456535339,0.7623473405838013,0.7517468929290771,-1.1030055284500122,0.38315120339393616,-4.8794169425964355,-1.3246471881866455,-1.1195120811462402,-0.38005033135414124,1.7480376958847046,0.298088014125824,1.1384949684143066,-1.1314114332199097,0.6567076444625854,0.8299236297607422,-0.07822991162538528,0.9259639382362366,0.8513028621673584,-0.5632251501083374,-0.5857622027397156,-1.1085786819458008,1.0105952024459839,-1.5071005821228027,3.479318618774414,1.1781879663467407,0.012650827877223492,-0.23775824904441833,0.15593892335891724,0.5701209902763367,0.06373289972543716,-2.6202449798583984,-0.21438468992710114,0.3908692002296448,-0.7325344085693359,0.2597046494483948,0.2522324025630951,1.6690690517425537,0.7554185390472412,-0.6334962844848633,1.2837250232696533,-1.0715832710266113,0.035238657146692276,1.2805204391479492,1.8178008794784546,0.26271694898605347,0.9629614949226379,-0.029196925461292267,1.0847007036209106,0.10704987496137619,1.796545386314392,-0.2051202803850174,1.4364135265350342,2.0659499168395996,2.026777982711792,-0.443311870098114,1.4664392471313477,-6.416268348693848,-0.14875853061676025,0.7428373098373413,-2.677298069000244,-3.0244531631469727,-0.9990015625953674,0.2138904631137848,-3.293164014816284,1.8579169511795044,1.3836920261383057,1.553305983543396,-0.5501620769500732,-2.3060572147369385,3.9452130794525146,-2.1184024810791016,-1.742417573928833,1.8302524089813232,1.439231276512146,1.8575763702392578,0.5064718127250671,2.9077436923980713,5.397801399230957,-0.18024374544620514,1.2010211944580078,4.921125411987305,4.312255382537842,-0.6936027407646179,2.7276389598846436,1.0640491247177124,4.803287029266357,-0.6892605423927307,2.326416015625,-6.216457843780518,-3.4426827430725098,2.977602481842041,2.028925657272339,-1.4857701063156128,-2.8664662837982178,0.34456005692481995,-3.062624454498291,0.8821209073066711,0.12714828550815582,4.983384132385254,-0.7462244629859924,1.2434296607971191,-1.7150874137878418,3.391077756881714,2.8190038204193115,-0.6435291767120361,3.704664468765259,4.837031841278076,1.6504244804382324,-4.1250739097595215,0.10684692114591599,1.5575250387191772,-1.1639866828918457,-5.802804946899414,2.571499824523926,-2.7429537773132324,-1.3160022497177124,0.28196394443511963,1.1804357767105103,-0.976245105266571,-2.5472350120544434,0.4674079418182373,-2.069455862045288,0.8082324266433716,-1.1973578929901123,2.1977550983428955,-0.5651312470436096,-0.0408540777862072,-2.365736961364746,-0.40372753143310547,3.2896957397460938,4.170232772827148,-0.7439141869544983,0.07572581619024277,9.843377113342285,3.734158754348755,-1.3685458898544312,-0.08423642069101334,0.3714326024055481,-0.6163852214813232,2.0736172199249268,-5.0937581062316895,-3.1639156341552734,1.7926080226898193,-0.43813925981521606,2.5386929512023926,1.525569200515747,0.225001722574234,-1.864904761314392,-5.2209038734436035,-0.9123824834823608,5.407357215881348,-6.968055248260498,4.495818614959717,0.003715397324413061,-5.134954452514648,3.1364498138427734,1.297454595565796,-1.228379249572754,0.46059009432792664,1.327962040901184,3.2257277965545654,2.0347206592559814,-3.9415576457977295,0.7575391530990601,3.477609872817993,3.405618906021118,1.5606609582901,-3.7651915550231934,1.9877359867095947,4.429081439971924,-7.7177910804748535,3.897376298904419,-5.6507344245910645,-2.7250235080718994,-3.0191357135772705,-1.1818490028381348,4.247602462768555,-1.353065848350525,1.8195700645446777,-1.550430178642273,8.547005653381348,0.34907785058021545,-0.09170159697532654,-1.6356868743896484,-2.9775421619415283,-7.054418087005615,-1.4733308553695679,8.145357131958008,0.8352785110473633,-1.0010215044021606,3.649251699447632,8.189894676208496,1.5656896829605103,1.0490812063217163,6.702101707458496,3.613884687423706,-6.6752848625183105,5.283104419708252,2.24534273147583,6.743730545043945,-1.4494818449020386,7.624932765960693,-4.7991814613342285,-1.7653436660766602,-1.9044766426086426,5.826387882232666,-0.3422752916812897,0.9017972946166992,0.7250304222106934,-2.687960386276245,-1.9755122661590576,0.7773796916007996,1.4498296976089478,0.7031559944152832,0.5200665593147278,-3.5688085556030273,0.27342966198921204,1.9562265872955322,1.984710931777954,0.5492703318595886,0.5484511852264404,-2.7313599586486816,4.510817527770996,3.3894855976104736,2.74025821685791,4.112990379333496,-1.2967290878295898,1.306584358215332,1.8046352863311768,2.8708293437957764,-1.5258733034133911,-2.1885013580322266,4.342378616333008,0.8424187898635864,2.9689159393310547,-1.0374022722244263,-3.6386873722076416,5.029661178588867,0.48675069212913513,2.5747263431549072,0.8246238827705383,-1.3036545515060425,-3.3119497299194336,3.4147000312805176,0.6603512167930603,0.8647538423538208,2.621445417404175,1.264578938484192,2.419978618621826,-0.4542071223258972,0.4540035128593445,1.1119005680084229,-2.084683895111084,1.7623491287231445,1.45521879196167,-0.5368433594703674,0.11533991992473602,1.850936770439148,-1.1461005210876465,0.5164939165115356,-0.30015939474105835,4.503636360168457,-2.5157573223114014,-1.7868130207061768,0.20467503368854523,-0.3741361200809479,1.3302104473114014,-1.6821565628051758,-1.2255970239639282,1.7809877395629883,-2.3072011470794678,0.7062951326370239,-2.37996506690979,0.8928859233856201,0.2100517600774765,-2.9905545711517334,-1.4857686758041382,-2.1183595657348633,3.194704055786133,-2.435908794403076,-3.941864013671875,3.1506693363189697,2.5778021812438965,1.7623143196105957,1.847916841506958,1.5189058780670166,1.9006452560424805,0.6932070851325989,-0.12946850061416626,2.299466848373413,-1.5846532583236694,4.724555015563965,-0.11506189405918121,-2.552475690841675,-0.48565202951431274,2.5008349418640137,-1.629446029663086,0.16781556606292725,2.34784197807312,2.584395408630371,-2.6953353881835938,-0.9931074380874634,0.8959081768989563,-3.801314353942871,3.1924304962158203,0.5640770196914673,-3.23659086227417,2.2969465255737305,-1.221494436264038,1.7968121767044067,2.8130064010620117,1.4126626253128052,3.0433716773986816,-3.604217767715454,0.14323443174362183,-2.53944730758667,1.0647047758102417,1.2382005453109741,-1.1932830810546875,-0.8168582916259766,-0.052822891622781754,-1.0511640310287476,-0.6679369807243347,-1.509954571723938,-0.09475000947713852,1.0120080709457397,-0.33714842796325684,1.0709831714630127,-0.1854710727930069,-2.321535110473633,-0.015450475737452507,-0.058274779468774796,-2.0565249919891357,-0.4477028548717499,0.6616052389144897,-0.5313825607299805,0.5701425671577454,0.9259239435195923,0.5796589255332947,0.05182357877492905,-0.38227489590644836,0.15735159814357758,-1.5116982460021973,-2.2591545581817627,1.3147228956222534,-2.1049680709838867,-1.4858399629592896,0.2291388362646103,-0.3599083423614502,-1.9595844745635986,-1.5265308618545532,-1.6938468217849731,0.03918199613690376,-1.9978055953979492,-0.1730469912290573,2.486273765563965,-1.8205299377441406,0.22724999487400055,-3.088601589202881,0.9548148512840271,-0.5076510906219482,-4.052940368652344,-1.987924575805664,1.645452618598938,3.176406145095825,-5.027458190917969,-1.2410657405853271,-5.024450778961182,1.1484036445617676,1.043397307395935,2.0987746715545654,-3.9054479598999023,1.1057169437408447,-2.1029958724975586,-0.21326476335525513,2.405923366546631,6.773813247680664,0.5397930145263672,-0.3715437650680542,1.192427396774292,2.0951731204986572,1.8624491691589355,-0.9005160927772522,-3.333876132965088,-0.8424202799797058,-2.5032663345336914,3.233839750289917,-1.380446434020996,-2.2274606227874756,1.4623357057571411,4.164132118225098,0.39853042364120483,-5.141212463378906,5.567147254943848,5.937834739685059,-4.617861747741699,0.013795155100524426,-0.02473524957895279,-8.711548805236816,-0.33607083559036255,-1.594957947731018,-4.6962080001831055,-1.7632747888565063,1.5097304582595825,4.746026992797852,0.17090928554534912,2.5838615894317627,-0.509571373462677,3.5464107990264893,-2.600659132003784,-1.8441978693008423,-2.8677070140838623,-6.127607822418213,-3.8776662349700928,-1.5475550889968872,2.3358709812164307,3.9134843349456787,-0.3690813183784485,0.35627979040145874,5.987483024597168,-0.8225396275520325,4.654732704162598,3.3075082302093506,-0.47668322920799255,-1.3066205978393555,-0.6261807680130005,4.005865097045898,1.5491154193878174,2.3804900646209717,4.034836769104004,-2.416743516921997,1.8771774768829346,-3.2667391300201416,-5.752604007720947,-5.884334087371826,-0.4497181177139282,-1.2232985496520996,-2.5169551372528076,-0.6352701187133789,-1.559134840965271,6.02669620513916,-11.60389232635498,-5.433722019195557,-7.675700664520264,7.1418023109436035,2.507873296737671,3.2201433181762695,-3.599602460861206,2.8845677375793457,-9.238792419433594,-7.827983856201172,-0.37205076217651367,2.4888222217559814,2.8204543590545654,-3.68302321434021,6.895149230957031,-0.963884711265564,-0.38472071290016174,4.6279168128967285,-2.706907033920288,-0.7841014862060547,-7.199380874633789,-4.421168327331543,-2.5353732109069824,-7.2049055099487305,0.7615965008735657,3.1714789867401123,1.4264127016067505,-3.948258399963379,3.6459572315216064,1.2246304750442505,-2.2861804962158203,-1.621572732925415,2.3067820072174072,-6.076061725616455,-3.069516658782959,-1.4911726713180542,-6.932016849517822,5.039834976196289,-5.9811248779296875,4.520934104919434,-3.9482476711273193,1.5232017040252686,-0.20048943161964417,0.62965989112854,1.079332947731018,-1.1978192329406738,-1.9157830476760864,-5.311081409454346,-8.177992820739746,0.6325827240943909,3.7857861518859863,-5.274166107177734,0.9405690431594849,0.8896124958992004,0.990607738494873,0.6789383292198181,-0.5763416290283203,7.910179615020752,2.1295478343963623,-8.459406852722168,6.459249496459961,1.5966542959213257,5.3796539306640625,2.5701887607574463,0.496471107006073,-4.821156978607178,1.268579363822937,1.0120832920074463,-1.0838090181350708,-0.1843818724155426,-0.38508570194244385,-1.0115591287612915,-0.11196943372488022,-0.5345281362533569,-0.9610899090766907,0.6092861890792847,-0.20712973177433014,0.8781235218048096,-0.5141993165016174,0.5631323456764221,0.6700984239578247,0.6837102174758911,-1.5841364860534668,0.09161564707756042,-0.37390848994255066,-1.0175491571426392,-0.9160716533660889,0.1419438272714615,0.6312829852104187,-0.3829215168952942,0.33610501885414124,-0.5615425109863281,0.718506932258606,0.3238455057144165,-0.0912662073969841,0.3870139420032501,-0.6485829949378967,-0.38075849413871765,-0.5175759792327881,-0.009569619782269001,0.3808356821537018,0.06689174473285675,0.7001960873603821,-0.6605510711669922,-0.1316363364458084,0.6630977988243103,0.09122948348522186,0.5127065181732178,0.6614533066749573,0.40583908557891846,0.22033581137657166,-0.017127780243754387,-0.2159956842660904,-0.24426160752773285,0.44236141443252563,-0.15554338693618774,0.5889514088630676,-0.08772754669189453,-0.5986244678497314,-0.15985308587551117,0.8240108489990234,-0.5353054404258728,-0.11915356665849686,0.14470380544662476,-1.0228275060653687,-0.2560569643974304,-0.4861476421356201,0.5618075132369995,-0.2688683271408081,0.5118398666381836,0.18869729340076447,-0.8798311948776245,-0.3146268427371979,-0.09870538860559464,-0.061014384031295776,-0.42709892988204956,0.633365273475647,0.5213688611984253,0.16184206306934357,-0.8520325422286987,-0.34188714623451233,0.49774572253227234,-0.0004159343952778727,-0.043010611087083817,0.007130283396691084,0.060473572462797165,0.030634159222245216,0.02330508641898632,-0.07321261614561081,0.07208994030952454,-0.016881760209798813,0.03481420874595642,0.021355774253606796,-0.03541961684823036,0.06676778942346573,0.04897290840744972,-0.04662153869867325,-0.07519242912530899,0.02999170869588852,-0.06403125077486038,-0.027152331545948982,0.04234135150909424,0.050072815269231796,0.04109635576605797,0.0010453453287482262,-0.02985551208257675,-0.06944092363119125,0.059831831604242325,0.03153832256793976,0.056184858083724976,-0.06675032526254654,-0.06763940304517746,0.07579967379570007,-0.017561057582497597,0.06534773856401443,0.06749916821718216,-0.06530918180942535,0.07104213535785675,0.01516506727784872,-0.027361944317817688]},"hiddenLayers":[{"inputMatrix":{"rows":40,"columns":38,"weights":[2.5191991329193115,0.23244847357273102,-1.4612081050872803,-0.38483360409736633,-0.3374653458595276,-1.7417850494384766,-0.622384786605835,-1.3076627254486084,-1.161346435546875,-0.2842506468296051,0.13847914338111877,0.9131062626838684,-1.1340699195861816,0.7788569927215576,0.1795228123664856,3.467320442199707,-0.38160181045532227,-0.4645427167415619,-0.40610864758491516,-2.03551983833313,-0.43095192313194275,0.3826538324356079,-0.20524324476718903,0.3398210406303406,0.5269915461540222,-0.3588857352733612,2.1184706687927246,0.2959839105606079,-0.19662365317344666,1.0037015676498413,-0.08623334765434265,-0.2537601888179779,0.36350056529045105,0.0307362861931324,1.0139766931533813,0.6771324872970581,1.5818920135498047,-0.342033714056015,-1.5372951030731201,-3.4380695819854736,1.2074339389801025,0.6759317517280579,0.4550398588180542,1.9672980308532715,-0.3998619318008423,3.1826133728027344,-1.7940988540649414,0.9685361981391907,-1.8201889991760254,-1.0558863878250122,0.7466343641281128,1.3511238098144531,-1.480919599533081,0.17533473670482635,1.50089430809021,0.1464746594429016,1.919775128364563,1.5643876791000366,1.531761884689331,-1.966842532157898,-2.470956325531006,-0.08140445500612259,-1.2041915655136108,1.807736873626709,-1.7193737030029297,1.5275988578796387,-0.1626550704240799,-1.979533076286316,-0.373433381319046,0.9782949686050415,0.6938503980636597,1.3305847644805908,-0.3791349232196808,-0.7077752351760864,-1.9686927795410156,2.447896718978882,-0.20157085359096527,-0.9470857977867126,0.24456188082695007,-1.3515751361846924,-0.9720737338066101,0.3042069971561432,-0.13342903554439545,1.1262212991714478,-0.9826453924179077,1.9100340604782104,-1.369431972503662,-0.3063463866710663,-0.9809119701385498,0.6162206530570984,0.6766527891159058,-0.05399530753493309,0.08584806323051453,0.5057986974716187,-0.2521575391292572,-0.5374833345413208,0.18385539948940277,0.4770342707633972,-0.49598583579063416,0.21704606711864471,1.5804975032806396,-0.5097877979278564,0.4108942449092865,1.121183156967163,-1.5686672925949097,0.14743711054325104,-1.4778650999069214,-0.8737179040908813,0.688323438167572,-0.9385420083999634,0.5821346640586853,-1.0178518295288086,-0.6801528334617615,-0.17854700982570648,-0.14664329588413239,0.0986790657043457,-0.5295777916908264,-0.8122590780258179,0.23460595309734344,-0.4624091386795044,-2.458691120147705,-0.24551434814929962,-1.0226467847824097,0.9823800325393677,-2.336282253265381,0.33777305483818054,-1.1281622648239136,2.0208969116210938,0.5108177065849304,1.5032275915145874,0.2800324559211731,1.1508128643035889,-0.7309443354606628,0.23489320278167725,0.982406497001648,0.9831836223602295,0.5980232954025269,-1.0484013557434082,0.32183852791786194,0.4555710256099701,1.6392446756362915,0.3137117326259613,-1.6675173044204712,1.853208065032959,-0.7686833739280701,-0.18949374556541443,-0.7156240940093994,-1.250163197517395,1.7666946649551392,1.9979315996170044,1.1559079885482788,-0.8699609637260437,1.1400233507156372,-0.00235892366617918,1.591934323310852,0.5722453594207764,0.30032745003700256,-1.3929016590118408,-0.707071840763092,0.5873245000839233,0.8421510457992554,-0.39753714203834534,0.6195876002311707,0.5189309120178223,-0.5448214411735535,-0.7861580848693848,0.14086532592773438,-0.44942474365234375,0.009940234012901783,-1.9137862920761108,0.038665685802698135,0.8021411895751953,0.8400918841362,0.5185306668281555,-0.17221687734127045,0.30280232429504395,-0.47257447242736816,0.33438020944595337,0.550372838973999,0.05300578474998474,-0.487408310174942,-0.5747305154800415,0.9065269827842712,0.862359344959259,0.3611326515674591,0.20148220658302307,-0.6263185739517212,1.3205339908599854,0.12234799563884735,-0.8313695788383484,1.4359010457992554,0.5133897066116333,-1.750465989112854,-0.5735333561897278,0.03643868863582611,-2.4567172527313232,-2.05129337310791,-1.1539478302001953,-0.898552417755127,0.20804286003112793,-0.423525333404541,1.786363124847412,-2.7586476802825928,1.601822018623352,0.3350810110569,1.9260741472244263,-1.54682195186615,-0.5707409977912903,-1.2797698974609375,-1.4070297479629517,0.009053053334355354,1.2087708711624146,0.7465276718139648,0.07971078902482986,0.8437226414680481,0.08738648146390915,1.5587078332901,0.3424580991268158,-1.3282105922698975,0.5521144270896912,-0.08566294610500336,-1.4304102659225464,-0.03217298164963722,-0.7697198987007141,0.8081357479095459,1.9400901794433594,1.34272038936615,-2.367684841156006,1.47600257396698,0.6061984896659851,-2.7673914432525635,-1.1215097904205322,0.5475442409515381,-2.098236083984375,-0.8921370506286621,-2.9138848781585693,-0.5060647130012512,-0.8811272978782654,-0.6878182888031006,2.6445696353912354,-2.0137779712677,1.1975549459457397,-0.18254025280475616,0.9818302989006042,-0.9595363140106201,-0.1609824001789093,-1.0350992679595947,-1.3194806575775146,-1.3829597234725952,0.9930658340454102,0.7409982085227966,-0.48537784814834595,1.2189812660217285,-0.26096394658088684,2.2874398231506348,-0.4231914281845093,-1.8543184995651245,0.8026046752929688,0.7291896939277649,-1.7174816131591797,-0.270093709230423,-0.4315335154533386,0.9196868538856506,0.9457364082336426,1.4169143438339233,-2.041931390762329,0.5666931867599487,1.173826813697815,-1.2093329429626465,-0.6732940673828125,-0.9250084161758423,-0.24641501903533936,0.11552376300096512,-1.8625805377960205,0.3167390525341034,-1.9330486059188843,1.2909454107284546,1.6032408475875854,-1.0351719856262207,0.24115090072155,1.7113537788391113,-0.07915160059928894,-1.1332943439483643,-0.8196200132369995,-1.8622550964355469,-0.7102587819099426,-0.38062599301338196,1.4761624336242676,1.645469069480896,-0.6540502309799194,1.0164750814437866,-2.431565284729004,1.2107875347137451,1.024247646331787,-1.1686617136001587,1.2182469367980957,1.0301753282546997,-0.06151178106665611,-2.0079150199890137,-0.7311675548553467,-0.20407429337501526,-0.03432157635688782,-0.11131536960601807,-0.00900750420987606,1.8567475080490112,1.5606725215911865,-1.8060297966003418,-0.8512099981307983,0.11845039576292038,-1.7583786249160767,-1.14911949634552,-0.13080741465091705,-3.4218924045562744,0.19765783846378326,0.18898463249206543,0.026099083945155144,-1.522803544998169,1.7209619283676147,-0.9484573602676392,2.109565496444702,-1.0471094846725464,-0.8645316362380981,-1.2954667806625366,-3.289306879043579,-0.7443827986717224,0.8947860598564148,-0.48746493458747864,1.1040689945220947,0.7397772669792175,0.9269891977310181,0.9542717933654785,-0.3806622326374054,-0.3258313536643982,-0.11675276607275009,-0.06688541918992996,-1.4293806552886963,1.1711585521697998,0.28568533062934875,1.415948510169983,1.3866811990737915,0.961034893989563,-1.6843796968460083,1.0898882150650024,0.3674796223640442,-0.749592661857605,0.023052072152495384,0.5731467604637146,-1.5023415088653564,-1.5832809209823608,0.18276384472846985,-0.230682373046875,-0.35327693819999695,-0.445354163646698,0.10663750022649765,-1.6854774951934814,0.749262809753418,-0.6462751626968384,0.5245370268821716,-0.5983176827430725,-0.2300603836774826,-0.4890047609806061,-0.028010444715619087,0.16515910625457764,2.365774154663086,0.6490126252174377,0.5109450221061707,-0.9945132732391357,0.8040915727615356,0.3270437717437744,-0.6520466208457947,-0.1760878711938858,0.37919241189956665,0.5351399779319763,0.06574563682079315,0.4028770625591278,-0.41101351380348206,-0.011556877754628658,2.426748037338257,0.4211193919181824,-1.5428768396377563,0.05294429510831833,-0.9584081172943115,0.03880191594362259,0.270958811044693,0.5125890374183655,-0.7923051118850708,-0.34974804520606995,-0.2927394211292267,-0.3273491859436035,0.6976512670516968,-0.6915456056594849,-1.1874467134475708,-2.713475227355957,-0.06354637444019318,-0.5744717717170715,1.4685850143432617,-2.775679111480713,0.6353515386581421,-0.3255023956298828,-0.5035948753356934,1.0244934558868408,0.8657549619674683,0.3074641525745392,0.3577338755130768,-0.06726216524839401,1.3293671607971191,2.0341415405273438,-0.4479881227016449,-0.3593248724937439,1.9578238725662231,-0.4428223669528961,-1.4332170486450195,0.32246607542037964,-0.46473464369773865,1.3188964128494263,2.038722276687622,1.8385134935379028,-1.3534367084503174,-0.18781419098377228,0.11770840734243393,-0.9741991758346558,-1.6340607404708862,-1.152977705001831,-0.22104860842227936,-0.23691308498382568,-1.1737873554229736,-0.56260746717453,1.034090280532837,-1.2397477626800537,-0.5163851380348206,-0.6908026933670044,1.439359188079834,1.3226325511932373,0.005793444812297821,0.02068239077925682,1.77109956741333,-0.8711191415786743,-0.7422152757644653,-1.6078091859817505,0.01071482989937067,-0.23005549609661102,-1.971078872680664,1.6760525703430176,-1.4077301025390625,-0.31704625487327576,0.3220261037349701,-1.735013723373413,-0.21957390010356903,-1.7626429796218872,-0.23060980439186096,-1.3806822299957275,-1.7976070642471313,-0.539359450340271,0.3183448612689972,-0.30272477865219116,-0.09726474434137344,0.9561718106269836,1.5484905242919922,0.13541536033153534,1.4573582410812378,1.7000784873962402,-0.3620557188987732,0.8177582025527954,-0.8151851892471313,-0.11860580742359161,-1.0896990299224854,2.6506357192993164,2.5822200775146484,-0.03355248272418976,0.699318528175354,-0.4265863299369812,0.474118173122406,-0.05576988309621811,-1.3040858507156372,-0.3540494441986084,0.16919635236263275,0.273637980222702,-1.6171934604644775,-0.007115557789802551,0.15145625174045563,-1.4500713348388672,0.9198490381240845,0.3963853418827057,-0.9784857034683228,2.3779654502868652,-0.6126717925071716,1.8473751544952393,-0.6596535444259644,0.48090875148773193,2.499115467071533,-0.693635106086731,1.7597328424453735,-0.04147990792989731,-0.20902879536151886,0.2791915833950043,-0.4968513548374176,-0.3176730275154114,1.2682063579559326,0.13915452361106873,-0.011460845358669758,-0.1287805140018463,0.42904025316238403,0.11502519249916077,-0.9462826251983643,0.7209752798080444,-1.8503437042236328,0.23709042370319366,0.3584526777267456,-1.7792836427688599,-0.09690649062395096,1.1684859991073608,-0.8281391859054565,-0.6217760443687439,0.015441164374351501,0.3476397693157196,0.02099744975566864,-1.0907233953475952,0.9865461587905884,-1.6961628198623657,1.8501956462860107,-0.6017862558364868,-0.542829692363739,0.7998650670051575,-0.74204021692276,-0.2090255469083786,0.07734975218772888,1.4328805208206177,1.9113123416900635,-0.3353738784790039,-0.5702642202377319,-0.7930067181587219,0.022067030891776085,0.22309763729572296,0.01063899789005518,1.1100316047668457,-1.463245153427124,0.5424371361732483,0.049160003662109375,-0.039256926625967026,1.0034797191619873,-0.05320229381322861,0.08329284191131592,-0.07685276865959167,1.0571848154067993,0.08322910964488983,-0.5287427306175232,1.023091197013855,-0.46068477630615234,-0.34159180521965027,-0.27571341395378113,-0.12710727751255035,0.01681181974709034,-0.2757517695426941,0.36133694648742676,-0.1569153219461441,0.48035696148872375,2.0031378269195557,-0.9549422860145569,0.35900676250457764,0.43168801069259644,-1.1243982315063477,0.21982203423976898,0.5661023855209351,0.28760382533073425,-0.20676018297672272,-1.3888188600540161,-0.1728777289390564,-0.3249891698360443,0.7288063764572144,-0.35967162251472473,0.5592849850654602,-0.7510756850242615,-1.6867830753326416,-1.6815218925476074,-0.0841958224773407,-1.0680036544799805,-1.7446085214614868,-1.2914021015167236,-0.5925472378730774,0.21728621423244476,-0.9471311569213867,0.5674597024917603,-1.8884884119033813,2.891648054122925,0.5997505784034729,0.7003577947616577,-1.0960966348648071,0.20830011367797852,-2.0609323978424072,-0.814026951789856,1.2627426385879517,1.5650684833526611,0.4024466276168823,-1.5922491550445557,0.45689016580581665,-0.3918682336807251,0.408591091632843,-0.06510202586650848,-2.617903232574463,0.011537007056176662,-0.6544081568717957,0.2709271311759949,-1.57371985912323,-1.3399922847747803,-0.04504406824707985,2.5046989917755127,0.07779500633478165,-1.6615231037139893,0.5183675289154053,-0.2351086586713791,-0.5512444376945496,-2.007338285446167,-1.6095589399337769,-0.5161191821098328,-1.4877302646636963,-0.42284080386161804,-2.219301700592041,1.5458308458328247,-0.6270208954811096,0.21805688738822937,-1.1964664459228516,3.2243266105651855,1.1239521503448486,0.7333361506462097,-0.5095995664596558,2.4216411113739014,-0.6392896175384521,-2.7598907947540283,-0.3903562128543854,0.877881646156311,0.8892050385475159,-1.1832966804504395,1.5740625858306885,-1.1307326555252075,0.22017504274845123,1.5097531080245972,-1.8797105550765991,-1.0471930503845215,-1.110569715499878,-2.1822361946105957,-0.12721270322799683,-1.3095073699951172,0.4484362304210663,1.4359278678894043,0.2117944061756134,-0.7057086825370789,0.23244735598564148,0.15738871693611145,0.013328169472515583,-0.43630582094192505,-0.5652397274971008,-0.3824235796928406,-0.9631766676902771,-0.26176056265830994,-1.5176759958267212,0.17884919047355652,-0.33735090494155884,0.16300679743289948,-0.6307498216629028,0.7079343199729919,0.5302330851554871,0.6292024850845337,-0.4958721697330475,0.24908161163330078,-0.32033807039260864,-0.5134972929954529,0.07419537752866745,0.267863392829895,0.8352288007736206,-0.6616074442863464,1.3016977310180664,-0.4122438132762909,0.2722063660621643,0.22484327852725983,-0.692733645439148,0.5276094675064087,0.05600901320576668,-0.5963824391365051,-0.31051135063171387,-0.4554482400417328,-0.1854059249162674,1.064516305923462,0.21937790513038635,-0.15847094357013702,-0.3232952356338501,-0.9710997343063354,2.009139060974121,0.944580078125,-1.236660361289978,1.780827522277832,2.4722611904144287,1.7932181358337402,-1.0355298519134521,-0.42655041813850403,0.3872913718223572,0.8918703198432922,1.0057026147842407,-1.0784876346588135,-1.856803297996521,0.3827321231365204,0.8954268097877502,-0.12030176818370819,2.6601922512054443,-0.9928596019744873,-1.9438331127166748,-3.2692711353302,-0.9893060922622681,2.0079715251922607,-1.4823590517044067,-0.06726337969303131,0.21326103806495667,1.0063565969467163,1.4556727409362793,0.06309231370687485,0.8171080946922302,-0.31473806500434875,1.4388093948364258,1.1232562065124512,0.6682261228561401,-2.4891021251678467,-1.1760711669921875,1.679639220237732,1.0661066770553589,0.017781412228941917,-0.2999759614467621,0.0987500324845314,0.034429263323545456,-1.3407902717590332,-2.026895523071289,-0.13835124671459198,-0.15044330060482025,0.24421055614948273,-1.412736415863037,0.8146780133247375,-1.443661093711853,0.6105611324310303,-0.17239803075790405,0.44200941920280457,-1.4364506006240845,0.9955686926841736,-1.7134802341461182,-0.719171404838562,-0.05155278369784355,1.3844208717346191,0.5060601830482483,0.04840875789523125,0.2636638581752777,0.8056535124778748,0.8437893986701965,0.2246687412261963,-1.2237260341644287,0.6243553757667542,-0.028058169409632683,-0.8248364329338074,-0.12453119456768036,-1.5920047760009766,0.30294689536094666,2.035944938659668,2.053333044052124,-1.6609766483306885,1.4599460363388062,-0.48006927967071533,-1.4312447309494019,0.5600878000259399,0.5125428438186646,-1.6559886932373047,-0.9930325746536255,-2.2491025924682617,-0.04445694386959076,-0.5167847871780396,0.27878791093826294,1.7874782085418701,-0.8015309572219849,0.9556024670600891,-0.2688142657279968,0.9851352572441101,-1.5600727796554565,-0.43126949667930603,-0.48079583048820496,0.42714524269104004,-0.7123667597770691,1.5572876930236816,2.4721498489379883,0.5848492980003357,-0.7321593165397644,0.3540879487991333,2.535079002380371,-0.16317662596702576,-0.6189587712287903,2.354945421218872,0.07975496351718903,-0.9423586130142212,0.5215955376625061,-0.3956250846385956,1.909546971321106,1.0952025651931763,2.6768202781677246,-1.166850209236145,0.5874965786933899,0.15643799304962158,-0.6250531077384949,0.39795050024986267,0.8354750275611877,-0.5372022986412048,-1.1405010223388672,-2.3760485649108887,0.002446146449074149,-0.5581570863723755,0.31240352988243103,1.8658467531204224,-0.769025981426239,0.773554265499115,0.3272958993911743,1.1798971891403198,-1.6403932571411133,-0.7432014346122742,-1.3976938724517822,0.0848112627863884,-0.5964508056640625,2.210667133331299,2.3857157230377197,0.031580664217472076,-0.20851068198680878,0.437669962644577,2.0960659980773926,-0.825528085231781,-0.7341588735580444,1.7691097259521484,0.3340279161930084,-0.715618371963501,0.14386619627475739,-0.4825994074344635,1.4288264513015747,1.1524643898010254,2.2707676887512207,-1.5180586576461792,0.9572928547859192,0.2336670458316803,-0.9809480309486389,0.06520703434944153,1.2366693019866943,-2.0218865871429443,-0.9173755049705505,-1.8155533075332642,0.1233288124203682,-0.6507523655891418,0.7365962862968445,2.284477949142456,-1.1824172735214233,0.9996504187583923,-0.3249061107635498,0.977318525314331,-0.2800692617893219,-1.298722267150879,-0.4723491072654724,-0.11110832542181015,-0.00808887928724289,1.2352396249771118,1.2398737668991089,-0.32122987508773804,-0.11073742806911469,0.7171972393989563,1.3384324312210083,-1.2516142129898071,-0.4306302070617676,0.8310249447822571,1.2718253135681152,-0.5577239394187927,0.7822719812393188,0.19578403234481812,0.6584528088569641,1.2029986381530762,1.4767894744873047,-1.5534356832504272,0.5996459722518921,0.769640326499939,-0.7066805362701416,-0.6755889058113098,-1.1592124700546265,-1.6259177923202515,-0.04730413481593132,0.17075364291667938,-1.1697168350219727,0.8616044521331787,-1.7403563261032104,1.4494597911834717,-0.5052314400672913,1.3736789226531982,-0.06606663763523102,0.9266989827156067,-0.24156388640403748,1.3629460334777832,1.6583178043365479,-1.0088093280792236,-1.2227846384048462,0.20757301151752472,0.4835447669029236,-1.603637933731079,0.4114239811897278,-0.048203982412815094,1.6572203636169434,0.8782745003700256,1.0742870569229126,1.4581538438796997,-1.3306390047073364,-1.3562313318252563,0.1032484844326973,1.2193691730499268,0.7842460870742798,0.34942394495010376,0.6930420994758606,-1.0866148471832275,1.9373667240142822,-1.4869937896728516,-1.3107914924621582,0.7298756241798401,-0.09445317834615707,-1.2372801303863525,-1.5205968618392944,-0.3700539469718933,-1.901286244392395,0.359012633562088,-0.09347853064537048,-0.308931827545166,-2.747600793838501,1.0809543132781982,-1.5343254804611206,1.928706169128418,-1.0284940004348755,-1.3931982517242432,-0.11042095720767975,-2.0020132064819336,0.6108736395835876,0.5162377953529358,-0.2595768868923187,0.8537641167640686,-0.685405433177948,1.6560006141662598,0.8343477249145508,-0.1612492799758911,-1.0988311767578125,-0.41982242465019226,0.5607174038887024,1.3270841836929321,0.8598365783691406,0.028481461107730865,0.5125866532325745,1.895729660987854,-0.3846322298049927,-1.951667308807373,0.4167998433113098,0.7525086998939514,-1.470971703529358,0.24414145946502686,1.0325775146484375,-0.943727433681488,-0.3575177788734436,-1.7128061056137085,-0.580560564994812,0.061997149139642715,-0.13423429429531097,2.0972256660461426,-1.205195426940918,1.2950016260147095,-0.4841689467430115,1.5337766408920288,-1.503007173538208,-0.7068870067596436,-0.14992131292819977,-0.6756320595741272,-0.8611559271812439,0.47113603353500366,0.9570379853248596,0.7032198905944824,-0.8179805874824524,0.6310091614723206,2.380364418029785,-0.45842283964157104,-0.17715789377689362,1.1961203813552856,0.9199033379554749,-1.8141236305236816,1.0753356218338013,-0.3201751708984375,2.0741374492645264,0.7452504634857178,1.5786738395690918,-1.827574372291565,1.4060856103897095,1.1057058572769165,-0.9860449433326721,0.4526536464691162,1.3113864660263062,-1.9051233530044556,-0.3972959518432617,-3.9327728748321533,0.059508439153432846,-1.4793829917907715,1.7722772359848022,1.9357751607894897,-0.1595611274242401,0.5986547470092773,0.22875182330608368,0.37874436378479004,-2.043741464614868,-0.9596793055534363,-0.7566214203834534,-0.31328722834587097,-1.5106045007705688,0.754102885723114,1.9660954475402832,0.2691793739795685,0.4916101098060608,0.12713760137557983,1.1674044132232666,-1.931783676147461,0.17324955761432648,1.7391963005065918,1.8074936866760254,-1.3685201406478882,0.1180487871170044,0.09641503542661667,1.3683619499206543,1.0379152297973633,1.830715298652649,-0.911254346370697,-0.5671814680099487,-0.5017701387405396,0.34977608919143677,0.12423845380544662,-0.37055906653404236,-0.12330140918493271,0.09350604563951492,0.681567907333374,-0.3273296356201172,0.35724422335624695,-0.28044912219047546,-0.8870811462402344,0.0008836925262585282,0.4058786630630493,0.2659565210342407,-0.38137495517730713,-0.32396259903907776,0.6570971608161926,1.0970463752746582,0.24996452033519745,0.7251046299934387,-0.12774717807769775,-0.111384816467762,-0.53902268409729,0.1200188398361206,-0.2987748384475708,-0.25119704008102417,-0.34960612654685974,1.0026637315750122,-0.42308592796325684,-0.5728310346603394,0.25440821051597595,-0.7613086700439453,0.5679342150688171,-0.6646263003349304,-0.3517678678035736,-0.10404492169618607,0.5333297848701477,-0.3761563301086426,-0.7445152401924133,1.8365061283111572,-0.31981831789016724,-1.1732174158096313,0.6471010446548462,1.063578486442566,1.855478048324585,-0.19111981987953186,0.6608140468597412,0.34634503722190857,-0.37909674644470215,0.6806535720825195,0.15957224369049072,-0.10362251847982407,-0.9825134873390198,1.1448895931243896,0.8398018479347229,-0.038912851363420486,-0.7734276652336121,0.8663060069084167,-0.9940106868743896,-1.0258389711380005,-0.562865674495697,0.17472593486309052,-0.052560169249773026,-2.6303164958953857,1.5718259811401367,1.2371858358383179,-1.5233160257339478,0.27777737379074097,2.514439821243286,0.01721932180225849,0.9945533871650696,-3.382547378540039,-0.18004311621189117,-1.9751516580581665,0.7341148853302002,0.6319306492805481,0.4301053583621979,-0.1044272631406784,-0.8330323696136475,-0.7417613863945007,-0.030378978699445724,-1.486775517463684,0.8807752132415771,-1.499696969985962,1.4246749877929688,-1.9250260591506958,0.09265763312578201,-1.1463816165924072,2.41811466217041,1.0095800161361694,0.47708240151405334,-0.4437340497970581,1.6895514726638794,-0.11063700169324875,-0.6727908849716187,-0.44851601123809814,0.41707274317741394,0.17928490042686462,-1.2328566312789917,0.999204695224762,-0.9391769766807556,0.36433321237564087,0.9644470810890198,-2.750138282775879,0.4541475474834442,-1.057252049446106,-0.35433006286621094,-0.2998189330101013,-1.2055704593658447,0.3420434594154358,1.5262396335601807,-0.006472098175436258,-0.7110927104949951,0.16908365488052368,0.5940596461296082,-1.1376529932022095,0.01885412260890007,0.19497638940811157,-0.43175798654556274,-1.5196205377578735,-1.3186532258987427,0.1145910769701004,0.17262373864650726,-0.12539486587047577,1.2939140796661377,-1.517855167388916,1.2507601976394653,0.07852807641029358,0.8762169480323792,-0.6173491477966309,1.1487805843353271,-0.4309539198875427,-0.25103703141212463,0.2797831892967224,1.233488917350769,1.091031789779663,-0.04782538861036301,0.23422139883041382,-0.5151780843734741,0.45979011058807373,-0.2676466703414917,-1.2177116870880127,1.1346555948257446,-0.4624961018562317,-0.4078620672225952,-0.12151367962360382,-0.674564778804779,0.8707088232040405,1.4518980979919434,0.6845899224281311,-0.08758001774549484,0.4497840702533722,0.04896055907011032,-0.7506464123725891,0.20549485087394714,-0.15395928919315338,-0.6156104803085327,-0.4005485773086548,-1.9822455644607544,-1.845240592956543,0.49499937891960144,-0.42991286516189575,2.773298501968384,-0.6493209600448608,1.9826688766479492,0.010969274677336216,1.5505518913269043,-0.42381855845451355,-0.4097825586795807,-0.18382343649864197,-0.7379238605499268,-1.025878667831421,1.0177005529403687,1.6101752519607544,0.7840549349784851,-0.17561011016368866,0.27393677830696106,1.6759514808654785,-0.738707959651947,-0.14577561616897583,1.9754054546356201,0.4220959544181824,-2.0483715534210205,1.1457717418670654,0.19242596626281738,1.7340385913848877,0.40081822872161865,1.4274041652679443,-0.3716185986995697,-0.2889387011528015,-0.3949793577194214,-1.4961254596710205,0.23882423341274261,1.1636651754379272,-0.22696150839328766,-0.708939254283905,0.7995916604995728,0.8489311337471008,-1.0590815544128418,0.986163318157196,0.2888396978378296,-0.44105052947998047,-0.11650507152080536,-3.203199625015259,-0.09446874260902405,-1.128989338874817,-1.1308411359786987,-0.6557970643043518,-0.07996946573257446,0.5553451180458069,0.0006926445639692247,-0.09148038178682327,1.2376435995101929,-2.1446452140808105,2.380169153213501,-0.2702939510345459,-0.4863457679748535,0.39608705043792725,0.06498682498931885,0.2922699749469757,-0.3754924535751343,2.3380823135375977,1.4070637226104736,-0.8702695369720459,0.8199636936187744,-0.49944138526916504,-0.7843106389045715,1.2280609607696533,0.3031138777732849,-0.8834441900253296,-1.4703218936920166,-0.11514460295438766,-0.9142102599143982,-1.5300519466400146,-0.38582900166511536,-1.1214405298233032,-0.125940203666687,-0.6812204122543335,1.2866381406784058,0.37627628445625305,1.1011502742767334,1.247710943222046,0.03254188224673271,0.4456150233745575,-0.485582172870636,-0.35267528891563416,-0.4287015199661255,-1.4966915845870972,1.5128200054168701,0.5513250827789307,-1.6329354047775269,1.5593321323394775,-1.3947508335113525,0.09660180658102036,0.24813923239707947,0.11772805452346802,-0.3414369225502014,0.6692110896110535,-0.6851170659065247,-0.14289309084415436,0.5472441911697388,0.09532736986875534,1.0057696104049683,-0.14182226359844208,-0.7174296379089355,0.5881542563438416,1.8157119750976562,1.0227441787719727,-0.9255342483520508,-1.793647050857544,-1.226015567779541,0.2577846348285675,1.1929669380187988,-0.8392360806465149,1.300405502319336,-0.6043074131011963,0.4940234422683716,0.4016667306423187,-0.1283695101737976,2.160609006881714,0.09737633913755417,-1.6430379152297974,1.774169683456421,0.4985713064670563,-1.0554143190383911,-0.6616335511207581,1.2329295873641968,1.6125028133392334,-1.3241543769836426,0.9218143224716187,-1.8694478273391724,1.950347900390625,0.6155405640602112,0.1515083611011505,1.3883925676345825,-2.668576955795288,-2.304572582244873,-0.9234644770622253,-1.1877033710479736,2.200446128845215,-0.033126503229141235,1.3499398231506348,-0.4313826858997345,-1.2140105962753296,-0.4297988712787628,0.4517618715763092,-2.5904898643493652,-0.48022934794425964,0.8778875470161438,-0.7574050426483154,1.8022257089614868,0.0403098538517952,0.39366328716278076,-0.6374021172523499,-2.356245994567871,-0.1012362390756607,-0.2520694136619568,1.4801355600357056,-1.1753205060958862,0.28505098819732666,-0.2609882056713104,-0.5792772769927979,1.0604461431503296,0.5802501440048218,1.7519677877426147,-0.37814682722091675,-1.9160836935043335,1.789159893989563,-1.2701630592346191,-1.4479899406433105,0.520585298538208,-1.0497907400131226,-0.7692580819129944,0.9678332209587097,-0.3050932288169861,-1.413163423538208,-0.8709380626678467,0.2250056266784668,0.34668946266174316,-0.5964659452438354,0.862551748752594,-2.9830660820007324,0.5215874910354614,1.9721912145614624,0.43730926513671875,-0.07757141441106796,2.407888889312744,1.1635768413543701,1.6886546611785889,0.44814515113830566,-0.41361743211746216,0.8485089540481567,-1.181480050086975,1.6004724502563477,-0.8516798615455627,-0.09692163020372391,-1.1942404508590698,0.5759413242340088,-0.047329384833574295,1.7550128698349,0.8119435906410217,0.43325942754745483,-1.3527899980545044,-2.1203560829162598,-0.09681540727615356,0.3209066390991211,-0.12254277616739273,-2.6645607948303223,-1.1410315036773682,1.3824490308761597,-1.433699607849121,-0.3957851529121399,1.0967166423797607,0.4624665677547455,1.0881290435791016,-1.950811505317688,-0.9857529401779175,-0.8926334381103516,1.4821012020111084,-0.706362247467041,-0.6102597117424011,0.364859014749527,-0.6716358065605164,0.47984975576400757,0.6370674967765808,0.6741457581520081,0.5326974987983704,0.43195831775665283,-0.2506130039691925,0.4208190441131592,-1.7641392946243286,0.34649378061294556,-1.0108143091201782,-0.41734233498573303,-0.21187634766101837,-0.5106222629547119,0.5611593723297119,0.5707623958587646,0.06186780333518982,1.9468199014663696,-1.655659794807434,-0.9550044536590576,-0.09886563569307327,0.3266875445842743,0.32429933547973633,-0.22925713658332825,0.11446665972471237,0.2382798194885254,-0.34414467215538025,0.38022929430007935,-0.01716897077858448,0.09466344118118286,-0.04236442223191261,-0.16076618432998657,-1.0830223560333252,-0.019333329051733017,1.0566459894180298,-0.7382243275642395,-0.33042243123054504,-0.8354357481002808,-1.4781523942947388,-1.2645379304885864,0.16371120512485504,-1.8251368999481201,-0.6254174709320068,-1.3324363231658936,0.5976988673210144,-0.5928789377212524,1.4375977516174316,-1.737264633178711,0.28727179765701294,2.2104084491729736,0.3627214729785919,-1.2276077270507812,1.2915220260620117,-0.9066905379295349,-0.6547057032585144,0.003489534603431821,1.340523362159729,1.3196806907653809,-1.1018930673599243,1.062495470046997,-1.291286826133728,0.6271907091140747,-0.27580198645591736,-2.2002811431884766,0.7629173994064331,0.014109920710325241,-0.5059135556221008,-1.4689044952392578,-1.9544243812561035,0.4292195737361908,1.32891047000885,0.9463372230529785,-0.7655643820762634,0.4657244086265564,1.214529275894165,-0.3154314458370209,-1.0075559616088867,0.829656720161438,-0.4206908345222473,-0.5572324395179749,0.404775470495224,-1.3926620483398438,0.130972221493721,0.2141900360584259,0.2901684045791626,0.015294233337044716,1.795453667640686,-0.5906121134757996,0.25241750478744507,0.8882936835289001,-0.37024587392807007,-0.737402617931366,-0.9761515259742737,-1.7181531190872192,0.9907236695289612,-0.9429119229316711,0.8434022068977356,0.10500640422105789,0.8589510917663574,0.29202714562416077,-0.8014190196990967,0.39999860525131226,-0.4709940254688263,-0.6207085251808167,0.6366798877716064,0.9475905895233154,1.4074840545654297,-0.5525690913200378,1.3467446565628052,-0.1815214455127716,-0.6251445412635803]},"inputHidden":{"rows":40,"columns":40,"weights":[1.9107297658920288,-0.28715139627456665,0.7540004849433899,-0.32811710238456726,-2.5378334522247314,0.030779093503952026,-0.0656103640794754,1.0741311311721802,-0.5392679572105408,-1.3307669162750244,-1.4687633514404297,-0.830218493938446,0.8705512285232544,0.35754626989364624,-0.8553466796875,0.1597192883491516,-0.4175010919570923,-0.17148780822753906,0.46044573187828064,1.096989393234253,2.730006694793701,1.4095492362976074,-0.9347121119499207,1.0847853422164917,0.3414008915424347,1.2671834230422974,0.5995320081710815,1.2654609680175781,1.120886206626892,-1.316642165184021,0.5896044969558716,0.0893208384513855,0.1641572266817093,-0.2992591857910156,-0.7448393702507019,-0.4198322296142578,-0.5063324570655823,-1.674494981765747,0.1512378752231598,-1.5661603212356567,-0.3901027739048004,-0.5767921805381775,-0.4614364802837372,-0.6265807747840881,0.4509919583797455,1.7885146141052246,0.9776785969734192,-2.3825716972351074,1.267592191696167,0.9343076944351196,0.05726313591003418,0.8976221680641174,-0.7698850035667419,-0.1727745234966278,-0.259304016828537,-0.39690691232681274,-0.019469235092401505,1.768662929534912,0.15828023850917816,-1.1973401308059692,0.2192211151123047,-1.6562784910202026,-0.6256896257400513,1.1284207105636597,-0.15410034358501434,-0.5248903632164001,-0.7035222053527832,0.33390989899635315,-0.14314022660255432,0.8542478680610657,0.33295780420303345,0.7557822465896606,0.24606233835220337,-1.3001972436904907,0.034932706505060196,-0.9340761303901672,0.1446053832769394,2.1714532375335693,-1.2404417991638184,-0.3037199378013611,-0.273873895406723,0.4345845878124237,-0.4271659553050995,0.5576002597808838,-0.4276737570762634,-0.5171998739242554,-2.070716381072998,1.6962827444076538,-2.591080904006958,0.7691941261291504,0.9612662196159363,0.18400263786315918,-0.0698036178946495,1.2440979480743408,-1.407307505607605,0.44538870453834534,-0.6840611696243286,-2.7285807132720947,-0.36415424942970276,0.743635356426239,1.1318135261535645,1.085206389427185,-2.2657196521759033,-2.895331621170044,-0.4157602787017822,-0.8554598093032837,-0.7082610130310059,0.7356964349746704,-0.6088528037071228,1.3285949230194092,0.187657430768013,-1.3018265962600708,-0.976241946220398,-0.2401770055294037,-0.4223412871360779,0.47844937443733215,0.4530692398548126,-1.2665716409683228,-0.4729306399822235,0.08826448023319244,-0.008635730482637882,-0.2226375937461853,1.0728685855865479,0.24721674621105194,-1.6869325637817383,-1.022640585899353,-0.21998730301856995,-0.027977056801319122,0.22307051718235016,-0.28918296098709106,-0.6823071837425232,-0.31587666273117065,0.6162737011909485,-1.3571085929870605,1.3032751083374023,-0.19961915910243988,-0.1344185769557953,-1.5347976684570312,0.6355075836181641,0.3858165442943573,0.25216394662857056,1.5015789270401,-0.8712025284767151,0.8863019347190857,-1.0047763586044312,-0.03909030184149742,-0.1405501514673233,0.799641489982605,2.1248371601104736,0.38708463311195374,-0.6782042980194092,-0.2722436785697937,0.9231561422348022,2.9294955730438232,0.5199435949325562,-0.015247470699250698,0.667666494846344,-1.4575599431991577,-0.5444427132606506,-0.42943817377090454,1.199306845664978,-0.06847807765007019,-0.06680229306221008,0.19179651141166687,0.022841885685920715,-1.257421612739563,-0.772331714630127,1.7481660842895508,-1.1236732006072998,0.7179951071739197,0.3125390410423279,1.0549845695495605,0.92474764585495,-1.148263931274414,1.7065131664276123,2.756246566772461,-1.2712488174438477,0.1839154213666916,0.5492556691169739,1.7360299825668335,1.7946741580963135,1.6636343002319336,-2.9420289993286133,0.820148229598999,-2.2752833366394043,-0.48892953991889954,2.2456233501434326,1.3082586526870728,0.12930406630039215,1.4637221097946167,-1.2901685237884521,-0.40248286724090576,1.3161855936050415,0.7648413777351379,-0.03832366690039635,-0.1427684873342514,-1.2679977416992188,-0.41775670647621155,-0.2618175148963928,-1.549923062324524,-0.4037705957889557,0.5497932434082031,-0.003739774227142334,-0.5730096101760864,-0.9529376029968262,0.38084834814071655,0.9629998207092285,-0.9150870442390442,0.6144910454750061,-1.5795942544937134,-0.612501859664917,0.36752158403396606,0.08093839883804321,-0.19253435730934143,0.6490360498428345,0.0824926570057869,1.058571696281433,-0.5449343323707581,-0.04772913083434105,-0.8567312359809875,-0.02715473249554634,-0.7722262740135193,-0.7394874095916748,-0.3840075731277466,0.6650437116622925,0.7109747529029846,-0.5930702686309814,-0.8594403266906738,-0.8404792547225952,-0.3573613166809082,0.573395848274231,-0.5498425364494324,0.05449053272604942,-0.26352569460868835,-0.6788681149482727,0.669468104839325,-0.7059817314147949,1.5119030475616455,1.2776747941970825,0.3117310106754303,0.2417031228542328,0.5379037261009216,3.162256956100464,-0.613015353679657,-0.5934617519378662,0.9855784773826599,0.09541697055101395,-2.893160104751587,-0.5563309192657471,-0.5424962043762207,-1.8556877374649048,-1.955589771270752,0.8916762471199036,-0.018481064587831497,1.6109652519226074,0.5062499046325684,2.417537212371826,-0.0093533368781209,0.20531408488750458,-0.1637737900018692,0.16190668940544128,-0.03489339351654053,0.08772879093885422,-1.1819334030151367,-1.1673383712768555,0.22537434101104736,-1.3881176710128784,-0.6612416505813599,-0.17715102434158325,-0.04211869463324547,-0.0727517157793045,0.33321285247802734,0.9086652398109436,2.0118513107299805,-0.17333005368709564,0.03003152273595333,-1.1572312116622925,-1.2267885208129883,-0.6658677458763123,0.8891889452934265,1.2076506614685059,-0.9135539531707764,-0.05869610980153084,0.5295422077178955,-1.221239447593689,-0.5480871200561523,-0.20751626789569855,-0.06938484311103821,0.9713460206985474,-0.07698501646518707,0.03545107692480087,1.2038394212722778,1.3696008920669556,0.34219902753829956,1.6713296175003052,0.8372690081596375,-0.7033788561820984,-0.1709326058626175,1.1590129137039185,1.2104966640472412,-0.6946966052055359,0.5926511883735657,-0.578438937664032,0.026990467682480812,0.6522142887115479,0.7356963753700256,-0.9411691427230835,0.2100653201341629,-0.010901969857513905,0.04058330878615379,1.0293562412261963,-0.7079561352729797,2.980354070663452,0.8049572110176086,-0.6537630558013916,0.8892717957496643,-1.101366400718689,0.2214140146970749,0.8380630612373352,0.33742284774780273,0.612753689289093,0.5834302306175232,-0.3110707700252533,-0.20370610058307648,0.4349062442779541,-0.2633286416530609,-0.22609779238700867,-0.06635794788599014,0.6119949221611023,-2.243039608001709,-1.647874355316162,-0.34671738743782043,-1.236828327178955,1.022887110710144,1.4560630321502686,-0.44433659315109253,-0.452837735414505,-0.9914098978042603,0.31111714243888855,0.8597546219825745,0.5312265157699585,0.3084477186203003,-0.3269740641117096,-0.4907105267047882,1.7264883518218994,0.6758391857147217,-0.26619723439216614,-0.40930888056755066,-1.182636022567749,-0.6594226360321045,-1.788036584854126,-0.3117566704750061,-0.7952888607978821,1.129212737083435,-1.2165799140930176,-0.8088248372077942,0.36892470717430115,0.5520992279052734,-0.9326846599578857,-1.210286021232605,-0.20597216486930847,0.9017947316169739,-1.3453458547592163,0.04736124351620674,0.3126719295978546,0.7662678956985474,1.4157942533493042,-1.6703685522079468,0.11293833702802658,-0.4895831346511841,-0.14477324485778809,0.4109065532684326,0.14537382125854492,0.8949036002159119,1.2396302223205566,-0.07865311205387115,1.0346615314483643,-0.21285869181156158,-0.7894923090934753,-1.068535327911377,-0.6181772947311401,-0.5998548865318298,0.2671493887901306,0.6345466375350952,-0.1742192506790161,-2.0088422298431396,-0.696448564529419,-0.9106900691986084,0.234060600399971,0.017582962289452553,1.4529246091842651,0.7201701998710632,0.3220963180065155,0.32956916093826294,1.1482616662979126,0.3753105700016022,-0.15231196582317352,0.9140581488609314,-0.0065042851492762566,0.9036590456962585,-0.004290203098207712,-0.05999429151415825,-0.9129213094711304,-1.085567593574524,1.0781424045562744,1.96464204788208,1.3846395015716553,-1.1152504682540894,0.8317198753356934,-0.4605215787887573,0.14502832293510437,-0.10476996004581451,-0.8824301958084106,0.48051881790161133,-1.1175870895385742,-0.4218778610229492,2.215996503829956,0.01976367086172104,0.43458786606788635,0.07879886776208878,-0.36132779717445374,-1.9689342975616455,0.8970591425895691,0.47363293170928955,0.8194077610969543,-1.9988945722579956,1.651764154434204,-0.436442494392395,-1.041170597076416,0.5860375165939331,2.8912153244018555,-0.8484777212142944,0.7651873230934143,-0.416326105594635,0.5005344152450562,-0.511440098285675,-1.0957868099212646,-0.29689639806747437,-0.48951640725135803,0.008582903072237968,0.728031575679779,-0.32715165615081787,1.295530080795288,0.45373326539993286,0.4112452566623688,-0.2870306968688965,1.1752656698226929,-1.429375171661377,0.4974992573261261,-0.435383141040802,-0.3459042012691498,-1.2961246967315674,0.44183552265167236,-0.18222083151340485,-0.22334159910678864,-0.07458754628896713,-0.39923062920570374,-1.0421695709228516,0.9819781184196472,-0.35088393092155457,0.08220573514699936,0.012460032477974892,-0.41512975096702576,0.24577374756336212,-0.8967677354812622,-0.5550169944763184,-2.015960931777954,-0.4387880265712738,0.07725589722394943,-0.4816552400588989,-0.11887936294078827,-0.8360417485237122,-0.39252588152885437,0.6440491676330566,0.8011259436607361,0.43633630871772766,-0.44499918818473816,-2.5181281566619873,-0.4808254837989807,-1.5871620178222656,-0.44965657591819763,-0.5102161765098572,-0.28294968605041504,0.5271549224853516,0.37977221608161926,-0.25912657380104065,1.3193382024765015,-0.8026934862136841,-0.20706693828105927,1.9139007329940796,1.5362014770507812,-0.6878088712692261,-1.158774971961975,-1.45309579372406,-2.7016072273254395,-0.07833569496870041,1.0960873365402222,0.5628060102462769,-0.04314965754747391,-0.9622291922569275,1.0897170305252075,-0.1964893788099289,-0.13780850172042847,1.3027583360671997,-0.025715909898281097,-1.5202043056488037,-0.9705119729042053,-0.18267634510993958,1.8693913221359253,-0.8265666961669922,0.6533385515213013,1.689980387687683,-0.7675092220306396,-0.6514313220977783,0.9804455041885376,-0.795603334903717,1.3116902112960815,1.6070836782455444,1.1229848861694336,0.37415969371795654,-1.1620131731033325,0.6369813680648804,1.4859004020690918,-0.6255350112915039,-0.33353540301322937,-0.11393392086029053,-1.1647582054138184,1.0434993505477905,-2.03914737701416,-0.5835409760475159,-0.7671626806259155,-0.6779297590255737,-0.6541537046432495,0.8587955832481384,-1.0365663766860962,0.6076008081436157,0.6828058362007141,0.09218554943799973,-0.30755212903022766,-1.014992356300354,0.3771213889122009,0.7446100115776062,-1.0037002563476562,-0.5749091506004333,-1.2700835466384888,0.6965402960777283,0.23436331748962402,-0.16343776881694794,1.3847626447677612,-0.0681748166680336,-0.6280822157859802,0.15770867466926575,-1.175329327583313,-0.7854551672935486,-0.040524836629629135,0.6719475388526917,1.263932704925537,1.0734657049179077,0.27690520882606506,0.5332865118980408,0.8311249613761902,-0.8885646462440491,-1.6210658550262451,1.7152169942855835,0.5100573301315308,-1.623874545097351,-2.123253107070923,3.2554433345794678,-1.418636441230774,-1.4778913259506226,-0.25373029708862305,0.426809698343277,0.2045944780111313,0.5534381866455078,-1.101942539215088,0.9059763550758362,-1.001060962677002,1.1737440824508667,1.1096084117889404,0.9554949998855591,0.09578131139278412,1.3054296970367432,-1.0728060007095337,-0.16025501489639282,-0.08301571756601334,1.1076856851577759,-0.22677281498908997,0.45365622639656067,-0.3554849326610565,2.0795578956604004,-1.1660555601119995,1.0738881826400757,-0.6920087933540344,0.7125220894813538,-0.7915002107620239,0.5703945159912109,-1.1900967359542847,1.118931531906128,0.1613798588514328,-0.20325009524822235,-0.2416386902332306,-0.8495756983757019,0.9746671319007874,-0.721152126789093,-0.6396129131317139,-0.0745064988732338,0.6515589356422424,-0.4841550290584564,-0.2580975294113159,-1.5768506526947021,-1.3061705827713013,-0.867810070514679,-1.0319201946258545,-0.2289307415485382,-1.3027890920639038,-0.35398679971694946,0.8328370451927185,0.32497870922088623,0.7967457175254822,-0.6187261939048767,-0.7156606316566467,0.10429813712835312,-0.15612350404262543,0.029868248850107193,-0.6243286728858948,1.6841249465942383,-0.2967908978462219,-1.003804326057434,-0.03088371828198433,-1.1674884557724,0.31250378489494324,-0.9559224247932434,0.05084598809480667,1.2824890613555908,0.7256788611412048,0.7520217299461365,0.1729082465171814,-0.08719722181558609,0.12981195747852325,-0.4991660416126251,1.2418745756149292,-0.42754337191581726,0.5531419515609741,1.0234827995300293,-0.5991044640541077,-0.8201566338539124,-0.3588271141052246,0.16337059438228607,0.21258853375911713,-0.045063264667987823,-0.7407734990119934,-0.2899843752384186,-0.5832128524780273,-0.3206026256084442,-0.2068539708852768,1.3897724151611328,0.23739996552467346,-0.17822836339473724,0.829267680644989,1.0649696588516235,0.41827458143234253,1.622694730758667,-1.0944197177886963,1.602786898612976,1.1910016536712646,0.43741586804389954,-0.8853334784507751,0.6397121548652649,-0.020317571237683296,0.6383227705955505,-1.0008190870285034,-0.3349768817424774,0.4325105547904968,0.14071735739707947,0.4001774489879608,-0.6757081151008606,-0.08953408151865005,0.10472520440816879,-0.8478909730911255,-0.4280397593975067,-0.35933950543403625,-1.9398151636123657,0.3371528089046478,0.5915680527687073,-0.5342026948928833,0.10349059849977493,-1.6762303113937378,1.1891179084777832,-1.815381407737732,-0.5599516034126282,0.0018643914954736829,1.6804417371749878,0.6800103783607483,-0.6897762417793274,0.47358110547065735,1.2534371614456177,-0.384735643863678,0.8190130591392517,1.7164090871810913,-0.17154547572135925,0.5400295853614807,0.9337197542190552,-0.05831034108996391,0.5215021371841431,0.1576213240623474,1.220345377922058,-0.5659475922584534,-0.02649514563381672,-0.062492743134498596,-0.17998431622982025,-2.1136369705200195,-0.08558014780282974,0.516259491443634,-0.22123058140277863,-1.3929660320281982,-0.19632603228092194,1.1190756559371948,1.2249664068222046,0.6987205743789673,0.9654037356376648,0.10842705518007278,0.0029674412216991186,-0.09328904747962952,-1.19441556930542,-0.7614298462867737,1.2492443323135376,-0.4951044023036957,0.9974251389503479,1.0590609312057495,-0.7324609756469727,-0.9632028341293335,-0.15571308135986328,-0.9481709003448486,-1.2777763605117798,-1.1285655498504639,-0.6057660579681396,-0.008856235072016716,-1.0461622476577759,-0.3838518261909485,-0.4826541244983673,0.458924800157547,0.37759917974472046,0.5446332693099976,0.8344100117683411,1.7861692905426025,-1.4787580966949463,1.5667595863342285,0.8411998152732849,1.9729012250900269,-1.9086054563522339,0.12359731644392014,0.5568883419036865,-0.0780676007270813,0.3119089901447296,-0.850454568862915,-0.23749785125255585,-0.09333328902721405,0.36108145117759705,-1.2178672552108765,1.8036128282546997,-0.26489144563674927,-0.0926753580570221,0.22302909195423126,-0.27917641401290894,-0.18278244137763977,-0.6605308055877686,1.627679467201233,0.3498733341693878,0.709219753742218,0.7492600083351135,2.274315595626831,-1.0998173952102661,0.3847491443157196,-0.6643821001052856,0.2674362361431122,1.068403720855713,0.9018601775169373,0.21275418996810913,0.31091001629829407,0.34899821877479553,-2.361905813217163,1.1493515968322754,-0.8208822011947632,1.2247878313064575,-0.03868648782372475,0.4535216987133026,-0.25933894515037537,0.14648254215717316,0.1623486876487732,-1.8261665105819702,1.2157357931137085,1.7557319402694702,-0.3537757992744446,2.209463357925415,1.4033392667770386,0.6854797005653381,0.0986667051911354,-0.2938910722732544,0.9363189935684204,1.1133227348327637,1.02480947971344,-0.3401743471622467,0.48535531759262085,0.33376196026802063,-1.134254813194275,-0.6802322268486023,0.2233559638261795,0.011869332753121853,0.5431563854217529,-0.497808575630188,-0.5132840275764465,0.8696415424346924,0.060954928398132324,0.07313074916601181,0.7592349648475647,-0.11320364475250244,-0.055213432759046555,0.09585178643465042,0.615634024143219,0.918853223323822,-0.03815130516886711,-0.1579481065273285,-0.4702949523925781,0.5503754019737244,0.8605881929397583,0.9655368328094482,-0.7344558238983154,1.8213757276535034,-0.062234699726104736,-0.5462086200714111,0.2546364367008209,-0.1852203756570816,-0.41967254877090454,0.5837658643722534,-0.762779712677002,-0.09289541095495224,-1.1046594381332397,-0.3738721013069153,0.9813597798347473,-0.6247124671936035,1.1456825733184814,-0.759985089302063,1.5559840202331543,-1.0258612632751465,-1.3674027919769287,-0.7106683254241943,0.99638432264328,-0.04070573300123215,0.3955576419830322,-1.2256263494491577,-1.6217706203460693,-0.16043275594711304,-0.09434853494167328,0.30001765489578247,0.4704626798629761,-0.32712656259536743,0.06098135560750961,-0.23072698712348938,1.210093379020691,0.1930752545595169,0.04562324658036232,-0.07481883466243744,-0.21463212370872498,1.8592770099639893,0.8975076079368591,0.8430534601211548,-1.2094429731369019,1.2565046548843384,-0.23035013675689697,-0.7901069521903992,-0.5814470648765564,-0.5397664308547974,0.40102460980415344,0.6447830200195312,-1.1288429498672485,0.05794689059257507,0.14872103929519653,-0.13479138910770416,0.8539409041404724,-0.5134290456771851,1.1822659969329834,-0.24140533804893494,0.5710529685020447,-0.5592165589332581,-0.4891796410083771,-0.1790936440229416,0.20789183676242828,-0.1541597843170166,-0.49026408791542053,-0.8026304244995117,-1.4307903051376343,-0.47173988819122314,0.5400762557983398,0.33317333459854126,0.4611685872077942,0.21239276230335236,0.7209668755531311,-0.5003983378410339,0.32725122570991516,0.1796722710132599,-0.04089604318141937,-0.1722831428050995,-0.037994831800460815,-0.03240090236067772,-0.25305017828941345,1.1772342920303345,0.20931760966777802,-0.1599733680486679,0.4219328463077545,-1.367168664932251,0.0009354762150906026,0.020435212180018425,0.5026004314422607,-0.012435873970389366,0.40619081258773804,-0.3261813223361969,-1.6084119081497192,0.23528526723384857,0.8602606058120728,-0.5018020868301392,-0.7308613657951355,2.620211124420166,0.40262895822525024,-0.5601820349693298,-2.250883102416992,0.08373168110847473,0.8060587048530579,-0.11263185739517212,-0.11562947928905487,0.1979609578847885,0.9671669602394104,1.7054392099380493,0.12621010839939117,-0.7527472972869873,0.6526374220848083,1.4450002908706665,0.6044901609420776,-0.8049684762954712,-0.8958122730255127,-1.0540190935134888,0.8638734817504883,1.536805510520935,-0.9868682026863098,-0.45657041668891907,-1.1303788423538208,-0.6855317950248718,-1.106660008430481,0.6763823628425598,1.5308717489242554,-0.860408365726471,-0.3699837625026703,0.7865607738494873,0.29880285263061523,-0.6299673914909363,1.2500993013381958,0.8256877660751343,3.094724416732788,-1.1177350282669067,-0.09924200922250748,1.543343424797058,2.0392439365386963,-0.8200891613960266,1.2909066677093506,0.020880701020359993,-0.5569945573806763,0.5628672242164612,-0.836931049823761,0.04795725643634796,-0.7858955264091492,-2.6554625034332275,-2.3080668449401855,0.29782694578170776,0.8051744699478149,-1.0559576749801636,-1.5931134223937988,-1.0953117609024048,-1.3310188055038452,0.3964379131793976,1.1834162473678589,0.8488548994064331,0.6868159770965576,0.01527568232268095,1.6729741096496582,1.4757801294326782,1.5883749723434448,2.9513392448425293,-0.6355566382408142,0.4925784170627594,-0.2569538652896881,-0.9316608905792236,0.09002817422151566,-1.7650866508483887,0.6347824931144714,0.5401017665863037,-1.3937700986862183,-0.03430255502462387,-0.9431785941123962,-0.9404070377349854,-0.4888871908187866,-1.203120470046997,-1.5563194751739502,0.055946189910173416,0.7677856683731079,-0.8005078434944153,-0.21868813037872314,0.8455781936645508,0.40360352396965027,-1.992747187614441,1.0808802843093872,1.0322332382202148,1.2746654748916626,-1.477845311164856,-0.2627517879009247,-1.1688956022262573,-1.2563289403915405,0.43362000584602356,-0.9397256374359131,1.9806312322616577,0.026364943012595177,0.30272653698921204,-0.00844851229339838,-1.7801964282989502,1.3332065343856812,1.568387508392334,0.4391740560531616,-2.3789114952087402,0.697762668132782,-2.1272706985473633,3.2265539169311523,-1.2490184307098389,0.5090216994285583,1.798449993133545,1.7000526189804077,1.6721014976501465,0.5585122108459473,0.9366591572761536,0.6195505261421204,0.9378836750984192,1.1764106750488281,0.22822116315364838,0.7533645629882812,-0.5173779129981995,0.9388543963432312,-1.820702075958252,-1.7990530729293823,0.5938140749931335,0.5834291577339172,-0.035051293671131134,-0.3141362965106964,-2.474644660949707,-1.4390618801116943,-1.0497910976409912,-0.3570668399333954,-0.2257080227136612,-1.3505018949508667,-0.030219368636608124,1.1979262828826904,0.6919392943382263,0.1583118587732315,-0.3184579014778137,0.7030159831047058,-0.5116549134254456,-0.24923066794872284,1.426306128501892,0.3832281231880188,1.2455257177352905,0.4152895510196686,0.46359995007514954,1.1999177932739258,-1.1442490816116333,0.9271126985549927,1.238149642944336,-0.3111635148525238,0.8630250692367554,0.4794965386390686,0.460204541683197,-0.9075934886932373,0.506352424621582,1.0206905603408813,-0.1014421358704567,-0.3881113827228546,0.07689772546291351,0.29132696986198425,-2.311471700668335,-0.7095237970352173,1.6418969631195068,1.4869557619094849,-0.21672596037387848,0.7040994167327881,1.1247282028198242,1.548477053642273,-1.1034384965896606,0.26363325119018555,-0.1722882091999054,-1.6882426738739014,-0.9794489145278931,-0.2763434946537018,1.7714834213256836,0.3716743290424347,-1.3612898588180542,0.40852683782577515,-1.1894304752349854,1.6219227313995361,0.11330567300319672,-0.6356202363967896,-1.3864601850509644,-0.5000522136688232,0.9983901381492615,1.5153634548187256,0.4917488098144531,-0.6113375425338745,2.0616884231567383,-1.6875444650650024,1.1368588209152222,0.8410096168518066,2.0151500701904297,1.9340975284576416,1.464251160621643,1.0892919301986694,1.2676666975021362,-0.3433903455734253,-0.8453528881072998,1.486475944519043,-0.8915175199508667,-0.5221423506736755,0.03944644331932068,-0.6647437214851379,1.232696294784546,-1.4575121402740479,-1.1229804754257202,-0.724900484085083,-0.696795642375946,0.3891950249671936,-1.8681679964065552,-1.4783869981765747,0.5392637848854065,0.16509902477264404,0.2628640830516815,0.8573895692825317,0.27332502603530884,0.04560483619570732,1.918144941329956,-0.9020914435386658,2.150712251663208,-0.48824232816696167,0.42900925874710083,0.911037027835846,0.11029442399740219,1.0786793231964111,-1.078395128250122,-1.6620657444000244,2.06028413772583,0.7606521248817444,1.49579656124115,0.8416980504989624,2.376509666442871,1.1456303596496582,0.6615247130393982,-0.053483158349990845,0.4950104355812073,2.1745235919952393,0.691885769367218,0.8727794289588928,-1.0258246660232544,-1.0971293449401855,0.7165734767913818,0.3478591740131378,1.141189694404602,-1.4303876161575317,-0.759948194026947,-0.3017267882823944,0.17612113058567047,0.08410517871379852,-0.34987327456474304,-1.0271034240722656,0.025980936363339424,-0.6764556765556335,-2.211392641067505,0.15438885986804962,1.203709363937378,0.558241069316864,0.9868564009666443,-1.738828182220459,0.49447354674339294,-1.8470650911331177,-0.33930352330207825,0.5860335230827332,-0.8196592926979065,1.071229338645935,1.5359535217285156,-1.0634336471557617,-0.6197230815887451,0.5128477215766907,1.8395805358886719,0.12537062168121338,0.5213497877120972,0.9671550393104553,1.0095345973968506,-0.15508690476417542,0.38754427433013916,0.8880117535591125,-1.8367588520050049,0.1853305697441101,-0.21080635488033295,-0.13810405135154724,-0.5232914090156555,0.11313512921333313,-0.24573878943920135,0.41302672028541565,-0.7391587495803833,-2.6524744033813477,-0.7204158902168274,-0.32155841588974,0.8233754634857178,1.1536141633987427,-0.3681323826313019,0.25588327646255493,0.5395844578742981,1.5065866708755493,-0.09241592884063721,-1.2134617567062378,-1.1210156679153442,0.43190744519233704,1.041409969329834,1.9629318714141846,0.504749059677124,0.2865058183670044,0.11292959749698639,-1.1373156309127808,-0.1197042390704155,0.6484602093696594,-1.4301096200942993,0.3219875693321228,-0.4544943869113922,-0.17106011509895325,-0.011322720907628536,-1.6089122295379639,0.30991846323013306,-0.3454016447067261,-0.5770171880722046,0.4077604115009308,-0.31321778893470764,1.7660449743270874,-1.8618282079696655,-2.021047830581665,0.8301663398742676,-0.26060590147972107,-0.22945232689380646,-0.45014211535453796,-1.6163814067840576,-0.408193439245224,-2.1743900775909424,1.1607264280319214,-1.555727481842041,-0.5617307424545288,-0.38955652713775635,0.5510812997817993,0.7285535335540771,-0.17454300820827484,-0.9372568726539612,-0.24500460922718048,0.43294328451156616,-0.2695942223072052,1.3471647500991821,0.34953510761260986,1.714903473854065,0.8301247954368591,0.14338937401771545,2.46071195602417,-0.8903279900550842,1.4100816249847412,-1.0741286277770996,1.0529340505599976,1.7138326168060303,0.16303634643554688,0.5411217212677002,-0.1999325454235077,-0.1885199397802353,0.3243325650691986,-0.48813948035240173,-1.0045756101608276,0.7249723672866821,-0.5278433561325073,0.31782445311546326,0.35319772362709045,-1.5259264707565308,0.44313082098960876,-0.9079886078834534,0.947296679019928,0.23809999227523804,1.0314096212387085,0.01620250754058361,1.518362283706665,-0.4059017598628998,0.3487383723258972,1.0814080238342285,0.18755196034908295,1.4025795459747314,0.4323406219482422,0.2354883998632431,0.21703767776489258,-0.10258686542510986,0.7188679575920105,-0.01652936264872551,-0.4630606770515442,-1.1778216361999512,1.5716850757598877,2.0271236896514893,-0.8504581451416016,-0.010543819516897202,0.11062120646238327,0.6770750880241394,-0.11366699635982513,1.0901963710784912,-0.005776917561888695,1.2541086673736572,0.8313551545143127,-1.719712734222412,1.1434894800186157,0.24154317378997803,-0.3744445741176605,0.2788484990596771,-0.15738067030906677,-0.21826639771461487,-0.04705597460269928,-0.634407103061676,0.5226848125457764,0.452027827501297,-1.1384843587875366,0.123721644282341,0.8334757685661316,-0.11211265623569489,0.7336377501487732,1.0169662237167358,-0.739693820476532,1.3337429761886597,0.025944503024220467,0.12228807806968689,-0.05590914562344551,0.6099119186401367,1.257859706878662,1.4758538007736206,-1.447440505027771,-0.3517751097679138,-0.9375978112220764,0.600136399269104,0.6822826266288757,1.2717087268829346,-1.3285658359527588,1.8898783922195435,-0.4482325315475464,0.09688976407051086,0.33084186911582947,-0.8315005302429199,0.18009501695632935,0.5307126045227051,-0.34909331798553467,-0.9192252159118652,1.1959760189056396,0.42127570509910583,0.6029096841812134,-0.6906489133834839,-0.5170433521270752,0.14307117462158203,0.16290856897830963,-0.15934528410434723,-0.007934525609016418,-0.42778173089027405,0.5863574743270874,0.07938383519649506,-0.1424793303012848,0.10509853065013885,-0.21330155432224274,0.8265076279640198,0.0568421334028244,-0.7389141917228699,-0.3920711874961853,0.22478991746902466,0.33334535360336304,1.0797972679138184,0.14463573694229126,-0.03394411876797676,1.2755097150802612,1.0115708112716675,-0.03568507358431816,1.183824896812439,-2.57769775390625,0.4266050457954407,-0.9261946082115173,1.495223045349121,0.6054797172546387,0.1825086623430252,-0.92740398645401,-0.8579924702644348,-1.1364494562149048,-0.36194759607315063,-0.9572011828422546,1.3150700330734253,0.2661627233028412,0.38533076643943787,0.8803235292434692,0.7507091164588928,0.3741063177585602,-0.46288612484931946,-0.3298806846141815,0.24627895653247833,-0.5783914923667908,-0.5153453350067139,-0.2534034252166748,-0.7359797358512878,-0.41242891550064087,0.7146721482276917,0.010819617658853531,-0.46353283524513245,-0.4156440496444702,1.1560380458831787,0.1738642007112503,-0.7872123718261719,-0.186310276389122,0.1588202565908432,-0.04725547134876251,0.6362930536270142,-1.1542564630508423,-0.515576958656311,-0.1782330423593521,0.2526613473892212,0.14438439905643463,1.544670581817627,-0.48280781507492065,1.0795533657073975,-0.12851375341415405,-0.46405932307243347,-0.29738572239875793,1.145480751991272,0.8469027876853943,0.3793376088142395,-0.4958169162273407,-0.3671970069408417,-0.5660765767097473,-1.5030280351638794,-0.6747657060623169,0.2819800078868866,-0.8271170854568481,0.4403918385505676,1.423112392425537,1.8315573930740356,-0.4933893382549286,-0.04150858148932457,0.227378711104393,-0.2268374264240265,-0.37548208236694336,0.26859986782073975,-1.399397611618042,0.5521979928016663,-0.48679834604263306,-0.629209041595459,-0.6511391401290894,0.47581008076667786,0.260059118270874,-1.1942070722579956,-0.1352454572916031,0.14611436426639557,1.505656123161316,-0.03132936358451843,-0.9967883229255676,-0.010949159041047096,-0.04151914641261101,-0.8082764148712158,-0.6840230226516724,1.3168023824691772,-0.33958977460861206,0.5618041753768921,-1.7197976112365723,-0.5147716403007507,-0.23148071765899658,-0.5677040219306946,1.484163761138916,0.9325651526451111,-0.7955437302589417,0.7539279460906982,-0.31625595688819885,-0.9241451025009155,1.5308598279953003,-0.8352563977241516,-2.5575242042541504,0.8271345496177673,-0.016607673838734627,-0.08805397152900696,0.02757471613585949,-1.7671312093734741,-0.3579559922218323,-0.18069620430469513,-0.09383919090032578,0.17586606740951538,-1.141979455947876,-2.055232524871826,0.48500820994377136,0.18935048580169678,1.1064558029174805,-0.8164311647415161,0.2281733900308609,1.7844741344451904,0.06204303726553917,1.671210765838623,-1.1288695335388184,2.0484321117401123,-0.5310836434364319,-1.1417566537857056,1.8087314367294312,0.1589670479297638,-1.0819300413131714,-0.043732330203056335,-0.7156097292900085,2.2492735385894775,0.05403965711593628,1.6377410888671875,0.8044399619102478,0.7172408103942871,1.5357322692871094,0.3030354082584381,1.6396840810775757,1.3223940134048462,-0.4844212532043457,0.4390450119972229,-0.2329203337430954,-1.595373511314392,-0.2692944407463074,1.5483424663543701,-0.5338615775108337,-0.1812032163143158,1.067736029624939,-0.043780941516160965,0.2522902190685272,0.7702202200889587,0.4489971995353699,1.4484972953796387,-0.3347165286540985,-0.46957358717918396,-0.9894055128097534,2.459238052368164,1.9605858325958252,2.383848190307617,-0.771867036819458,1.68491792678833,-1.1913663148880005,0.08790656924247742,-0.38355714082717896,0.4885241389274597,0.12710405886173248,0.5951586365699768,-3.437553644180298,0.5839519500732422,-0.5634656548500061,0.23952773213386536,-0.19628219306468964,-0.02675943449139595,-1.0941314697265625,0.35026130080223083,0.6101514101028442,-0.1163947805762291,0.44545885920524597,1.46747887134552,0.2715511620044708,-0.5194387435913086,-0.30324283242225647,-0.2007990926504135,-0.992646336555481,0.8631572127342224,-1.8792260885238647,-0.2523464262485504,-0.12470820546150208,0.20745183527469635,-0.5090997815132141,0.6265159845352173,-1.6311677694320679,1.0092971324920654,-1.4070509672164917,1.2421265840530396,-1.0588200092315674,0.7543007731437683,-0.256401926279068,0.3921829164028168,0.2957621216773987,1.2826412916183472,-0.32029852271080017,-0.45037615299224854,-2.04223370552063,-0.08528410643339157,1.0109951496124268,0.05784086138010025,-0.4103028476238251,0.2056695967912674,-2.5967915058135986,0.9032718539237976,-0.08377440273761749,-0.12053900957107544,-0.3468369245529175,1.3077797889709473,0.357011079788208,1.787451148033142]},"inputBias":{"rows":40,"columns":1,"weights":[-0.3531269133090973,0.7974943518638611,-0.9137057065963745,-0.7661845088005066,-0.39741697907447815,-0.4182836711406708,-0.0006496663554571569,-0.18855324387550354,-0.16331350803375244,-0.9592485427856445,-0.17396992444992065,-0.6592316627502441,0.9016213417053223,-0.6384361982345581,-0.8878808617591858,-0.16831806302070618,-0.06375185400247574,-0.8508394360542297,0.8382464051246643,-0.7494214773178101,-0.3278304636478424,-0.6378176212310791,-0.030259760096669197,-1.1850645542144775,-0.5925856828689575,-1.0688469409942627,0.08399698138237,-0.3630200922489166,0.8161913156509399,-0.9065129160881042,-0.35367390513420105,-0.5938641428947449,0.8975932598114014,-0.9854879975318909,-0.08350644260644913,-0.9502183198928833,0.23188066482543945,-0.40503108501434326,-0.8394558429718018,-0.7618752717971802]},"forgetMatrix":{"rows":40,"columns":38,"weights":[-0.5428687930107117,-1.3939474821090698,-1.8144588470458984,-1.086499571800232,-0.45299839973449707,-1.0005954504013062,-2.7713756561279297,-0.06945942342281342,-0.6985446214675903,1.1787917613983154,-1.2601251602172852,-0.08136092871427536,-1.612417459487915,1.5275357961654663,-0.5291921496391296,0.9526441693305969,-0.27012547850608826,0.22554704546928406,-1.0440260171890259,0.9297325611114502,2.0899062156677246,2.717758893966675,0.5600084662437439,-1.748565912246704,-0.36514922976493835,0.6691551804542542,-0.553006112575531,0.19221270084381104,-1.3716281652450562,-1.0548361539840698,-0.6797729134559631,0.3593445122241974,0.15029847621917725,-0.5523558855056763,-0.43632811307907104,2.1756680011749268,-0.614682137966156,-1.487732172012329,-0.09618958830833435,2.7285962104797363,-0.8157874941825867,-0.2019951492547989,-0.516044020652771,0.5866679549217224,0.7467914819717407,-1.6212459802627563,1.4628932476043701,-0.14048488438129425,0.38548675179481506,0.9901502132415771,-0.41042375564575195,0.0786156952381134,0.20991194248199463,-0.08435897529125214,-0.7616472840309143,1.4639288187026978,0.06298062950372696,-0.17756615579128265,-2.5561535358428955,1.097121000289917,0.6260294914245605,-0.3491975665092468,-0.4678240418434143,-0.31567510962486267,-0.02250128611922264,-0.8014315962791443,0.8096423745155334,0.09110680222511292,-2.572972536087036,-1.42759108543396,-0.39163461327552795,-0.295916885137558,0.17372919619083405,-0.5165136456489563,0.6751808524131775,1.2076539993286133,-0.7893141508102417,0.6885052919387817,0.6200472116470337,0.5909620523452759,1.6368671655654907,0.5036215782165527,0.15702983736991882,-0.6488776803016663,0.918856680393219,-0.9723193645477295,1.790717363357544,0.3893534243106842,1.4269609451293945,-1.4587770700454712,0.2569766938686371,-0.37033548951148987,0.15434397757053375,-1.6063767671585083,1.3383480310440063,0.8524265289306641,0.5963687300682068,0.6867325305938721,0.762071967124939,1.5557928085327148,-1.0207117795944214,1.3543086051940918,-0.013409290462732315,-1.4952093362808228,2.4150495529174805,-0.370718777179718,1.8952945470809937,-0.44908082485198975,1.714352011680603,1.4990991353988647,0.21020174026489258,-0.6184108853340149,-0.07834315299987793,-1.0392184257507324,1.8108644485473633,-2.2704083919525146,0.3753688633441925,1.498046636581421,0.3738798499107361,-1.07608962059021,-0.8363409042358398,0.7706431150436401,1.1473623514175415,0.029874302446842194,0.4190739095211029,0.3853134214878082,-0.10507930815219879,-0.8578571677207947,-1.1440753936767578,1.3569979667663574,-0.77036052942276,-1.0116784572601318,1.4496136903762817,0.11609774082899094,1.3319857120513916,0.5027960538864136,1.0086669921875,2.0059499740600586,-1.5370854139328003,1.7789112329483032,0.8395799398422241,0.9256813526153564,0.8657450079917908,1.4702284336090088,0.9703729152679443,0.5950030088424683,2.425475835800171,-0.5530628561973572,0.9950858950614929,1.0622221231460571,0.9030699133872986,-2.438230037689209,-0.5403428673744202,-2.1501963138580322,0.17695613205432892,0.13800720870494843,-1.293932318687439,0.07980906963348389,0.9467815160751343,2.319260597229004,0.11494924128055573,2.0708703994750977,-1.5414156913757324,-0.972806453704834,0.06455229967832565,1.305184245109558,-0.7771660089492798,0.20301254093647003,1.0931370258331299,0.7125523090362549,0.2367258071899414,-1.181220293045044,-0.37069764733314514,-2.5337255001068115,-1.5220996141433716,-0.10372158885002136,-0.40798819065093994,0.8515039682388306,-1.0532513856887817,2.0787580013275146,0.021990733221173286,-1.638954758644104,-1.0282584428787231,-0.04093959555029869,0.6711333394050598,0.18653644621372223,-0.9673255085945129,-0.6133694648742676,-1.8075579404830933,0.11507538706064224,-0.08876284211874008,-2.1546897888183594,1.141692876815796,0.07384348660707474,1.2517257928848267,-1.7515242099761963,-0.8493338823318481,0.9400454759597778,1.8960213661193848,-1.6222608089447021,0.34552139043807983,-0.29734334349632263,-0.4133686423301697,-1.1565864086151123,-0.17155900597572327,-0.05266708880662918,-0.6095636487007141,-1.36018967628479,-0.4239142835140228,2.614241361618042,2.101205587387085,0.8282902836799622,-0.028180312365293503,0.9884799718856812,-0.40685001015663147,0.4365028738975525,0.7145715355873108,-0.6986744999885559,-1.019075870513916,0.3611892759799957,1.0559461116790771,2.662752151489258,0.3859327435493469,-1.6102358102798462,0.38194677233695984,0.8085992932319641,1.1017305850982666,-0.6541799306869507,-0.5060644149780273,-0.9061071276664734,-0.12300602346658707,-0.7091430425643921,-0.3707806169986725,-1.2686704397201538,-1.652161955833435,-0.16812764108181,-1.631047248840332,1.1308022737503052,-0.5941063165664673,0.354793906211853,-0.38638076186180115,2.3691279888153076,-0.7718116044998169,1.2231478691101074,-0.00980544276535511,-0.3349640369415283,-0.9228454232215881,-0.9864329695701599,0.5314053297042847,1.1488324403762817,0.2832775413990021,0.058964721858501434,0.24895355105400085,0.6313833594322205,0.10385231673717499,0.5568066239356995,-1.0299246311187744,0.4622173309326172,-0.20628100633621216,-0.29117193818092346,0.578680157661438,-0.6916862726211548,0.3808733820915222,2.5164055824279785,-0.6215959191322327,-0.8605141639709473,-1.9649522304534912,-0.3944080173969269,0.6660223603248596,0.26210644841194153,-0.3013467490673065,0.4026709198951721,0.2692701518535614,-0.971427857875824,0.11228533834218979,-1.272148609161377,1.500031590461731,1.261876106262207,0.6373035311698914,-0.18749094009399414,0.7094295024871826,-1.5413405895233154,0.08991840481758118,0.5126115679740906,0.8796338438987732,1.9307695627212524,0.16895990073680878,0.6923519968986511,0.9529330134391785,-0.11332475394010544,-0.015091885812580585,-0.285262793302536,-1.4789789915084839,-1.3145456314086914,-0.462436705827713,-0.32354074716567993,0.5523998737335205,-0.1950920820236206,-0.025229886174201965,-0.6179921627044678,-0.5368492007255554,-0.2095714658498764,-1.2774806022644043,1.2244268655776978,-0.6386579871177673,0.3384864628314972,0.5086168050765991,-1.8553335666656494,-0.16011354327201843,0.640576183795929,-0.8229292035102844,-0.861312747001648,-0.35571977496147156,-0.6801796555519104,0.8626784086227417,0.902091920375824,-0.1219804659485817,-0.1626790314912796,1.9680026769638062,-0.3858082592487335,0.3583601713180542,0.1618395447731018,-0.18383276462554932,1.0405502319335938,-0.9774953126907349,0.6604536771774292,-0.07655509561300278,-0.614595353603363,1.0223238468170166,-0.7049633860588074,-0.7952462434768677,-0.6081350445747375,-1.3014068603515625,-1.246970772743225,-0.3455200791358948,-0.18986964225769043,-1.318306803703308,-1.080754280090332,