{"type":"LSTM","options":{"inputSize":51,"inputRange":51,"hiddenLayers":[40,50,50,40],"outputSize":51,"decayRate":0.999,"smoothEps":1e-8,"regc":0.000001,"clipval":5,"maxPredictionLength":1000,"dataFormatter":{"indexTable":{"1":40,"4":43,"8":42,"9":41,"C":0,"a":1,"n":2," ":3,"y":4,"o":5,"u":6,"m":7,"k":8,"e":9,"t":10,"r":11,"h":12,"i":13,"?":14,"W":15,"s":16,"p":17,"f":18,"w":19,"d":20,",":21,"l":22,"v":23,"L":24,"T":25,"b":26,"P":27,"M":28,"O":29,"c":30,"g":31,"'":32,"D":33,"E":34,"x":35,"j":36,"A":37,"q":38,"Q":39,"F":44,"G":45,"N":46,"z":47,"stop-input":48,"start-output":49,"unrecognized":50},"characterTable":{"0":"C","1":"a","2":"n","3":" ","4":"y","5":"o","6":"u","7":"m","8":"k","9":"e","10":"t","11":"r","12":"h","13":"i","14":"?","15":"W","16":"s","17":"p","18":"f","19":"w","20":"d","21":",","22":"l","23":"v","24":"L","25":"T","26":"b","27":"P","28":"M","29":"O","30":"c","31":"g","32":"'","33":"D","34":"E","35":"x","36":"j","37":"A","38":"q","39":"Q","40":"1","41":"9","42":"8","43":"4","44":"F","45":"G","46":"N","47":"z","48":null,"49":null,"50":null},"values":[{"input":"Can you make a nature haiku?","output":"Whispers from wind, and rattly leaves"},{"input":"Write me a love poem","output":"Love is the"},{"input":"Tell me about photosynthesis","output":"Photosynthesis is"},{"input":"Make up a hero story","output":"Once upon a time, a great brave hero from a kingdom"},{"input":"What's 'Moby Dick' about?","output":"Moby Dick"},{"input":"Write a sonnet about time","output":"Time, the one who"},{"input":"Explain relativity to me","output":"The theory of relativity"},{"input":"Make a limerick about a cat","output":"There was a cat"},{"input":"Describe mitosis","output":"Mitosis"},{"input":"Tell a journey story","output":"A journey"},{"input":"What's quantum mechanics?","output":"Quantum mechanics"},{"input":"Tell a fable about honesty","output":"Once upon a time a young boy"},{"input":"What's '1984' about?","output":"summary 1984"},{"input":"Make a haiku about the ocean","output":"haiku ocean"},{"input":"Explain evolution","output":"Evolution"},{"input":"Write a sonnet about friendship","output":"Frendship so pure, Gentle touch"},{"input":"Make up a detective story","output":"A clever detective in the night"},{"input":"Write a ballad about a knight","output":"A bold brave knight"},{"input":"What's 'Pride and Prejudice' about?","output":"Pride and Prejudice"},{"input":"Make a haiku about the moon","output":"Gray orb lighting high in the sky"},{"input":"Explain photosynthesis","output":"Photosynthesis"},{"input":"Write a sonnet about nature","output":"Nature of beauty"},{"input":"Make up a wizard story","output":"A mysterious all powerful wizard"},{"input":"Tell me about the solar system","output":"The planets surrounding the sun"},{"input":"Write a poem about winter","output":"The cold cold winter"}],"characters":["C","a","n"," ","y","o","u","m","k","e","t","r","h","i","?","W","s","p","f","w","d",",","l","v","L","T","b","P","M","O","c","g","'","D","E","x","j","A","q","Q","1","9","8","4","F","G","N","z","stop-input","start-output","unrecognized"],"specialIndexes":[48,49,50]},"learningRate":0.06},"trainOpts":{"iterations":1800,"errorThresh":0.003,"logPeriod":10,"learningRate":0.01,"callbackPeriod":10,"timeout":"Infinity"},"input":{"rows":52,"columns":51,"weights":[0.021327383816242218,-0.5757004618644714,0.2785775363445282,-0.4296149015426636,-0.08997903019189835,-0.33440303802490234,-0.3259335160255432,-0.4879764914512634,-0.12032879143953323,-0.005388275720179081,-0.44747811555862427,0.4066091477870941,-0.19186897575855255,-0.6993061900138855,0.8372533917427063,-0.26723459362983704,0.01591656543314457,-0.032038960605859756,-0.806008517742157,-0.08030316233634949,0.18620820343494415,-0.3258824646472931,0.07353617250919342,0.22286468744277954,-0.33217379450798035,0.6032967567443848,-0.09044785797595978,-0.3334345817565918,0.016613759100437164,0.002574550686404109,0.1833413988351822,0.34033143520355225,-0.2638198137283325,-0.23648500442504883,-0.43259233236312866,0.5352089405059814,-0.02095004916191101,-0.37686410546302795,0.28297707438468933,-0.7398113012313843,0.18706844747066498,-0.4313618242740631,0.2996905744075775,0.4882236123085022,-0.20811861753463745,-0.22367824614048004,0.029370136559009552,-0.530595064163208,-0.20495040714740753,-0.07291954755783081,0.6028419733047485,7.52055025100708,-2.9761452674865723,11.260000228881836,3.8453500270843506,5.4360222816467285,4.600818634033203,2.4447290897369385,-13.62936019897461,0.5259617567062378,12.467121124267578,-1.8052045106887817,-7.215962886810303,4.069529056549072,-18.484527587890625,13.915453910827637,1.7657294273376465,5.262411117553711,8.913135528564453,-7.440740585327148,-17.13226318359375,0.9197113513946533,0.5892752408981323,-11.166709899902344,6.887035846710205,0.20801332592964172,-0.538729727268219,-14.549775123596191,0.5705185532569885,-4.470372676849365,-1.1725375652313232,3.299649477005005,-2.608643054962158,0.7836958169937134,5.8626556396484375,-11.731100082397461,8.522509574890137,-4.099542140960693,-1.7550811767578125,8.204754829406738,-10.38288402557373,6.769912242889404,3.221980571746826,3.5241363048553467,-0.1088869646191597,5.375150680541992,2.0767860412597656,-18.375991821289062,-4.307804107666016,-1.8175939321517944,-3.9249651432037354,2.97930908203125,-0.21569573879241943,0.2743382453918457,0.21406978368759155,-0.26838043332099915,0.05457247048616409,-0.022914068773388863,0.20198017358779907,0.3247987627983093,-0.027426419779658318,-0.11076640337705612,-0.27307823300361633,0.10561823844909668,-0.18624386191368103,0.09440740197896957,-0.1261254996061325,-0.09719105064868927,0.2563709616661072,-0.4095616936683655,0.06658093631267548,0.23486828804016113,-0.09978330880403519,-0.13668866455554962,-0.3253761827945709,0.11389831453561783,0.17231784760951996,0.10537209361791611,0.16799935698509216,-0.2283860296010971,0.42208224534988403,-0.48231589794158936,-0.213047057390213,-0.14285513758659363,0.11597360670566559,-0.17309637367725372,0.39676499366760254,-0.10587337613105774,0.018774574622511864,0.2823411822319031,-0.1453298032283783,0.05257334187626839,-0.291747123003006,-0.26368141174316406,-0.12765567004680634,0.03219137713313103,-0.05013500899076462,0.14824137091636658,0.13197724521160126,-0.3289910852909088,0.17551389336585999,0.13120673596858978,-0.0052332160994410515,0.10512763261795044,-1.3282195329666138,-2.720747709274292,-1.0164021253585815,0.6645118594169617,-0.44968655705451965,-0.2628791332244873,-0.3944278657436371,0.2696705162525177,-0.47416168451309204,-0.2586837112903595,1.3141674995422363,2.6389858722686768,1.328594446182251,-0.6538605093955994,2.809161424636841,0.7805421948432922,-0.29072532057762146,0.9437195658683777,0.7827251553535461,-0.06801941245794296,-0.5152380466461182,1.2559350728988647,-0.0905890241265297,-1.2253799438476562,1.2966678142547607,1.2127654552459717,-0.4846087694168091,0.9567300081253052,-0.2032710313796997,0.874520480632782,-0.12890422344207764,0.5528907775878906,1.4840210676193237,-0.007896234281361103,0.1350073367357254,1.4564443826675415,-0.014592991210520267,0.15096931159496307,1.143379807472229,-0.6698896288871765,-1.0158673524856567,2.100785255432129,1.1026886701583862,-0.7453296184539795,-0.1969698965549469,0.17907309532165527,1.125667691230774,0.40439191460609436,0.6715147495269775,-0.4004608988761902,-0.4365674555301666,0.2226584404706955,0.02104826644062996,-0.566472053527832,0.38208144903182983,0.5329736471176147,0.2559286952018738,0.33351555466651917,0.004625193774700165,-0.04870137572288513,-0.3877064287662506,-0.14228522777557373,0.4976691007614136,-0.2242390215396881,0.1312055140733719,0.4790755808353424,0.36367669701576233,-0.12546835839748383,0.34625425934791565,-0.46264269948005676,-0.1559564769268036,-0.21071696281433105,-0.36136260628700256,0.31152933835983276,-0.059288155287504196,0.39086270332336426,-0.3656770884990692,-0.42064395546913147,-0.5984398126602173,0.20015592873096466,-0.3902956545352936,0.13846679031848907,0.27014437317848206,0.4489891827106476,-0.2750137150287628,-0.33844536542892456,-0.02448851615190506,0.40709465742111206,-0.30942976474761963,0.5075108408927917,-0.18388819694519043,-0.13904441893100739,0.27234506607055664,0.43015503883361816,0.12223824113607407,0.27476945519447327,-0.10417519509792328,-0.30046743154525757,0.4940561354160309,0.024467606097459793,0.02591417171061039,-1.3630690574645996,-0.045789334923028946,-0.8041811585426331,0.8032892942428589,-0.16095909476280212,1.095334529876709,1.0959084033966064,-0.127473384141922,0.6855986714363098,-0.03647284954786301,0.8285940289497375,-0.0043926602229475975,-0.2737514078617096,0.6449249386787415,0.006379301659762859,1.0884467363357544,0.4222092926502228,-0.7046418786048889,0.7128291130065918,0.06433676928281784,-0.44365987181663513,-0.12274591624736786,-0.4072325825691223,0.47476643323898315,-0.035411421209573746,0.13869896531105042,-0.3525524437427521,-1.3260982036590576,-0.07110954076051712,0.04019276052713394,-0.230890691280365,-0.2938608229160309,-0.4014449417591095,0.8087783455848694,-0.09485460817813873,-0.8589779138565063,0.3896010220050812,0.8042818903923035,0.28503602743148804,0.3547767698764801,-1.282558560371399,-0.07988814264535904,-0.5368549227714539,0.3648400604724884,1.1818723678588867,0.8586317300796509,1.1749672889709473,-0.524144172668457,0.9036490321159363,0.12873220443725586,-0.5514742136001587,0.01890367455780506,-0.27230942249298096,0.2360152304172516,0.249327152967453,-0.29012489318847656,0.12876544892787933,-0.28048816323280334,-0.2538650929927826,-0.050976477563381195,0.4257192313671112,0.5117665529251099,-0.19623735547065735,-0.24853119254112244,-0.20272253453731537,-0.22732199728488922,-0.26868051290512085,0.2804524302482605,-0.3193436861038208,-0.27501291036605835,0.015064160339534283,0.2776561677455902,0.1470930129289627,-0.468740850687027,0.11282868683338165,0.08830873668193817,0.249247744679451,-0.10782743245363235,0.2852959930896759,0.32646504044532776,0.48964834213256836,-0.1189495399594307,0.12328343838453293,-0.19683559238910675,-0.24516461789608002,-0.17471733689308167,-0.031113075092434883,-0.3385672867298126,-0.33594977855682373,-0.15839014947414398,-0.3245576322078705,0.21050961315631866,0.1599283218383789,0.1266704499721527,-0.3859789967536926,-0.1488656848669052,-0.25840070843696594,0.1944635510444641,0.25173720717430115,-0.24409939348697662,-0.3158382773399353,0.10678496211767197,-0.15041865408420563,-0.1494036763906479,0.37233099341392517,0.02725372649729252,-0.4263361394405365,0.40314483642578125,0.21484003961086273,-0.01166287437081337,0.15684910118579865,0.4555889070034027,-0.10514698177576065,-0.4993665814399719,0.08739014714956284,-0.3689679801464081,-0.06572651118040085,-0.564881443977356,0.509483277797699,0.06794307380914688,-0.32062894105911255,0.171366348862648,-1.1007000207901,-0.8982369303703308,-0.3319864571094513,2.1954329013824463,-0.6298701763153076,-0.10916181653738022,0.633876621723175,-0.9724001884460449,0.23782062530517578,0.5258424282073975,-0.5351853966712952,0.039373256266117096,0.09134448319673538,0.11490058898925781,0.10643301159143448,-0.37741538882255554,-0.4716387689113617,0.8624209761619568,-0.9825409650802612,-0.49970921874046326,-0.08947210758924484,-0.7174608111381531,-0.21981462836265564,-0.5098326802253723,-0.38298195600509644,0.481162428855896,0.12487217783927917,0.1826748102903366,-0.01612255349755287,-0.44146692752838135,-0.08721645176410675,-0.7660717368125916,-0.3789537847042084,-0.3366703987121582,0.049555178731679916,0.39225175976753235,1.1224324703216553,0.3046773374080658,0.3520837724208832,0.9173441529273987,-0.5584942102432251,0.18186825513839722,0.21287250518798828,-0.3537408411502838,1.1636765003204346,-0.34413307905197144,0.6439689993858337,0.16906751692295074,-0.31203407049179077,0.22909902036190033,0.834331214427948,-0.6335310339927673,-0.511144757270813,-1.4207044839859009,0.6412680745124817,-0.7987083196640015,1.2068275213241577,0.4153989255428314,-0.6572579741477966,1.1770679950714111,0.5634869933128357,-1.556175708770752,-0.3951561748981476,0.531440019607544,0.380872905254364,0.5857139825820923,-0.8198193311691284,0.4932287037372589,0.1295090913772583,-0.46711137890815735,0.7235022187232971,-0.6329486966133118,-0.6839572787284851,0.4871419072151184,0.381705105304718,-0.8490285277366638,0.4497602880001068,0.7909209728240967,-0.22613230347633362,-0.43726474046707153,0.5333663821220398,-1.0572668313980103,-0.3763362765312195,0.8340551257133484,-2.22912859916687,-0.6100383996963501,0.9493847489356995,-0.10236464440822601,0.28153911232948303,-0.07522217184305191,0.5406479835510254,-1.1679960489273071,-0.08079847693443298,1.238724946975708,1.9427963495254517,1.0272492170333862,-0.16225650906562805,1.9105712175369263,0.3780505061149597,0.2736303508281708,1.1694951057434082,0.13127736747264862,-0.3918139338493347,-1.0392216444015503,1.8739956617355347,0.4498208165168762,-2.057147741317749,-0.22230744361877441,-0.30147096514701843,-0.20689740777015686,-1.722184181213379,-1.5908583402633667,2.8133232593536377,-0.4545542895793915,0.7059860825538635,2.3010666370391846,-0.1646285206079483,0.2006087601184845,1.151369571685791,-0.000009355529982713051,-0.4306100904941559,1.3933849334716797,-0.15353697538375854,-0.4508650004863739,2.6353044509887695,1.3545347452163696,-0.6555540561676025,0.4388786256313324,0.8837255239486694,0.1011776253581047,-0.28724026679992676,1.0316498279571533,0.00038262116140685976,-0.4152120053768158,-0.7086271643638611,-0.5725868940353394,-0.18504902720451355,0.7143756747245789,-0.6286638379096985,-0.41260039806365967,0.31023967266082764,0.34576404094696045,-0.5381582975387573,0.1381697654724121,0.48626676201820374,0.7983213663101196,0.8588469624519348,-0.08258013427257538,0.07612393796443939,0.07437204569578171,-0.01569877378642559,1.0138555765151978,0.4056234061717987,0.42731472849845886,0.13179130852222443,0.3098818361759186,-0.14724484086036682,-0.26024287939071655,-0.2453724890947342,0.4138578474521637,0.17257820069789886,0.6550558805465698,-0.7973163723945618,0.7472283244132996,0.22697362303733826,0.018209079280495644,0.1885828822851181,0.21091237664222717,0.13415783643722534,0.573345959186554,-0.40691936016082764,-0.03845380246639252,0.8357527852058411,-0.307976633310318,-0.24901944398880005,0.6984859108924866,0.7434023022651672,-0.5426231622695923,-0.49942803382873535,0.3107509911060333,-0.00036926878965459764,-0.04401233792304993,0.6527639031410217,-0.2478262484073639,-0.11994288861751556,0.5850584506988525,-0.18504071235656738,-0.17714188992977142,0.19088603556156158,0.2688080072402954,-0.12706376612186432,0.21540449559688568,0.4371393620967865,-0.4015596807003021,-0.29351767897605896,0.15409959852695465,0.2631194591522217,0.2743818163871765,-0.0740581825375557,0.10868335515260696,0.11031713336706161,0.1114039495587349,0.03413156792521477,0.12048117816448212,-0.2554503083229065,-0.04781376197934151,-0.5115522742271423,0.07378828525543213,-0.2721151113510132,0.41347816586494446,0.18744735419750214,0.024584222584962845,0.05790296196937561,0.4674720764160156,-0.21885845065116882,-0.44117099046707153,0.1814241260290146,0.19616200029850006,-0.027599502354860306,-0.19765706360340118,0.16685764491558075,0.292236864566803,-0.3539927899837494,0.14250056445598602,0.024211347103118896,0.12449963390827179,0.34282445907592773,0.23819716274738312,-0.0651717260479927,0.2757384479045868,0.14044494926929474,-0.17578043043613434,0.2978809177875519,0.14872686564922333,-0.0861828476190567,-0.43600210547447205,-0.30650192499160767,-0.3414309620857239,-0.6508789658546448,0.18132078647613525,0.27017176151275635,0.6395171284675598,0.23987117409706116,0.21206757426261902,-0.8396259546279907,-0.5734539031982422,-0.02247820980846882,-0.48553410172462463,0.10220570862293243,-0.11457271128892899,0.008393347263336182,0.6219983100891113,-0.7943429946899414,-0.15270467102527618,0.4840622842311859,-1.0044276714324951,-0.11654744297266006,0.4284959137439728,0.11579149216413498,-0.2270936518907547,-1.1115792989730835,-0.26349443197250366,-0.5661384463310242,0.28510940074920654,-0.029378380626440048,-0.23876704275608063,-0.4144478142261505,-0.15849050879478455,0.0009252132731489837,0.22342124581336975,-0.6641507744789124,0.05750512704253197,0.22899529337882996,0.42827773094177246,0.15218354761600494,-0.3098483383655548,-0.09401747584342957,0.39770179986953735,0.06904987245798111,-0.3586074709892273,0.6537812948226929,0.5442297458648682,-0.3047667145729065,0.6525278687477112,0.11630698293447495,-0.6906858682632446,0.0158549714833498,0.3556872308254242,0.541540265083313,0.08485283702611923,-0.22383958101272583,0.09426778554916382,0.3508794605731964,0.03940489515662193,-0.33922138810157776,0.05071645602583885,-0.32347947359085083,-0.16849064826965332,-0.48883411288261414,0.252687931060791,0.19386743009090424,-0.46715623140335083,-0.23911772668361664,-0.18672314286231995,-0.19178524613380432,0.06746649742126465,-0.14144156873226166,0.29534009099006653,-0.5086490511894226,-0.3025206923484802,0.10865245759487152,0.32877570390701294,-0.10079438984394073,0.07822071760892868,0.2018454372882843,-0.2599734365940094,0.06970228254795074,-0.5961141586303711,-0.16764500737190247,-0.8568399548530579,-0.09655600041151047,-0.3164277672767639,-0.07879779487848282,0.33266714215278625,-0.2363724261522293,-0.09007839858531952,-0.14923745393753052,0.31440451741218567,-0.7497276663780212,-0.26811522245407104,-0.380764901638031,0.21261829137802124,0.11139914393424988,-0.04654133692383766,0.3849276900291443,-0.08480656892061234,0.18164454400539398,-0.6276863813400269,0.2226981222629547,-0.06715364754199982,0.49023574590682983,0.26293882727622986,-0.1799442619085312,-0.15389053523540497,0.03196819871664047,-0.4517419934272766,-0.30980783700942993,-0.41366124153137207,0.587485671043396,-0.17801284790039062,0.5478020310401917,0.11599010974168777,0.5267778038978577,-0.35378530621528625,-0.25423136353492737,0.5213351249694824,-0.1165035292506218,0.31610429286956787,0.4184648394584656,0.21405351161956787,-0.3429160416126251,-0.18266750872135162,0.05877889320254326,-0.31492239236831665,0.3506639897823334,-0.4086686372756958,-0.4954715073108673,0.20995637774467468,-0.020775286480784416,-0.4022391438484192,0.199643075466156,0.006792936474084854,0.2814173996448517,0.26825031638145447,0.2805017828941345,0.3653396964073181,0.29791679978370667,0.3389665484428406,0.3653263747692108,-0.01524375844746828,0.2786896526813507,0.17505142092704773,-0.1309814304113388,0.008925645612180233,-0.1172102689743042,0.42335987091064453,-0.05036565661430359,0.32035282254219055,0.3123069107532501,-5.428638458251953,-0.10459673404693604,-4.353166103363037,-2.412046194076538,5.200706481933594,-0.7050966024398804,-2.251873016357422,5.372073650360107,1.9573148488998413,1.2497084140777588,0.17268484830856323,-1.4100886583328247,-0.6011170148849487,-2.583069324493408,0.5458166599273682,3.4527499675750732,0.375949501991272,-0.6122909188270569,1.9331368207931519,-5.548301696777344,-1.3392071723937988,0.2583542466163635,2.2805986404418945,-3.8956046104431152,-0.09914351254701614,4.2116241455078125,-1.5690019130706787,1.2218124866485596,1.2990601062774658,0.013020445592701435,-4.0441155433654785,3.1732256412506104,-0.5840461850166321,-0.901868999004364,-5.6998772621154785,-2.712345838546753,2.988352060317993,-5.92561149597168,-0.9109119176864624,0.28028956055641174,-2.3631973266601562,3.219006061553955,2.6202504634857178,-0.9986143112182617,0.8980132937431335,-0.7161280512809753,-0.32481008768081665,0.23523670434951782,0.11826787889003754,-0.8534905910491943,0.03854595869779587,0.37186112999916077,-0.5602532029151917,-0.7004660964012146,1.580270767211914,0.2643393874168396,0.27256423234939575,0.15487992763519287,-0.23188437521457672,-0.7875351309776306,-0.27015557885169983,1.1690738201141357,0.23316696286201477,0.8186824321746826,0.14557716250419617,1.4087905883789062,0.4181724488735199,-1.612086534500122,0.3327454924583435,0.507371723651886,-0.02648916468024254,-0.07609431445598602,-0.0013992978492751718,0.12735100090503693,0.2314693182706833,0.9887116551399231,0.27144870162010193,0.0029095124918967485,0.0907946228981018,0.6024980545043945,-1.5785504579544067,0.21840426325798035,0.5263434052467346,0.39155781269073486,1.0500277280807495,-0.16971133649349213,1.5255248546600342,0.2535918653011322,-0.44580286741256714,0.8663277626037598,-0.09326877444982529,-0.07605794817209244,0.2529418468475342,0.77149897813797,-0.051765769720077515,0.33509349822998047,0.14681905508041382,0.050374194979667664,0.14160971343517303,0.5151374936103821,0.2793123424053192,-0.614025354385376,-0.201212078332901,-0.13855771720409393,-0.3062708079814911,-0.11658115684986115,0.10134927183389664,0.5594524145126343,0.23726750910282135,0.7951512336730957,0.041834861040115356,-0.25944826006889343,0.018336348235607147,-0.416746586561203,0.05672220140695572,0.026162514463067055,0.02741381712257862,0.24637529253959656,-0.3699137568473816,0.1617572158575058,0.3679063618183136,-0.28330114483833313,-0.5571638345718384,0.16582299768924713,0.22287411987781525,-0.8840896487236023,-0.1590104103088379,0.26157331466674805,-0.903385579586029,0.833619236946106,0.052991438657045364,-0.18892256915569305,-0.1827726811170578,0.34819814562797546,-0.09689906239509583,0.14522239565849304,-0.49468323588371277,0.13803932070732117,0.615059494972229,0.06542502343654633,0.13504934310913086,-0.32283657789230347,-0.8443445563316345,-0.6612541675567627,-0.05213700607419014,-0.6271270513534546,0.38272178173065186,0.7346212267875671,-0.09984259307384491,0.2555549442768097,0.012307396158576012,-0.7688358426094055,-0.21356947720050812,0.5219126343727112,0.47164368629455566,1.378800868988037,2.4855294227600098,-1.6815334558486938,-0.14665155112743378,1.279646635055542,0.2465216964483261,-1.8204137086868286,-0.38174617290496826,0.2378588318824768,0.5872606635093689,1.7295677661895752,2.0044944286346436,1.7269309759140015,0.13039176166057587,-1.2811890840530396,0.44210284948349,-0.19531157612800598,-0.8336787223815918,0.12090267986059189,-1.3147999048233032,0.11967142671346664,-0.4187365472316742,-0.8732190728187561,-1.7806190252304077,-0.025539442896842957,1.3012686967849731,-2.208574056625366,0.6538093686103821,1.6915704011917114,-1.2325516939163208,1.96385657787323,1.6829376220703125,1.1071703433990479,1.8300278186798096,2.197157621383667,0.9844662547111511,1.0827966928482056,-0.19525879621505737,-0.21528472006320953,0.6442117094993591,1.7529165744781494,-2.4735336303710938,-0.17411404848098755,1.6951773166656494,-2.548163414001465,-0.9894062876701355,2.5861032009124756,-1.4988517761230469,-1.7495229244232178,0.21775785088539124,2.5544657707214355,0.1718924343585968,2.3718864917755127,0.3622339963912964,0.03825622797012329,0.8173657655715942,2.5842032432556152,-0.3046104311943054,-3.4344983100891113,-2.6069724559783936,1.6566671133041382,2.4718995094299316,1.2433016300201416,1.9861476421356201,5.620180130004883,-0.6463918685913086,-1.573535442352295,1.8255852460861206,-5.363304138183594,-4.206482410430908,-0.9493961334228516,3.714482545852661,-5.272640228271484,0.3065408766269684,-0.9510366916656494,-0.9109678864479065,6.132915019989014,-2.6686971187591553,1.3394020795822144,-1.858128547668457,0.8575811982154846,2.537567377090454,3.0393238067626953,-2.4137306213378906,1.7091485261917114,2.2328481674194336,-0.46168845891952515,-2.963062047958374,-0.2722180485725403,-0.7220113277435303,5.471583843231201,1.412699818611145,-6.132194995880127,1.4700441360473633,3.6363463401794434,-3.2649331092834473,-1.9236176013946533,2.022197961807251,-2.6023495197296143,0.4064323902130127,4.279328346252441,3.7370874881744385,11.095426559448242,-3.4992804527282715,0.8792553544044495,-2.9479053020477295,-3.505676507949829,-8.661786079406738,0.08453893661499023,-1.1801542043685913,-4.877513408660889,-0.13400781154632568,-2.377504348754883,-0.2359764575958252,0.2903194725513458,-0.8883790373802185,4.491474151611328,-0.44947659969329834,4.624781608581543,-5.498867511749268,1.1953647136688232,0.45308688282966614,4.912446022033691,1.5657682418823242,2.236151933670044,-9.64769172668457,-0.26040926575660706,5.030865669250488,-0.5211793780326843,1.4055019617080688,-1.3136337995529175,-9.32997989654541,1.262558102607727,-7.548655033111572,0.32508206367492676,5.035671234130859,-6.952800273895264,0.8977228999137878,-4.731454372406006,7.204057693481445,-3.1223790645599365,-4.313547134399414,-0.8261418342590332,1.712025761604309,-4.828772068023682,0.2395874261856079,5.242411136627197,-8.85072135925293,3.6118476390838623,2.308520555496216,-2.7974674701690674,1.4103453159332275,-0.6254290342330933,0.9422847032546997,-0.08381377160549164,0.34279632568359375,3.4823217391967773,-0.3723190128803253,0.2997884452342987,0.13569994270801544,1.403788685798645,1.255736231803894,-1.3963985443115234,1.5342490673065186,-0.9805675745010376,0.04632408171892166,-1.3623082637786865,1.3077244758605957,1.8579021692276,1.8112599849700928,1.3392918109893799,1.3922090530395508,-2.0130796432495117,-1.7894779443740845,0.245237797498703,3.5169053077697754,-1.1508638858795166,0.7911519408226013,-0.4667130708694458,0.6621530652046204,-3.000730514526367,-0.40393516421318054,-0.7817270755767822,-0.583238959312439,1.9780750274658203,-1.5340594053268433,-0.07145517319440842,4.01664400100708,1.2688109874725342,2.3973326683044434,-1.7378730773925781,1.5213936567306519,-2.2272181510925293,-1.3550037145614624,-0.03499755635857582,1.0593819618225098,2.388914108276367,-0.7210094928741455,1.470378041267395,-0.040996432304382324,-1.3778965473175049,-1.6595851182937622,2.4227023124694824,2.9445979595184326,-4.257878303527832,-2.5664188861846924,2.360405683517456,2.4280340671539307,-0.2222374975681305,-0.9423323273658752,8.001086235046387,-0.942787230014801,0.7988208532333374,-0.3447742760181427,-1.7330090999603271,-0.7523157596588135,-2.9957003593444824,-1.872418999671936,2.0144593715667725,-1.6145521402359009,0.36890465021133423,0.7408754825592041,0.824343740940094,-4.014986038208008,0.3028268814086914,4.300846099853516,1.95540452003479,-2.4309771060943604,-2.929943799972534,1.1400136947631836,3.782266616821289,-2.104736089706421,-1.6008992195129395,3.0955798625946045,-4.744060039520264,-5.43635368347168,0.13356687128543854,-6.490832805633545,-2.70042085647583,1.2055894136428833,-2.414379119873047,-0.9091809391975403,-1.1216652393341064,-10.126874923706055,-2.2117037773132324,2.6699132919311523,3.5217478275299072,3.347672939300537,-1.4406170845031738,-1.0260746479034424,-2.6350440979003906,1.2318370342254639,0.678078293800354,0.1398543119430542,0.5944674611091614,0.08566886186599731,-0.8300537467002869,-0.2514219880104065,-0.5817086100578308,-0.4892819821834564,-1.1895159482955933,0.7016618251800537,0.5294217467308044,-0.4266080856323242,-0.5884252786636353,-0.5902076959609985,0.7660477161407471,-0.6650552749633789,-0.21872246265411377,0.6539060473442078,-0.7884819507598877,0.005758922081440687,0.7188155651092529,1.3397952318191528,0.5224822759628296,-0.1738550066947937,0.5899813175201416,0.6166024804115295,-0.885796308517456,0.40018025040626526,0.400983065366745,0.5558673739433289,-0.057640187442302704,0.6094355583190918,-1.543810486793518,-0.6682550311088562,-0.7301715016365051,0.36624982953071594,-0.6099775433540344,-0.9291166067123413,1.018642544746399,-0.6490520238876343,0.1341823786497116,0.16972610354423523,-0.9762966632843018,-0.812335193157196,0.3887661397457123,-0.7476930022239685,-0.2503151595592499,0.7015107870101929,-0.8515380024909973,-0.6847818493843079,0.14195193350315094,-0.002201029798015952,-1.4028570652008057,1.8932327032089233,-0.14211618900299072,0.34918710589408875,1.04391348361969,2.030372381210327,-0.8765072822570801,0.4748416841030121,-1.510629653930664,-3.500673770904541,-0.06333303451538086,-1.1969057321548462,0.8014522194862366,1.0735814571380615,-1.5277504920959473,1.336625576019287,-1.7162036895751953,-1.0773621797561646,2.4893338680267334,-5.196898460388184,-0.23700249195098877,-1.9550021886825562,3.512972354888916,-4.180154800415039,-1.5236949920654297,0.541089653968811,-2.2771756649017334,3.6015655994415283,-3.336595296859741,-0.5468517541885376,-3.5199809074401855,-1.10503089427948,1.4275174140930176,0.8105394244194031,-1.535056233406067,2.4718756675720215,3.765801191329956,0.4774990975856781,0.5490859150886536,0.3375919759273529,-1.8132481575012207,3.007408380508423,-0.6412534713745117,-2.706333637237549,2.057799816131592,-0.7670122981071472,-0.6860958337783813,0.9070700407028198,2.399022340774536,-1.4979188442230225,-1.4245424270629883,7.572277069091797,4.309852123260498,2.6548984050750732,-6.581768989562988,-9.333050727844238,-12.182178497314453,-7.825704097747803,1.554600715637207,6.21586275100708,6.683421611785889,-0.7414759397506714,1.0402379035949707,-0.9505593180656433,-0.045665327459573746,-1.739637851715088,-0.419725239276886,9.839125633239746,-6.993171215057373,-9.140925407409668,2.888859748840332,5.266387462615967,1.7694776058197021,-5.842896938323975,-3.1733381748199463,-0.7894909381866455,-11.868464469909668,-2.8129992485046387,-3.6398892402648926,-1.6289042234420776,1.7361176013946533,3.708692789077759,-9.422537803649902,-1.2788690328598022,-11.373388290405273,8.96209716796875,-7.902037143707275,-1.8512924909591675,-1.1240183115005493,-0.2606907784938812,0.11923044919967651,-1.7142736911773682,-6.782496929168701,-3.236581325531006,2.2906415462493896,-11.25156021118164,-0.9563013315200806,7.562228679656982,-4.533143520355225,-4.022377014160156,0.6784693002700806,0.8149062395095825,-1.2971552610397339,0.46152597665786743,0.8326009511947632,-0.013946312479674816,0.18495729565620422,-0.1917952448129654,0.9220864176750183,-1.1821088790893555,-0.3936491310596466,-0.24950487911701202,0.4033518433570862,0.2844291627407074,0.28817638754844666,0.47711652517318726,-0.52196204662323,-0.3342779278755188,-0.7511650323867798,-0.33493196964263916,-2.0165822505950928,1.6635780334472656,-0.3704274296760559,0.0794810876250267,-0.2665672302246094,-0.15024510025978088,-1.8564159870147705,-0.8980470895767212,0.5586879253387451,-0.8640987277030945,-1.0775344371795654,3.598879814147949,-0.19765092432498932,-1.132636308670044,-0.143825501203537,0.46618276834487915,0.511793315410614,0.350004106760025,-0.21888594329357147,0.2419876605272293,-0.39486536383628845,1.3677864074707031,1.6408697366714478,-0.057134393602609634,0.030217984691262245,-0.19023063778877258,0.21061158180236816,-1.0613733530044556,-0.263340026140213,0.1949700564146042,0.05273411050438881,1.581947922706604,0.87861567735672,0.6055924296379089,0.5967271327972412,0.53167724609375,-0.14268331229686737,-0.09006836265325546,-0.13323427736759186,-0.7230137586593628,-0.8146457076072693,0.2826026380062103,0.853952169418335,-0.5141465067863464,-0.5057545304298401,-0.23086796700954437,0.052251409739255905,-0.5049471855163574,-0.7585610747337341,0.39501169323921204,-0.8040127158164978,-0.5172376036643982,0.542611300945282,1.4698569774627686,0.14347892999649048,-0.8075281977653503,1.049389362335205,-0.08535350859165192,-0.5256472826004028,0.9987114667892456,-0.9667736887931824,-0.03553508594632149,0.18449345231056213,0.23710916936397552,-0.3806079626083374,-0.534824788570404,-0.4877602458000183,0.3316805958747864,-0.3188784718513489,-0.5017461776733398,0.06238739192485809,-0.20650362968444824,0.8733832836151123,0.9730322957038879,-0.51941978931427,-0.60567307472229,0.8645514845848083,-0.18021591007709503,-0.9866970181465149,0.6595324873924255,-0.08290942013263702,-0.38404369354248047,0.8120094537734985,-3.9602479934692383,-4.107499122619629,-3.1694345474243164,-6.554177761077881,-0.15013718605041504,1.983903169631958,2.7196362018585205,-4.421712875366211,2.3137221336364746,2.0337867736816406,-0.25442075729370117,7.661892890930176,2.0812549591064453,0.04647600278258324,-6.842174053192139,0.4008525311946869,-3.196300983428955,-1.0103650093078613,3.8824996948242188,0.15698347985744476,2.0541350841522217,0.19726398587226868,3.5175483226776123,1.2968180179595947,4.171431064605713,0.34428393840789795,8.385993957519531,-0.35945090651512146,-1.9411289691925049,6.287293434143066,-3.3576769828796387,-8.328150749206543,2.781703233718872,-2.7771830558776855,-5.49427604675293,-6.7369232177734375,-5.317752361297607,-8.351490020751953,-10.885088920593262,1.0302115678787231,-2.2276270389556885,-2.0322840213775635,-3.6855244636535645,2.7512412071228027,0.8604422807693481,4.016343116760254,5.964534282684326,-3.156728744506836,8.75411319732666,0.8442172408103943,4.135684490203857,0.44820359349250793,-0.43017956614494324,-0.37494957447052,-0.03297099471092224,1.5223573446273804,-0.31606996059417725,0.12894798815250397,0.04357478395104408,-0.35646945238113403,-0.6648383736610413,-0.5913591384887695,0.23706205189228058,0.4236833155155182,0.07061980664730072,0.5548363924026489,1.4958317279815674,0.30479973554611206,-0.5860685110092163,0.8187174201011658,-0.4924907684326172,-0.11183635890483856,-0.045236341655254364,0.5588552355766296,0.24960389733314514,0.16056278347969055,0.4846903383731842,-0.04812382161617279,0.2627946138381958,-0.8817064762115479,-1.5041422843933105,1.3556243181228638,-0.8274242281913757,-0.10313741117715836,0.06371907144784927,-0.0035249311476945877,0.12597185373306274,1.1454627513885498,0.09359947592020035,0.38572466373443604,-0.12130383402109146,0.47879406809806824,0.4768420159816742,0.8995407223701477,0.34762540459632874,0.25373876094818115,0.18921495974063873,-0.9226686358451843,-0.3138997256755829,-0.04346184805035591,1.1331907510757446,0.25688329339027405,-0.6164301633834839,2.759732246398926,3.748879909515381,1.9905065298080444,-2.1118876934051514,3.1942949295043945,-3.893901824951172,0.13884864747524261,6.309769153594971,0.1253383457660675,-2.2722699642181396,-9.445793151855469,6.480477809906006,-15.105659484863281,-7.979809284210205,-6.5125837326049805,14.703848838806152,5.128974437713623,2.1045615673065186,2.8625431060791016,-13.891693115234375,-6.90214729309082,-9.176862716674805,18.198923110961914,-8.977205276489258,10.003397941589355,-1.4145002365112305,-14.340475082397461,12.553525924682617,12.976490020751953,-3.8914544582366943,-12.191315650939941,-0.9793479442596436,7.6627397537231445,-8.998546600341797,-8.560521125793457,-0.6527877449989319,3.30330228805542,-8.159882545471191,-1.3466546535491943,8.149707794189453,-15.716257095336914,9.341449737548828,-0.7097408175468445,0.2991357743740082,-1.7628827095031738,1.2890136241912842,-6.067412853240967,6.69773006439209,4.770462989807129,-7.286434650421143,0.6575050354003906,0.19785945117473602,-0.8176593780517578,0.25303176045417786,0.581554651260376,-0.6769737601280212,-0.2136201411485672,-0.6239984631538391,-0.45437997579574585,-0.8326930403709412,0.40235474705696106,0.437107652425766,0.9251319169998169,0.6310100555419922,0.5268282890319824,0.7422943711280823,-0.4290376901626587,0.3538930416107178,0.569993257522583,-0.6149515509605408,0.6044183969497681,0.35964304208755493,0.7812981605529785,-0.4880293905735016,0.482895165681839,0.16159264743328094,-0.22809554636478424,0.5508599281311035,-0.4997885227203369,-0.9864135980606079,0.7643156051635742,0.38784435391426086,-0.2561904191970825,0.8843027353286743,-0.46382027864456177,0.46573930978775024,0.9469195008277893,-0.47996965050697327,0.4177837371826172,0.7344778776168823,0.5690783858299255,0.47043296694755554,0.8658483624458313,0.8806236386299133,0.5028291344642639,0.011802918277680874,-0.661614716053009,0.5232806205749512,-0.3930777907371521,0.7962430119514465,0.606266438961029,1.4131163358688354,10.469965934753418,0.5086246132850647,3.6450042724609375,1.1528297662734985,2.5568604469299316,0.7834775447845459,-0.215244323015213,-1.8458447456359863,-2.150996208190918,-2.768310308456421,-1.901589274406433,-1.8288295269012451,-0.858837366104126,-1.9786630868911743,-1.7493326663970947,-1.7240161895751953,-0.6271742582321167,-0.12176879495382309,-8.893027305603027,0.24403858184814453,0.6403104662895203,-2.867717742919922,1.3437063694000244,-0.6014440059661865,2.451093912124634,-5.349205493927002,1.1686277389526367,0.5377251505851746,0.040909260511398315,0.13761550188064575,-3.031351327896118,-0.38985592126846313,0.23711709678173065,-3.56602144241333,0.06489866971969604,0.9042738676071167,-0.3658415377140045,-1.2902209758758545,-2.6027350425720215,6.541336536407471,-0.014601083472371101,2.1845102310180664,0.17129388451576233,2.0631563663482666,3.1512436866760254,-5.003483295440674,-1.264145851135254,-1.0323601961135864,0.7645684480667114,1.1667933464050293,1.8759709596633911,-0.3041038513183594,8.535130500793457,-0.7029656171798706,-6.3050031661987305,-3.8710415363311768,1.8419244289398193,-4.212890625,0.6776949167251587,5.758853435516357,6.939307689666748,-6.620481967926025,-10.863226890563965,-4.006794452667236,0.4891515374183655,-6.89209508895874,-1.3943359851837158,0.36899206042289734,-2.600155830383301,2.9232075214385986,-0.29550230503082275,1.8755525350570679,4.1678080558776855,0.049028780311346054,0.39871394634246826,-1.8531161546707153,-0.9845877289772034,-2.2651853561401367,2.6609508991241455,0.9540355205535889,4.29818868637085,2.983088731765747,1.330621361732483,-7.028043746948242,2.4298713207244873,1.4711692333221436,-5.140231609344482,-4.487493991851807,-1.6827054023742676,-2.4611172676086426,1.7409740686416626,-0.515314519405365,-5.965235233306885,-7.645890235900879,-1.4822546243667603,0.6795663833618164,-2.4148130416870117,2.755931854248047,-7.871875762939453,-2.803128480911255,-1.9418500661849976,-3.600184917449951,-1.8481162786483765,10.215649604797363,-3.1811203956604004,-7.787429332733154,-2.6900382041931152,0.84345942735672,6.050268173217773,7.0914812088012695,2.2397353649139404,0.19116799533367157,-8.080511093139648,0.36849942803382874,-1.5962300300598145,-6.855372905731201,-6.069610118865967,5.512882709503174,-4.696691989898682,-7.136378288269043,5.474716663360596,4.712563991546631,-2.2843451499938965,2.6579854488372803,3.6888647079467773,-0.338220477104187,-7.100338459014893,7.102010250091553,-1.6223466396331787,10.561222076416016,-8.307821273803711,-0.2306070178747177,5.5905842781066895,3.3343727588653564,-0.30057913064956665,7.452445983886719,-3.754899263381958,-3.7415215969085693,-6.132432460784912,-0.4888744056224823,-7.165085792541504,-1.856275200843811,-5.910745143890381,-7.586258411407471,-7.6261138916015625,-9.652862548828125,1.822605013847351,1.9781544208526611,-5.308135986328125,-1.2918280363082886,-3.4693384170532227,-4.575326442718506,-4.853571891784668,5.2044501304626465,0.5099701285362244,-1.6285862922668457,1.5210869312286377,13.106593132019043,17.247365951538086,-7.517139434814453,2.8261847496032715,-2.8739497661590576,-1.7880911827087402,-0.5592876672744751,-6.725052356719971,-7.332517147064209,-2.8430213928222656,-2.462282419204712,0.8513987064361572,-0.33775678277015686,-2.24067759513855,-2.1280431747436523,-9.737363815307617,-3.138812303543091,-13.476577758789062,-3.349008321762085,1.6200547218322754,15.174027442932129,3.2487854957580566,-2.7920889854431152,3.977782726287842,9.60593032836914,-17.320890426635742,-8.458786964416504,3.712198495864868,0.6787130832672119,5.14308500289917,-6.569779396057129,-0.09599309414625168,14.869965553283691,-13.163884162902832,0.9893662333488464,1.1650234460830688,12.57851505279541,-1.7840043306350708,4.139956951141357,-3.554147243499756,18.472734451293945,8.85031509399414,1.7315316200256348,7.648386478424072,-0.3681297302246094,-7.041300296783447,-4.381399154663086,3.941662311553955,-14.705059051513672,-9.484465599060059,9.631780624389648,-7.684373378753662,9.603991508483887,4.153231143951416,3.6492693424224854,-13.367815971374512,-3.940333843231201,13.8776273727417,7.093689918518066,7.441147804260254,-0.07126754522323608,-1.992730736732483,2.168588638305664,1.841314435005188,14.528646469116211,-2.87117862701416,-7.570043087005615,5.321549415588379,9.994232177734375,-3.450017213821411,0.7950133085250854,11.805333137512207,-12.979883193969727,4.208611965179443,-5.130688667297363,-7.247112274169922,10.184267044067383,-7.909855365753174,4.464922904968262,-3.522815465927124,-0.2534778118133545,9.359848976135254,-3.1488864421844482,10.25967025756836,-3.6896889209747314,14.917863845825195,1.9534817934036255,5.522520542144775,2.824342727661133,5.470048427581787,12.23021125793457,15.170870780944824,-2.298274040222168,2.8114733695983887,1.9409221410751343,2.2850000858306885,2.6403982639312744,5.932700157165527,-3.8450043201446533,-2.640293598175049,-10.22263240814209,-6.59572172164917,1.0883078575134277,2.700127601623535,1.9863648414611816,9.245786666870117,-1.2179994583129883,-1.9504196643829346,6.374731063842773,-6.946627616882324,-5.174317359924316,2.613224983215332,-2.173336982727051,16.04068946838379,-2.15384840965271,1.4669381380081177,-0.6847665309906006,-8.103468894958496,-5.6393537521362305,-8.033778190612793,3.237459182739258,-1.7080479860305786,12.182671546936035,-1.6031584739685059,-6.919079303741455,-2.4664642810821533,10.04989242553711,-6.976123332977295,-7.0857720375061035,7.950722694396973,10.487635612487793,-4.43605899810791,-10.212041854858398,0.03710585832595825,5.994828224182129,-14.273320198059082,0.14358185231685638,1.3460276126861572,-5.522789478302002,7.568855285644531,-4.093284606933594,-0.7551257610321045,5.405195236206055,-3.895289421081543,3.2597336769104004,10.83736801147461,3.052095651626587,-9.477839469909668,-1.0945210456848145,-2.5479354858398438,1.9622074365615845,0.03383191302418709,0.3875911831855774,-0.828892707824707,1.5222870111465454,4.440011024475098,-8.902735710144043,-1.9737975597381592,1.0947188138961792,-1.5870163440704346,-1.9765204191207886,1.4149580001831055,2.9379539489746094,-3.877246618270874,-6.60802698135376,-5.152379989624023,-2.526015520095825,1.9682444334030151,1.7857987880706787,4.417912483215332,2.9345924854278564,-6.69821310043335,3.5955560207366943,-5.633061408996582,-0.7638412117958069,4.691214561462402,-8.005128860473633,-5.787890911102295,4.434472560882568,3.1093881130218506,-4.423395156860352,-1.8473682403564453,4.367115497589111,2.7165122032165527,-2.6329684257507324,1.8129093647003174,6.575990200042725,0.04998224601149559,-2.799506187438965,10.661930084228516,1.8621666431427002,-2.060455083847046,2.34875750541687,-1.718239426612854,-1.3360176086425781,-3.4469878673553467,-0.8230422735214233,-1.318236231803894,4.6659417152404785,4.006338119506836,-4.1257195472717285,4.2572126388549805,-10.611993789672852,-1.6961798667907715,-10.655621528625488,-4.3184380531311035,-11.170941352844238,5.538041591644287,6.47306489944458,2.6332647800445557,0.044025320559740067,3.6649701595306396,-3.932988166809082,2.7441203594207764,2.308988094329834,5.45933198928833,3.2879159450531006,0.11895749717950821,-12.996042251586914,-11.151272773742676,-12.414841651916504,-5.806707382202148,10.104930877685547,-0.2943781018257141,10.98889446258545,7.142440319061279,-9.335803985595703,2.513822078704834,10.7312593460083,1.5150004625320435,-2.5284245014190674,0.6716216802597046,-0.1139938086271286,-8.862445831298828,5.182747840881348,-4.1837992668151855,-3.766888380050659,-10.635271072387695,-1.6742922067642212,4.684934616088867,-3.8245394229888916,-0.6610640287399292,3.7533750534057617,0.29865899682044983,-0.3413161039352417,-7.087123394012451,4.429122447967529,0.8747773170471191,-4.992517948150635,0.3358966112136841,-30.007139205932617,2.4112377166748047,-2.432774066925049,15.803536415100098,1.5712110996246338,-13.877795219421387,-8.497319221496582,-14.607237815856934,-8.278958320617676,-13.454279899597168,18.54707908630371,9.46919059753418,24.3447208404541,18.8062686920166,-24.766822814941406,21.0610294342041,-5.120521545410156,24.926475524902344,10.10506534576416,4.746256351470947,33.51955032348633,7.612961292266846,-3.3221042156219482,3.08413028717041,-27.97780990600586,2.587657928466797,-1.429862141609192,11.947611808776855,-3.3342771530151367,-10.440043449401855,15.11494255065918,-8.53219985961914,-15.515264511108398,4.989076137542725,-10.469414710998535,13.988677024841309,5.404481410980225,2.256791114807129,6.9427266120910645,8.144954681396484,-5.363717079162598,17.4586238861084,5.936249256134033,-8.843036651611328,8.682238578796387,-14.008926391601562,10.939496040344238,12.29643726348877,12.927412033081055,6.095277309417725,5.21986722946167,1.5138722658157349,8.20771312713623,2.7536463737487793,11.312419891357422,1.3556321859359741,4.7992939949035645,-0.13846509158611298,-2.2528488636016846,-9.67655086517334,7.15375280380249,-7.020515441894531,-2.7814693450927734,-2.8986916542053223,-4.02996301651001,11.211071014404297,-4.017804145812988,-13.267192840576172,-4.701172828674316,1.9306069612503052,-12.10772705078125,-19.009607315063477,27.340160369873047,-2.237679958343506,-0.7055816054344177,-12.972614288330078,-1.2435225248336792,-4.219841003417969,7.82363748550415,-17.047582626342773,-3.5907366275787354,2.781489133834839,-16.116077423095703,-26.77399253845215,-3.5489304065704346,4.236388206481934,0.10705062001943588,2.5350677967071533,1.0363247394561768,13.131721496582031,-1.5158939361572266,-0.8058480024337769,17.08042335510254,2.950575351715088,1.8077691793441772,-1.147475242614746,6.565136909484863,-7.5912041664123535,3.258655309677124,0.24835659563541412,-1.7726657390594482,3.325528621673584,7.299579620361328,-10.58194637298584,8.879706382751465,1.7723424434661865,-12.933425903320312,-3.7460031509399414,2.7416107654571533,-1.6981401443481445,-0.5992732048034668,16.814197540283203,4.914218902587891,-14.423808097839355,-2.0284669399261475,-15.115710258483887,2.340756416320801,-7.072139263153076,-4.26915979385376,9.537959098815918,-15.418394088745117,-9.06716537475586,5.613123893737793,4.304337978363037,7.2431817054748535,-7.533141613006592,5.250203609466553,-4.482311248779297,6.885139465332031,6.182658672332764,-4.58126974105835,4.302913665771484,2.1702351570129395,17.53913116455078,-9.61550521850586,-1.8426798582077026,5.047109127044678,4.928915023803711,-14.23975944519043,-11.690077781677246,-1.0896515846252441,-25.174745559692383,-3.8416547775268555,3.6495728492736816,-0.8387711644172668,-4.312196731567383,7.3127312660217285,4.25582218170166,-10.678301811218262,-8.641642570495605,-2.4326171875,-13.580948829650879,-2.8473024368286133,-10.446720123291016,-0.6512963771820068,21.315149307250977,5.502077102661133,-3.094956398010254,2.9803242683410645,14.143972396850586,1.0289944410324097,-14.124523162841797,3.547166585922241,1.1054531335830688,-10.374527931213379,-24.33160400390625,16.405986785888672,-4.979532241821289,-13.791218757629395,-12.729035377502441,-6.988064289093018,-2.6946616172790527,8.137049674987793,2.2151944637298584,1.8721647262573242,-6.519550800323486,-11.996268272399902,11.112261772155762,-10.6832275390625,5.14658784866333,8.68196964263916,-9.484379768371582,9.730714797973633,-10.447220802307129,-4.325279712677002,3.2477128505706787,-26.160926818847656,22.626243591308594,-11.385832786560059,-8.759767532348633,2.8973844051361084,-15.419166564941406,-0.9424313306808472,18.493492126464844,13.177127838134766,-23.109201431274414,-2.9909603595733643,-9.062189102172852,15.601649284362793,16.350522994995117,-16.77767562866211,-3.363126754760742,-8.669425964355469,7.154654502868652,11.408580780029297,-2.297891616821289,8.364916801452637,11.89572811126709,-5.485610008239746,-0.28915733098983765,1.6361334323883057,-3.311021327972412,-1.761176586151123,2.306844472885132,4.238955497741699,-14.707225799560547,-10.50350570678711,-12.677923202514648,5.784628868103027,-7.036734580993652,-3.4459476470947266,1.5941468477249146,-10.57883358001709,-6.376291751861572,-16.93878746032715,2.678805112838745,1.9369703531265259,6.194386959075928,8.932676315307617,-9.9037446975708,-5.740208625793457,-9.860685348510742,-0.39487266540527344,-8.746862411499023,3.625190258026123,-1.1148813962936401,-9.433639526367188,-7.419800281524658,0.015240252949297428,-4.032377243041992,-0.05145233869552612,1.9303169250488281,7.4661407470703125,-10.920073509216309,7.2403340339660645,0.7137303352355957,-10.263955116271973,-6.369693279266357,-2.40437650680542,-0.8796852827072144,-7.7823615074157715,3.448507785797119,-9.328039169311523,-1.2624362707138062,6.398101806640625,-11.979371070861816,-12.578104972839355,-14.158713340759277,-18.276792526245117,4.716740131378174,4.495691776275635,0.6871177554130554,18.08919906616211,16.035396575927734,-3.0844056606292725,-5.857784271240234,9.173954963684082,-2.107074499130249,8.10715389251709,-10.333678245544434,0.5957799553871155,16.686851501464844,-17.223918914794922,-0.9421806335449219,1.3934458494186401,-1.132028579711914,-11.182415962219238,-8.103370666503906,-6.42429780960083,-16.14029312133789,-5.314993381500244,11.218433380126953,-13.487586975097656,10.753918647766113,1.5340509414672852,0.6969407200813293,-2.3150713443756104,3.3698105812072754,2.0719850063323975,7.810474395751953,-7.961630344390869,4.160182952880859,-7.954257011413574,-7.166918754577637,6.314062118530273,-2.5909810066223145,-12.885472297668457,1.5449519157409668,-2.4960825443267822,-0.023888379335403442,2.9299235343933105,4.232389450073242,-5.794441223144531,5.499722957611084,-5.013553619384766,-14.910195350646973,-4.242788791656494,-1.206190824508667,-0.9140959978103638,-5.309020042419434,-1.0889171361923218,4.019862651824951,-0.08198380470275879,-11.364737510681152,0.31144094467163086,15.235058784484863,-0.11297115683555603,-1.882199764251709,2.346979856491089,-2.962646007537842,0.8029124736785889,8.791755676269531,0.16123612225055695,10.782702445983887,7.58868932723999,-6.246908187866211,3.1822097301483154,3.304692029953003,-2.6264777183532715,2.1198534965515137,1.7216907739639282,1.6147994995117188,-5.280749320983887,-0.0985071063041687,-9.377424240112305,9.779521942138672,-3.637769937515259,3.3364689350128174,3.0704569816589355,-1.5229688882827759,-20.031261444091797,7.6178507804870605,-6.092259407043457,5.295472621917725,14.019373893737793,7.760651111602783,2.300799608230591,2.8714942932128906,-6.805192947387695,4.529921531677246,13.647174835205078,0.4568050503730774,-4.939596176147461,-2.2065231800079346,3.9151365756988525,-0.24199745059013367,0.8661804795265198,15.463048934936523,-0.015154690481722355,4.1416473388671875,10.906917572021484,-10.421689987182617,9.417251586914062,2.48065185546875,-4.958970546722412,-4.711524963378906,-2.9273269176483154,22.34403419494629,-20.627300262451172,-3.1311357021331787,2.789268970489502,6.230779647827148,-22.072837829589844,-13.627625465393066,-1.4215342998504639,-5.799914836883545,-9.662455558776855,-7.336217403411865,10.887038230895996,-3.381408929824829,-18.646774291992188,2.1828525066375732,-5.366940975189209,-2.6653478145599365,11.999547958374023,-1.8084840774536133,-5.198022842407227,4.9564924240112305,-1.2255351543426514,-0.4750596284866333,-11.036077499389648,8.998083114624023,5.098854064941406,-2.6315479278564453,-17.057937622070312,-0.43349963426589966,0.9024709463119507,12.889881134033203,14.913759231567383,-0.1596347838640213,-3.2636170387268066,-0.2541603744029999,1.3655704259872437,-15.273633003234863,21.98873519897461,-4.350274085998535,0.6428847312927246,6.062755107879639,-13.554375648498535,23.912403106689453,-10.249869346618652,2.969097375869751,17.077661514282227,-8.198173522949219,-3.712810754776001,-3.449814796447754,4.689488410949707,-2.5263171195983887,4.470326900482178,16.48563575744629,-0.11780577152967453,14.159852027893066,3.0108983516693115,-5.017483711242676,-7.052925109863281,1.4332548379898071,8.542638778686523,-10.852633476257324,16.625802993774414,14.469547271728516,7.038607120513916,-6.124989032745361,6.578761577606201,4.861263751983643,-10.576083183288574,12.972869873046875,-15.36744213104248,-13.36415958404541,7.821895122528076,3.3594915866851807,3.020998001098633,1.294096827507019,-16.13677215576172,2.1154935359954834,6.877621650695801,-11.942777633666992,8.072993278503418,8.87832260131836,4.135698318481445,6.6403985023498535,11.212364196777344,5.143172740936279,16.55944061279297,8.673580169677734,-7.0346808433532715,1.374700903892517,3.7392358779907227,10.5436429977417,3.9644744396209717,-0.11870355159044266,-0.6596215963363647,0.3088403642177582,-0.3093930184841156,-0.45716941356658936,0.3765805661678314,0.23324033617973328,0.21477746963500977,-0.09644778817892075,0.44716551899909973,-0.4390341639518738,-0.3796160817146301,-0.8185209035873413,-0.47054412961006165,-0.12153514474630356,-0.4479858875274658,-0.093081995844841,-0.32148873805999756,-0.3869764506816864,0.043878354132175446,0.7126243114471436,0.294843852519989,-0.7688468098640442,-0.3788453936576843,0.14007973670959473,-0.3868718147277832,0.2828423082828522,0.15333294868469238,-1.3697516918182373,0.13266777992248535,-0.34773123264312744,-0.12372636049985886,0.12923572957515717,-0.6783083081245422,0.2133834958076477,-0.2961867153644562,-0.47478169202804565,0.2608644664287567,-0.1578933298587799,-0.49936825037002563,-0.007922835648059845,0.14139586687088013,-0.7816857695579529,-0.5676376223564148,0.22418077290058136,0.22593005001544952,-0.0712260976433754,-0.19158828258514404,0.3703390955924988,-0.5219389796257019,0.05292216315865517,1.5257548093795776,-0.059958912432193756,-0.04504967853426933,-0.6481189727783203,-0.3748328387737274,0.15444374084472656,0.4195941090583801,0.763099193572998,0.3348260521888733,-0.06355512142181396,-1.4819774627685547,-0.24543219804763794,-0.19808661937713623,-1.4460017681121826,0.7193928360939026,-1.378875732421875,1.0509681701660156,-0.5079731345176697,-0.711219310760498,-0.8600670099258423,-0.015474215149879456,-0.3993810713291168,-0.7426257729530334,-0.297084778547287,0.22374573349952698,0.5185027122497559,-0.24695038795471191,-0.10025403648614883,0.5215187072753906,1.269669771194458,-0.3903253674507141,0.17737077176570892,0.17137028276920319,0.12052664905786514,0.41994500160217285,1.895435094833374,-0.4013068974018097,0.04376325011253357,-0.4912348985671997,-1.559173345565796,0.6052430868148804,-0.14778302609920502,0.3925679922103882,-0.12579260766506195,0.141123428940773,0.6174246668815613,-0.49687543511390686,-0.643073558807373,0.4405216872692108,-0.6162151098251343,0.2691904902458191,-0.07508352398872375,-0.18965214490890503,0.029220959171652794,0.16291362047195435,0.08565788716077805,0.047115638852119446,-0.2200135439634323,0.02681514248251915,-0.11595851927995682,-0.15714183449745178,-0.1538933962583542,0.08356304466724396,0.03685161471366882,0.1206844300031662,0.17020268738269806,-0.14262402057647705,-0.10807283967733383,-0.10557049512863159,0.022530244663357735,0.08678563684225082,0.07170147448778152,0.049988482147455215,0.5802051424980164,-0.2343864142894745,-0.006445467472076416,-0.1270400881767273,-0.0169338621199131,0.11576671898365021,-0.08770597726106644,-0.23972898721694946,0.08344737440347672,0.06476355344057083,-0.19847719371318817,-0.00996700394898653,0.14686539769172668,0.14201733469963074,0.10532964766025543,0.017376083880662918,0.14870284497737885,0.10901132225990295,0.06007711961865425,0.0832585021853447,0.03153146430850029,0.005532567854970694,-0.12212429195642471,-0.2272832840681076,-0.21114349365234375,-0.037887971848249435,0.09202028065919876,0.12288212776184082,0.2020370215177536]},"hiddenLayers":[{"inputMatrix":{"rows":40,"columns":51,"weights":[0.3601464331150055,-0.40249887108802795,0.40622180700302124,0.10871241986751556,-0.3995688557624817,-0.13632433116436005,-0.09125179052352905,-0.04027935117483139,-0.2553642988204956,0.1554405689239502,-0.08664823323488235,-0.20024946331977844,-0.2730928659439087,-0.2921040654182434,0.18492484092712402,-0.39244335889816284,-0.11706096678972244,-0.0485706590116024,-0.2999518811702728,-0.3622805178165436,0.31587475538253784,0.32507386803627014,0.28989121317863464,-0.2578795552253723,0.5283301472663879,-0.40590205788612366,-0.10883939266204834,0.24161744117736816,-0.2287292629480362,-0.2506310045719147,0.31222110986709595,0.08413657546043396,-0.11386501044034958,-0.23748429119586945,0.014080850407481194,0.1814574897289276,-0.28375908732414246,-0.13168062269687653,-0.04362654685974121,-0.3880723714828491,0.31426286697387695,0.32260894775390625,-0.24702268838882446,-0.31825706362724304,0.21654380857944489,-0.05085044354200363,-0.12434402853250504,-0.06567200273275375,-0.07692959904670715,-0.34146180748939514,0.3034406304359436,0.32534241676330566,0.3204927444458008,0.22508658468723297,0.3828744888305664,-0.5106748342514038,-0.8715916275978088,-0.024236192926764488,0.0301769208163023,-0.4793996810913086,0.42190828919410706,0.6765806674957275,-0.3162921369075775,-0.5142032504081726,-0.09892917424440384,0.7060640454292297,-0.2655700147151947,-0.37228021025657654,0.08092731237411499,-0.34883084893226624,0.08367409557104111,-0.14969810843467712,0.4191893935203552,0.1518828421831131,0.006525348871946335,0.4345477819442749,-0.6113487482070923,-0.06306517124176025,0.22734981775283813,-0.1607670783996582,-0.4538177251815796,0.32387199997901917,-0.2871939241886139,-0.3954885005950928,-0.3232220411300659,0.2588405907154083,-0.09958579391241074,-0.4011884927749634,-0.42087769508361816,0.34418806433677673,-0.4479527175426483,-0.2197108268737793,0.35582882165908813,-0.3646628260612488,-0.6931477785110474,0.2661021649837494,-0.26971331238746643,-0.18675053119659424,0.8264492154121399,-0.5684873461723328,-0.48267263174057007,-0.15339960157871246,-0.31363022327423096,0.08332384377717972,-0.18349051475524902,-1.0196020603179932,0.17609208822250366,0.6462551951408386,0.01631670817732811,0.21381600201129913,0.8481389284133911,0.3418022692203522,-0.27018851041793823,0.5675716400146484,0.24301280081272125,-0.020458271726965904,-0.561069130897522,0.36111563444137573,0.40431857109069824,-0.6149024367332458,-0.0704166516661644,0.6840616464614868,-0.049659568816423416,-0.7150492072105408,-0.6982306241989136,0.8037359714508057,-1.023240089416504,-0.37846341729164124,0.5178373456001282,-0.9779975414276123,0.18950030207633972,0.3740309476852417,-1.184317708015442,-0.1724412590265274,0.7451030015945435,0.36533862352371216,0.198211207985878,-0.4702824354171753,0.3221128582954407,0.3147128224372864,-0.17956697940826416,-0.05539827048778534,-0.6396908760070801,-0.5916147828102112,0.1796794831752777,0.4622020423412323,-0.748674213886261,-0.2099505513906479,1.0916436910629272,-0.32560235261917114,0.5266148447990417,0.11333401501178741,-0.9398617148399353,-0.288463830947876,1.3688385486602783,0.03744994476437569,0.182412788271904,0.7152940630912781,0.9899734854698181,0.07015596330165863,-0.9805591106414795,0.3691473603248596,0.5702335238456726,0.5707831382751465,-0.007409694604575634,0.468533456325531,-0.25454291701316833,-1.3955624103546143,0.3842148184776306,0.3075001537799835,0.6109175682067871,0.1085352748632431,-0.8755778074264526,0.22509445250034332,0.1307893544435501,-1.9746700525283813,0.1925780028104782,0.06332360208034515,1.0552552938461304,-1.081799864768982,0.23803938925266266,-0.49148163199424744,1.9678314924240112,-2.294140577316284,-0.4154556691646576,-0.10049441456794739,0.8311154842376709,-0.7605566382408142,-0.7313697338104248,-1.5316663980484009,0.3331160247325897,-1.3874191045761108,0.13169680535793304,0.3707834780216217,0.6421393156051636,0.08000216633081436,0.10841318219900131,1.2367572784423828,0.02961648814380169,-0.5491371154785156,0.8232373595237732,0.31872400641441345,-0.413825124502182,0.2794587016105652,0.041568443179130554,-0.6038461327552795,-0.4865424931049347,-0.5292263031005859,0.37564387917518616,0.4819920063018799,0.07223007827997208,0.05121738836169243,0.8713993430137634,0.09884140640497208,-0.0251017939299345,0.3042287230491638,0.5156891942024231,0.3025144934654236,-0.7060496807098389,0.3775145411491394,0.9484488368034363,0.027511877939105034,0.3806021511554718,0.5732823610305786,-0.16251663863658905,-0.5541391372680664,-0.49181899428367615,0.7644051313400269,-0.7644066214561462,0.24897168576717377,0.8378609418869019,-0.17455556988716125,0.4688369333744049,0.8393929600715637,-0.1086796298623085,-0.004463634453713894,1.0463405847549438,0.37272530794143677,0.6502586007118225,-0.14657869935035706,-0.029595544561743736,-0.15549497306346893,-0.348689466714859,0.30317482352256775,-0.36783361434936523,-0.8522794842720032,0.4018027186393738,0.5347118973731995,-0.8216161131858826,0.1546940952539444,0.6256029605865479,-0.243830144405365,0.14020302891731262,-0.09788613021373749,-0.4076288938522339,0.10311637073755264,0.11021500825881958,0.5871329307556152,0.6542586088180542,-0.6182528734207153,-0.6344909071922302,-0.7550682425498962,-0.077027328312397,-0.6566012501716614,0.6086397171020508,0.05229048430919647,-0.2013210952281952,-0.44277799129486084,-0.5053468346595764,0.570431649684906,-0.6442872881889343,-0.703949511051178,-0.30035969614982605,-0.4611946642398834,-0.5785945653915405,0.5401005148887634,0.7490898966789246,0.5927088856697083,-0.6269961595535278,0.27987217903137207,-0.7382280230522156,-0.4427560865879059,1.0015113353729248,-0.6671727895736694,-0.5768675804138184,0.6599748730659485,0.46630844473838806,-0.8615066409111023,-0.7801735997200012,-0.1767006367444992,0.6590349674224854,-0.5716200470924377,0.09787927567958832,0.7536813020706177,-0.5574825406074524,0.5720527768135071,0.832330048084259,-0.5890562534332275,-0.7095906734466553,0.8018076419830322,-0.6100387573242188,-0.7029473781585693,0.0825279951095581,-0.08604652434587479,-0.5148596167564392,0.5471734404563904,0.0693812221288681,-0.5333043932914734,0.6077690720558167,0.4835549294948578,-0.5238754749298096,-0.24017737805843353,0.053537726402282715,0.057662978768348694,-0.7667093276977539,0.28748753666877747,0.023407040163874626,-0.6512645483016968,-1.2468490600585938,-0.49986732006073,-0.20421987771987915,-0.3723026216030121,-0.049782607704401016,0.11459681391716003,-0.4509280025959015,-0.08890371769666672,0.31926602125167847,0.6319275498390198,0.3948323130607605,0.05744039639830589,0.314665824174881,-0.43867120146751404,-0.42733415961265564,0.23708970844745636,0.2620231509208679,-0.25491273403167725,0.4003033936023712,0.15676134824752808,-0.6962462067604065,-0.8309713006019592,-0.2648230493068695,-0.07335496693849564,-0.41417157649993896,-0.018420757725834846,0.11179756373167038,-0.3553844094276428,0.26414310932159424,-0.04228002950549126,-0.7034541964530945,-0.8054174780845642,0.23999428749084473,-0.3247933089733124,-0.1791871190071106,0.10572968423366547,-0.02523515187203884,-0.4142714738845825,0.3041931688785553,0.41531094908714294,-0.18846678733825684,-0.03129244223237038,-0.44150760769844055,-0.14703112840652466,0.04489549249410629,0.2386878877878189,0.24547401070594788,0.8150935173034668,1.1706938743591309,-0.03797479718923569,0.05261628329753876,-0.13463817536830902,-0.2029920369386673,-0.27909940481185913,-0.1551079899072647,0.45909053087234497,-0.21155644953250885,-0.3276192247867584,0.1872815042734146,-0.13972511887550354,-0.5051162242889404,-0.678287923336029,0.5482721328735352,0.24802081286907196,-0.16909873485565186,0.3399384319782257,-0.4508991241455078,0.5495234727859497,0.9966166615486145,-1.2760225534439087,0.0362493060529232,1.1270636320114136,-0.3127710819244385,0.6800098419189453,-0.4520339071750641,0.1671910136938095,-0.024780694395303726,-0.36264047026634216,-0.015224047005176544,-0.4851763844490051,-0.8125464916229248,-0.17218875885009766,0.0688525140285492,-0.6759946942329407,-0.05782543495297432,-0.01229785569012165,-0.10837678611278534,-0.1395866721868515,-0.026355719193816185,-0.16315558552742004,-0.05200833082199097,-0.3658496141433716,-0.31271812319755554,-0.4490208625793457,0.428782194852829,0.27431368827819824,0.15094470977783203,0.0692065879702568,0.06756528466939926,-0.04504513740539551,-0.06034759059548378,0.3989730775356293,0.4986439645290375,0.15918613970279694,0.0565294548869133,0.38193854689598083,0.3195033371448517,-0.08520633727312088,0.2903222441673279,0.08828473836183548,-0.14530301094055176,-0.6961280703544617,-0.12131442874670029,0.33145686984062195,-0.04716955125331879,-0.5360080599784851,0.3524860143661499,-0.195418119430542,-0.04336434230208397,-0.05411776527762413,-0.34647276997566223,-0.06652961671352386,0.3296712636947632,0.40944135189056396,0.06965470314025879,-0.1362760066986084,0.15745683014392853,0.1559438407421112,-0.30177804827690125,0.33568647503852844,-0.17730507254600525,-0.10129052400588989,0.40870457887649536,0.489452987909317,0.16180658340454102,0.12205151468515396,-0.1800157129764557,-0.029809927567839622,0.0944867953658104,0.1994745135307312,-0.1508396416902542,-0.6115027666091919,0.588505208492279,-0.009200524538755417,-0.6608403325080872,-0.2316046506166458,0.6837300062179565,0.30316340923309326,-0.03973246365785599,0.5390512943267822,0.4002991020679474,0.02991661988198757,-0.666657567024231,0.024002939462661743,-0.2599121630191803,-0.16926096379756927,0.4066266417503357,0.15100683271884918,-0.010794675908982754,-0.2835533916950226,0.5218467116355896,-0.40892645716667175,-0.7458361983299255,0.07515357434749603,0.5945158004760742,-0.14231842756271362,-0.7475616335868835,0.321153849363327,-0.6133228540420532,0.6248020529747009,0.4621340334415436,-0.5690109133720398,0.37021246552467346,0.6893168687820435,0.356256902217865,0.2206214815378189,-0.7098022699356079,-0.18093587458133698,0.14861902594566345,-0.1267024129629135,-0.22403185069561005,-0.11113834381103516,-1.046655535697937,0.3357580602169037,-0.4138253331184387,-0.45267659425735474,0.15823595225811005,0.5908271074295044,-0.041174571961164474,-0.16642312705516815,-0.5236496329307556,-0.7108980417251587,0.5615060925483704,-0.16680113971233368,0.7088128924369812,0.3228442966938019,-0.7125435471534729,-0.06470159441232681,-0.3073880076408386,-0.2211470901966095,-0.8363069891929626,0.6556395292282104,0.12438362091779709,-0.4784086346626282,-0.8015515804290771,-0.4105803370475769,0.6664283275604248,-0.6561134457588196,-0.9803122282028198,0.05280067399144173,-0.6633184552192688,-0.5757882595062256,0.7938128113746643,1.0266023874282837,0.15239444375038147,-0.7498692274093628,0.14675840735435486,0.19787879288196564,-0.1515021175146103,0.8897369503974915,-0.6215837001800537,0.10953128337860107,0.9594075679779053,0.273746520280838,-0.5324427485466003,-0.5611400008201599,-0.6573876738548279,0.1603146195411682,-0.5321823358535767,-0.3264716863632202,0.28550171852111816,-0.7103737592697144,0.9255653619766235,0.8353188633918762,-0.794400691986084,-0.8025269508361816,0.0778566524386406,-0.21530106663703918,-0.16451574862003326,0.6910072565078735,-0.15040528774261475,-0.5548108816146851,0.7419407367706299,-0.1356428563594818,-0.12534257769584656,-0.1718808263540268,-0.34300658106803894,-0.16749601066112518,0.3288140296936035,0.18262210488319397,0.48940619826316833,0.13470317423343658,-0.03377019986510277,-0.26706311106681824,-0.08389796316623688,0.030615225434303284,-0.034679144620895386,-0.2138800472021103,0.1583252102136612,0.11343710869550705,0.37244293093681335,-0.02194191887974739,0.29930564761161804,-0.02290695533156395,-0.1350366622209549,-0.5394894480705261,0.22003145515918732,-0.15261928737163544,-0.16150856018066406,0.09579714387655258,-0.3145212233066559,0.2746649980545044,0.40572643280029297,-0.20479680597782135,-0.28082388639450073,-0.030038701370358467,-0.3244912326335907,0.14734065532684326,-0.1316513866186142,-0.04353732988238335,0.4820677936077118,-0.07887180149555206,-0.33261990547180176,-0.18376599252223969,-0.0397811084985733,-0.15277905762195587,0.2143121212720871,-0.13639956712722778,-0.11571743339300156,0.17203941941261292,-0.6051687598228455,0.3358837366104126,0.07319717109203339,-0.045931681990623474,0.8819881081581116,0.06970654428005219,-0.16766658425331116,0.27397435903549194,-0.4399188756942749,-0.8069727420806885,-0.775999128818512,0.6272599101066589,0.007626035250723362,0.04112224280834198,0.17050252854824066,0.21092382073402405,0.0217440128326416,-0.2820388376712799,0.04002474993467331,-0.47361189126968384,-0.35887640714645386,-0.0412575863301754,-0.05661836639046669,-0.2997909188270569,0.4781523644924164,-0.047785088419914246,0.4123796820640564,-0.5184767246246338,0.041517473757267,-0.0865883156657219,0.36985117197036743,0.021769510582089424,-0.20532479882240295,-0.45726826786994934,0.4738186299800873,0.5299447178840637,0.2844066321849823,0.26596599817276,0.7553396821022034,0.30186647176742554,-0.004870228003710508,-0.33346647024154663,-0.2652739882469177,-0.3640987277030945,0.2311353087425232,-0.04559006541967392,0.1383659988641739,0.114378921687603,0.10494208335876465,-0.4596080482006073,-0.3865520656108856,-0.08011700958013535,-0.60940021276474,0.17387992143630981,-0.006306921597570181,0.06395700573921204,-0.3569107949733734,-0.12478750944137573,-0.8626441359519958,-0.24518190324306488,0.6357709765434265,0.3849668800830841,0.020790645852684975,0.8113853931427002,0.07768373936414719,-0.1908119171857834,0.0806688666343689,0.11140460520982742,-0.5178869962692261,-0.26296988129615784,0.1146831214427948,0.866845428943634,0.4392208158969879,-0.3138825297355652,0.5080370306968689,-0.3469921350479126,-0.7425081133842468,-0.7333598136901855,0.6964264512062073,0.15813593566417694,0.7207759618759155,0.5438963770866394,-0.2738337218761444,0.582597553730011,0.8305368423461914,-1.1443272829055786,-0.05159143730998039,0.623300313949585,0.16861560940742493,-0.01202596165239811,-0.24465467035770416,0.020503699779510498,0.033963579684495926,-0.26897573471069336,-0.4089657962322235,-0.07666157186031342,-0.5238097310066223,0.15142765641212463,-0.27608734369277954,-0.2864474058151245,0.4088038504123688,-0.27629178762435913,-0.1455540955066681,0.1917547732591629,-0.0411166287958622,-0.4052388370037079,0.17851069569587708,0.5933801531791687,0.46981900930404663,0.5618957877159119,-0.1042495146393776,-0.5582009553909302,-1.0464812517166138,-0.47005826234817505,-0.3947131931781769,-0.24194632470607758,0.8886401653289795,0.007789006922394037,-0.5099598169326782,0.14515817165374756,0.7105643153190613,-0.0515141636133194,-0.3885115087032318,-0.17983068525791168,-0.0751214474439621,-0.06786590069532394,0.5818027257919312,0.5483425855636597,0.6390230655670166,-1.025464653968811,0.3255918323993683,-0.003499673679471016,0.12299051880836487,0.347239226102829,-0.4757463037967682,0.008079895749688148,0.11458185315132141,0.47848957777023315,-0.9343518018722534,-0.4541128873825073,-0.27948588132858276,0.3910338878631592,-0.06702378392219543,-0.8904304504394531,0.709372878074646,-0.0592661052942276,-0.18166841566562653,0.6127529740333557,-0.38160240650177,0.16317987442016602,0.8911499381065369,-0.9954950213432312,-0.363138347864151,0.5977045297622681,-0.9780866503715515,-0.04406365752220154,0.5944334268569946,0.861517071723938,0.8540316820144653,0.03307002782821655,0.07984914630651474,0.03585831820964813,0.05039893463253975,0.2772005498409271,-0.3120943307876587,-0.27082622051239014,-0.17934705317020416,0.03491119295358658,-0.19797064363956451,0.42525675892829895,0.3940228819847107,0.17214533686637878,-0.6192026138305664,0.01318645104765892,0.31409767270088196,-0.3471700847148895,-0.5656756162643433,-0.09067215770483017,-0.015355430543422699,-0.312946617603302,-0.28518250584602356,-0.2167244553565979,-0.05136733874678612,-0.13605859875679016,-0.02721976675093174,-0.2717527747154236,-0.6982473134994507,0.3142491281032562,-0.37325161695480347,-0.4350687265396118,-0.37639743089675903,0.11483020335435867,-0.0011544041335582733,-0.8339978456497192,-1.4089394807815552,-0.03104626201093197,-1.341362714767456,1.3180997371673584,0.4101005792617798,0.4560208320617676,-0.33013099431991577,0.09799445420503616,0.4711854159832001,-0.6015749573707581,0.4005662798881531,-0.8552404046058655,-0.06746931374073029,0.37697145342826843,0.04103477671742439,-0.716741144657135,-0.3105522096157074,-0.07010404020547867,0.21134531497955322,0.30500441789627075,0.30626603960990906,-0.057000935077667236,0.5907461047172546,-0.16245020925998688,-0.11673175543546677,0.08191414922475815,0.16184726357460022,0.328861266374588,-0.009974372573196888,0.34348833560943604,0.696590006351471,0.061498939990997314,0.3204672336578369,0.552462637424469,-0.06532548367977142,-0.6613840460777283,-0.4786998927593231,0.6300848722457886,-0.4880128502845764,0.7064091563224792,0.8703181147575378,-0.1226840689778328,0.5528903603553772,0.5745236873626709,-0.9186936616897583,-0.15386813879013062,0.734435498714447,0.11969693750143051,0.4473813474178314,-0.31790560483932495,0.3367844820022583,0.05838413164019585,-0.32817357778549194,0.46201106905937195,-0.14028654992580414,-0.7198331356048584,0.23024100065231323,0.2908021807670593,-0.13801907002925873,0.24252943694591522,0.6068028211593628,0.06068055331707001,0.18567600846290588,0.377599835395813,-0.5881584286689758,0.29189443588256836,-0.539313554763794,-0.11125022917985916,-0.3828713893890381,-0.3122847378253937,0.7118695378303528,-0.062375955283641815,0.05374542623758316,0.4329504668712616,0.5329911708831787,-0.2798284590244293,-0.6409155130386353,-0.2792886197566986,-0.7750285863876343,0.22776742279529572,0.06992963701486588,0.05495619773864746,0.23432165384292603,-0.5314461588859558,0.11025553196668625,-0.10809288918972015,-0.6384446024894714,-0.36126118898391724,0.662868082523346,0.30575522780418396,-0.1969052404165268,0.1859234720468521,-0.557645320892334,0.3964206874370575,0.985724925994873,-0.6685023307800293,-0.0023204279132187366,0.31650078296661377,0.2109411060810089,-0.44549301266670227,-0.04649534076452255,0.013007164932787418,-0.04300953820347786,-0.17273734509944916,-0.514585554599762,-0.34573110938072205,-0.2536410391330719,0.1403256058692932,-0.3072235882282257,-0.4038306772708893,-0.07183526456356049,0.3379520773887634,-0.21076281368732452,0.16358783841133118,-0.494475394487381,-0.4187007248401642,-0.2558351457118988,-0.5184532403945923,0.20421236753463745,-0.5845609307289124,-0.27926504611968994,0.5966596603393555,0.5545159578323364,0.30706608295440674,-0.36449575424194336,0.18913355469703674,-0.4050985276699066,-0.14116565883159637,-0.2480761706829071,-0.1842750459909439,-0.5394449234008789,-0.3097991347312927,0.289853036403656,-0.47178956866264343,-0.20406967401504517,0.20150725543498993,0.022769808769226074,-0.533439040184021,-0.7753052711486816,0.2920387089252472,-0.15930581092834473,0.13990792632102966,0.6656755208969116,-0.43615594506263733,0.633087158203125,0.5624829530715942,-1.0726783275604248,-0.27259185910224915,0.2719264030456543,-0.31050145626068115,0.35129693150520325,0.1105402410030365,-0.20320935547351837,0.40898796916007996,-0.5333695411682129,-0.1680602878332138,-0.3884808421134949,-0.4756885766983032,-0.2921604812145233,-0.280811071395874,-0.13873036205768585,0.3681395649909973,0.0205887109041214,-0.6325328946113586,0.42007410526275635,-0.3808286488056183,0.257980614900589,-0.12757131457328796,0.43574878573417664,-0.05631429702043533,-0.5948601961135864,-0.06089603528380394,0.8987827897071838,0.6652563214302063,-0.013136365450918674,0.14909560978412628,0.027755847200751305,-0.17542798817157745,-0.6316146850585938,-0.23982858657836914,-0.3103191554546356,-0.2710810899734497,-0.17949672043323517,0.12747961282730103,-0.07854965329170227,-0.19660435616970062,0.38958266377449036,-0.25623220205307007,-0.7655896544456482,-0.5460875630378723,0.9375389814376831,0.37773385643959045,0.28816670179367065,0.16530998051166534,-0.7773431539535522,0.08990272134542465,0.714706540107727,-0.9901452660560608,-0.3762676417827606,0.365699827671051,-0.23533178865909576,-0.016198044642806053,-0.5723376870155334,-0.2932053208351135,0.14145804941654205,-0.6824913620948792,-0.26073646545410156,-0.03649469092488289,-0.5756086707115173,-0.4338715672492981,-0.09663168340921402,-0.12173481285572052,0.7255124449729919,0.06685300916433334,-0.1749945878982544,0.08058953285217285,-0.22708064317703247,-0.08695866912603378,-0.45796942710876465,0.11375655233860016,-0.3069291114807129,-0.2973747253417969,0.36253854632377625,0.5729684233665466,-0.22837406396865845,0.022380750626325607,-0.060776758939027786,-0.4432574510574341,-0.07139679789543152,0.40125030279159546,0.43174803256988525,0.21404866874217987,-0.7518362998962402,0.3963700830936432,0.20423276722431183,-0.489618182182312,0.2198997586965561,0.48157402873039246,0.14340756833553314,0.18880672752857208,-0.38436028361320496,0.15986664593219757,-0.33836495876312256,0.15492799878120422,-0.07843291759490967,-0.25220435857772827,-0.2737996578216553,0.45632487535476685,-0.645339846611023,-0.0015164883807301521,0.021990764886140823,0.42144548892974854,0.29465848207473755,-0.19519183039665222,0.31872862577438354,0.28438177704811096,-0.0803825706243515,0.3166975677013397,0.12194974720478058,-0.354865700006485,0.4228079617023468,0.42427024245262146,0.07681844383478165,-0.13587228953838348,0.589934766292572,-0.679508626461029,0.6837799549102783,0.22822006046772003,0.07192517817020416,1.2449607849121094,0.1523442268371582,-0.6971986293792725,-1.7826248407363892,0.22123433649539948,0.011240659281611443,0.11385110020637512,0.5638930201530457,1.0944688320159912,-0.9377059936523438,-0.5665032267570496,0.4255674183368683,0.5467523336410522,-0.6069645881652832,0.5586720108985901,0.18786753714084625,0.9968557357788086,-0.5847075581550598,-0.430931955575943,-0.6192804574966431,-0.9690755605697632,-0.7350072264671326,0.492279052734375,0.06287267804145813,-0.5936992764472961,-0.13052092492580414,0.7059017419815063,-0.5508000254631042,0.6214771866798401,-0.37812015414237976,-0.018902074545621872,0.06716502457857132,1.0283054113388062,0.7871502637863159,0.39826700091362,0.4353770911693573,1.1452035903930664,0.28575682640075684,-0.7440019249916077,-0.35296815633773804,0.4474112391471863,-1.0647622346878052,1.1623218059539795,0.6827143430709839,-0.052010055631399155,0.6947504878044128,-0.44424694776535034,-0.150349959731102,0.055115483701229095,0.5411936044692993,-0.3146088123321533,0.7218396663665771,-0.23801825940608978,0.2858012318611145,0.24554778635501862,-0.46870189905166626,-0.6116898655891418,-0.48862484097480774,-0.7038766741752625,-0.6494866609573364,0.2786024212837219,0.6778756976127625,-0.41661426424980164,-0.2089151293039322,-0.25485292077064514,0.6438100934028625,-0.3281729817390442,-0.13686248660087585,0.03302751109004021,-0.39762139320373535,0.10470271110534668,-0.07517746090888977,0.2048790454864502,0.21927054226398468,-0.2933814525604248,0.15907412767410278,-0.3900374472141266,0.08844830840826035,0.03056441806256771,-0.28010210394859314,0.4462273120880127,0.19027788937091827,0.6003621816635132,-0.3085577189922333,-0.21863175928592682,-0.06011936813592911,0.11759176105260849,-0.4210856258869171,-1.0091004371643066,0.3396274745464325,-0.4115302264690399,-0.1348671019077301,0.13032901287078857,-0.37797990441322327,-0.30696436762809753,0.29080361127853394,-0.7922500371932983,-0.5565335750579834,0.671854555606842,-0.7643526196479797,-0.42905193567276,0.5660887360572815,0.3837398588657379,0.23168739676475525,0.23687589168548584,0.5513753294944763,-0.1794138252735138,-0.4514853060245514,-0.31764864921569824,-0.4215024411678314,-0.4160301983356476,0.1250782012939453,0.22560717165470123,-0.2750771939754486,-0.24008208513259888,-0.15169818699359894,0.3683563470840454,-0.2137881964445114,-0.47149330377578735,0.43573394417762756,-0.2108423113822937,-0.14326873421669006,0.3951148986816406,0.33701950311660767,0.336730420589447,-0.5121341347694397,0.03746480867266655,-0.25290220975875854,-0.2783706486225128,0.3448582589626312,-0.3217424154281616,-0.437652587890625,0.4105309545993805,0.48703238368034363,-0.4051825702190399,-0.21336913108825684,-0.4689328074455261,0.4242870807647705,-0.20773927867412567,-0.2510817348957062,0.34705403447151184,-0.2690032124519348,0.2824661135673523,0.17900428175926208,-0.178749218583107,-0.29120367765426636,0.3419099748134613,-0.4372079372406006,-0.2882818579673767,0.3894472122192383,-0.2983618676662445,-0.19602683186531067,0.29885944724082947,-0.342458039522171,-0.21666285395622253,0.1501380354166031,-0.5840187668800354,0.06700433790683746,0.5575971007347107,0.5775399208068848,0.17572446167469025,0.6978095769882202,-0.1008513793349266,-0.5089940428733826,0.015974819660186768,-0.0586228109896183,0.09343396872282028,0.3275321125984192,-0.024791063740849495,0.6249992251396179,0.07634308189153671,0.22366733849048615,-0.0054638078436255455,-0.5277385115623474,-0.25959712266921997,-0.5811752080917358,-0.13738010823726654,-0.4178929626941681,0.433500200510025,-0.1909361183643341,-0.772304892539978,0.26140472292900085,-0.3988807499408722,-0.3703623414039612,0.39927586913108826,0.45569881796836853,0.02597971260547638,0.06811974942684174,-0.7392563819885254,0.08306234329938889,0.26931101083755493,1.1660689115524292,0.11359356343746185,-0.4869385063648224,-0.9255495071411133,-0.1438271850347519,0.1421816647052765,-0.21062618494033813,0.5109662413597107,0.18783001601696014,-0.038466259837150574,0.3273119330406189,0.13515794277191162,-0.8889645934104919,-0.0061070723459124565,0.8420049548149109,0.5861151218414307,0.03512943163514137,-0.6228475570678711,1.4560461044311523,0.33105915784835815,-0.17807094752788544,0.0983656793832779,0.7685242891311646,0.16486884653568268,-0.8374029994010925,-0.5215098857879639,-0.6989030241966248,0.31435465812683105,-0.22728624939918518,-0.32563385367393494,0.4884461760520935,-0.6751691102981567,-0.21174649894237518,-0.13388317823410034,0.0801437646150589,-1.0753262042999268,0.32934555411338806,0.4090966582298279,0.9380160570144653,-0.4624418318271637,-0.3434890806674957,-0.002621713560074568,0.9871674180030823,-2.0358517169952393,-0.6252569556236267,-0.2617417573928833,-0.284193754196167,-0.32884496450424194,-0.20278850197792053,-0.6788269281387329,0.24847060441970825,-0.15688903629779816,-0.4447707235813141,0.5078859925270081,0.5654069781303406,-0.43279656767845154,-0.6372853517532349,0.2951677739620209,0.7067344188690186,-0.06872919946908951,-0.0038836421445012093,0.2808291018009186,-1.0057404041290283,-0.204551562666893,-0.03866863250732422,0.8473075032234192,0.4081133306026459,0.30562886595726013,-0.6474640965461731,-0.2210831195116043,-0.08052337914705276,0.20764340460300446,-0.44816821813583374,0.5884341597557068,0.17653805017471313,-0.6130974888801575,-0.5343700051307678,-0.3611489534378052,0.45688939094543457,-0.4557376205921173,-0.7153348326683044,0.09527955204248428,-0.6358328461647034,0.1711573302745819,0.4042375385761261,0.49637505412101746,-0.31994137167930603,-0.646706223487854,0.6263828277587891,0.413789302110672,-0.6180009245872498,0.23358692228794098,-0.040966738015413284,-0.047348782420158386,-0.18209509551525116,0.16408692300319672,-0.5737971663475037,-0.4329299330711365,0.031844768673181534,0.044840842485427856,-0.48859071731567383,-0.11310753971338272,0.26911213994026184,-0.4915531575679779,-0.4780941605567932,0.3492703139781952,-0.48166877031326294,-0.4623328149318695,0.1878073662519455,0.05459843575954437,-0.08823142200708389,-0.26151180267333984,-0.04621579870581627,-0.6528420448303223,0.4023746848106384,-0.14779433608055115,0.06053834408521652,-0.015364250168204308,0.28712335228919983,0.3401998281478882,-0.001818848424591124,-0.3640865683555603,-0.01045867707580328,0.11835353076457977,-0.3248729705810547,-0.2277432084083557,-0.002547292737290263,0.18051865696907043,0.4035079777240753,-0.11504193395376205,0.1298663318157196,0.2507631480693817,-0.3447624444961548,-0.1345674693584442,-0.43047118186950684,-0.003927038982510567,-0.5662229061126709,-0.11928736418485641,0.7005071043968201,0.17574460804462433,0.1459370255470276,0.42307496070861816,0.04546290263533592,0.5685101747512817,0.36564627289772034,-0.00016097718616947532,0.08723486959934235,0.11455850303173065,0.40967807173728943,0.2931174039840698,-0.43059659004211426,0.46065908670425415,-0.0075242905877530575,0.0585319921374321,0.06490760296583176,-0.02104215696454048,-0.16968604922294617,0.24334359169006348,0.31966131925582886,0.043848924338817596,-0.0014104137662798166,-0.25983065366744995,-0.2689574360847473,0.09561099857091904,0.42643633484840393,0.07525946199893951,0.03473786637187004,-0.4730898439884186,-0.33295199275016785,-0.7853124737739563,-0.4384066164493561,0.5768638849258423,0.6211487650871277,0.00522983493283391,0.5344034433364868,0.39196187257766724,0.11821918934583664,0.1913391351699829,-0.36425793170928955,-0.5238939523696899,-0.767677366733551,-0.2996344566345215,0.6391767263412476,0.08265744149684906,-0.5677400827407837,0.6807395815849304,0.01092288363724947,-0.5477705597877502,-0.5802322030067444,0.7759367227554321,0.3878943920135498,0.37141546607017517,0.7330488562583923,-0.24061305820941925,0.5087636709213257,0.6819549798965454,-1.1079716682434082,0.07511777430772781,0.6813427209854126,-0.24091389775276184,0.29186853766441345,-0.19875533878803253,-0.4950212240219116,0.016349544748663902,-0.11380033940076828,-0.49936550855636597,-0.007144831586629152,-0.7401068210601807,0.18395204842090607,-0.40481019020080566,-0.15109479427337646,0.7319909334182739,0.7486453652381897,0.347700834274292,0.006630793679505587,-0.5945526361465454,-0.0633246973156929,0.17663532495498657,0.005255626980215311,0.581508457660675,0.764409601688385,-0.6187843680381775,-0.7667375802993774,-0.47108396887779236,-0.43052276968955994,-0.7810608148574829,0.3881073594093323,0.47168922424316406,-0.5423805117607117,-0.734190821647644,0.3542953431606293,0.33262893557548523,0.03345212712883949,-0.8630958199501038,0.7979356050491333,0.20485524833202362,0.3442917466163635,0.40939846634864807,-0.12875717878341675,0.3285028040409088,-0.2684721052646637,0.6078346967697144,0.2609744966030121,0.15230484306812286,-0.3396753668785095,-0.4750179350376129,0.052706360816955566,0.2799622714519501,0.430032879114151,0.020247483626008034,-0.6211867928504944,0.309691846370697,0.11196672171354294,-0.5494270324707031,-0.41451337933540344,0.5809541344642639,0.30961528420448303,-0.5562822222709656,-0.09869213402271271,-0.8925469517707825,-0.6720436811447144,0.370736688375473,-0.5175220966339111,-0.5019438862800598,-0.07102411985397339,-0.5340980291366577,0.1425122320652008,0.19574913382530212,-0.14920249581336975,-0.2804546356201172,-0.06456900388002396,-0.7360624074935913,-0.31296637654304504,0.9867008924484253,0.6353616118431091,0.629976749420166,0.39905211329460144,-0.15805065631866455,-0.3942835032939911,-0.5797303915023804,0.1774083822965622,0.0313778854906559,-0.742694616317749,-0.012014987878501415,0.7765940427780151,-0.48348450660705566,-0.23592060804367065,0.4450967013835907,-0.26991966366767883,-0.7574048638343811,-0.8387525677680969,0.8143037557601929,-0.044627293944358826,0.26660388708114624,0.9560182094573975,-0.8447566032409668,0.2601342797279358,0.7716203331947327,-1.0943572521209717,-0.7985183596611023,0.747701108455658,0.25193285942077637,0.7252578139305115,-0.9725330471992493,0.43490079045295715,0.6292312741279602,-1.0836899280548096,-0.15297137200832367,-0.526273787021637,-0.4185469150543213,0.2446516454219818,-0.10889236629009247,-0.764003336429596,0.5588726997375488,0.39276739954948425,-0.36422768235206604,0.5763686299324036,0.5090686082839966,-0.5012589693069458,0.2821659445762634,-0.5533396005630493,0.7615438103675842,-0.4897482991218567,-0.03773358464241028,0.2986837327480316,0.24756576120853424,0.40741822123527527,1.0764492750167847,0.9710897207260132,-0.24861213564872742,-0.5257393717765808,-0.666915774345398,-0.21109825372695923,0.12114877253770828,-0.43624356389045715,-0.4446374177932739,-0.5104448795318604,0.08925443887710571,0.41835859417915344,0.13649293780326843,0.2692350149154663,-0.8239531517028809,-0.3101826608181,0.1685020476579666,0.09682483971118927,0.549496591091156,0.025211811065673828,0.4364687502384186,1.1327846050262451,-1.1126741170883179,0.06154772639274597,0.8963237404823303,-0.60141521692276,0.24874676764011383,-0.8604596257209778,-0.15861725807189941,-0.29542669653892517,-0.22658419609069824,-0.1357857584953308,-0.7521692514419556,-0.6537668704986572,-0.5524768233299255,0.06932497769594193,-0.5015018582344055,0.3456822335720062,0.3364129066467285,0.12853746116161346,-0.2256997525691986,-0.5065493583679199,-0.32754117250442505,0.6777631044387817,0.712222158908844,0.5196735262870789,0.16230718791484833,-0.4392561912536621,-0.6539285778999329,-0.03759409487247467,-0.5394880175590515,-0.9187185168266296,0.47025054693222046,0.6760446429252625,-0.586594820022583,-0.5788196325302124,-0.5607635974884033,0.8061511516571045,-0.5856335759162903,-0.6021130681037903,0.4690782129764557,-0.4392952024936676,-0.033620256930589676,-0.26129150390625,0.3108382523059845,0.152121901512146,0.04009832814335823,0.6273242831230164,-0.06418699771165848,-0.5871290564537048,-0.1487639993429184,-0.028335511684417725,-0.9125935435295105,0.726652204990387,-0.2812463045120239,-0.34995460510253906,-0.585267186164856,-0.36354348063468933,-0.10008995980024338,-0.5657543540000916,-0.5339502096176147,0.1406536102294922,-0.6164371967315674,0.03391163423657417,0.9901707768440247,-0.6303592920303345,-0.553739070892334,0.30494225025177,-0.23912493884563446,-0.01080266386270523,0.5973837375640869,-0.703345775604248,-0.45503515005111694,0.6386677622795105,-2.131499767303467,-0.5216996073722839,-0.6903676390647888,0.006686193868517876,-0.22036032378673553,-0.11505371332168579,-0.5931915044784546,0.031676314771175385,3.125216007232666,0.9764147996902466,2.6147665977478027,0.02794364094734192,0.25516149401664734,0.7822922468185425,-1.586666226387024,0.9237993955612183,0.4411347508430481,0.2631402313709259,-0.21397528052330017,1.057722806930542,0.4611060321331024,-0.7892034649848938,0.46712997555732727,1.244381308555603,-1.630932331085205,-0.9269993901252747,0.40575751662254333,-0.5976624488830566,1.4082362651824951,0.9750394821166992,-0.6480726003646851,1.6011401414871216,1.0295217037200928,0.8944298624992371,0.7138592004776001,0.0464622937142849,-1.2485768795013428,-0.6635057926177979,0.26858609914779663,0.14498485624790192,-0.8288418054580688,-1.6937812566757202,1.157820463180542,-0.4818992018699646,-0.7550756335258484,-1.4512749910354614,2.388188123703003,0.0775083675980568,-0.8442744016647339,-0.6263340711593628,-3.099245548248291,0.660219132900238,0.4177546501159668,0.8993041515350342,0.15760137140750885,-0.5460808277130127,-0.6435770392417908,-0.7139334678649902,-0.7150790095329285,-0.6981219053268433,0.5318587422370911,0.6743549704551697,-0.42645201086997986,-0.43043601512908936,-0.5160694122314453,0.036553025245666504,-0.5148502588272095,-0.22063829004764557,0.6223995089530945,-0.4419136941432953,-0.15542571246623993,0.997338593006134,0.09452037513256073,0.043271053582429886,-0.1013648584485054,0.2695976197719574,-0.4531860947608948,-0.05917142704129219,0.14595051109790802,-0.6423128843307495,-0.03070678561925888,0.05990475416183472,0.47780242562294006,-0.15663017332553864,-0.6375647187232971,-0.279098778963089,-0.07321446388959885,-0.4916877746582031,-0.6871631741523743,0.1835235059261322,-0.5577061176300049,0.22888576984405518,0.2543894350528717,-0.4939453601837158,-0.3633245825767517,0.4695901572704315,-0.5380018353462219,-0.6160276532173157,0.6547452807426453,-0.6783409714698792,-0.4439763128757477,0.5656139254570007,-0.22642098367214203,-0.20891821384429932,-0.05122143775224686,-0.384960412979126,0.22882167994976044,0.27931123971939087,0.16273945569992065,0.45995062589645386,0.35800600051879883,-0.16294150054454803,-0.35057350993156433,0.2018006592988968,-0.009859639219939709,0.13141252100467682,-0.3261510729789734,0.44004714488983154,0.3106711506843567,-0.5459953546524048,0.14928902685642242,0.2119961678981781,-0.2522923946380615,-0.3486920893192291,-0.610079288482666,0.20568695664405823,-0.3300461769104004,0.3364829123020172,0.3917469084262848,-0.4064697027206421,0.3244669437408447,0.3762640357017517,-0.45684778690338135,-0.5317397713661194,0.3183683156967163,0.10234618932008743,0.2268735021352768,-0.3587021827697754,0.2737170457839966,0.3790171146392822,-0.3604736328125,0.38540518283843994,-0.40993422269821167,-0.21520408987998962,0.08279111236333847,0.4054083824157715,-0.27160391211509705,0.017618142068386078,0.25296643376350403,-0.7822609543800354,0.4679720103740692,0.18107223510742188,-0.14502714574337006,0.13040274381637573,-0.8358750939369202,-0.004263937007635832,-0.7138245701789856,0.1313949078321457,0.15000547468662262,-0.06435153633356094,0.10159917920827866,0.7859878540039062,-0.13942471146583557,0.08523032814264297,0.02637757733464241,-0.11286433041095734,0.18549172580242157,-0.09129366278648376,-0.006202368531376123,0.3596937358379364,0.5408613681793213,-0.17587675154209137,0.1961163729429245,0.03161105141043663,-0.48707398772239685,-0.3848963975906372,0.506894588470459,-1.0136550664901733,0.08607659488916397,0.750220775604248,-0.6915695071220398,0.5873590707778931,0.870891273021698,-1.015242099761963,0.09912343323230743,0.998765766620636,-0.05586673691868782,0.376513808965683,-0.41365090012550354,0.09283176809549332,-0.09622961282730103,-0.09708855301141739,0.27783405780792236,-0.4189799726009369,-0.770423948764801,-0.011013922281563282,0.104754738509655,-0.6772803664207458,-0.010588235221803188,0.3334643542766571,-0.04253362491726875,0.0050374590791761875,0.10165438801050186,-0.9078639149665833,-0.04723682627081871,-0.6872191429138184,0.011042488738894463,-0.6227018237113953,-0.13322091102600098,0.03287884593009949,0.5059143900871277,0.04633427411317825,1.097503662109375,0.4173671305179596,-0.2639928460121155,-0.18748928606510162,0.13386140763759613,-0.384520560503006,-0.20033934712409973,-0.25309082865715027,0.3627395033836365,0.2425738424062729,-0.6302191615104675,0.9769721627235413,-0.6333391666412354,-0.7367647290229797,-0.5134664177894592,0.6976732015609741,-0.11295639723539352,-0.26357758045196533,0.4588000774383545,-0.28750720620155334,0.7961211800575256,0.16662515699863434,-0.07723080366849899,0.1791301667690277,0.7791056036949158,-0.1772545725107193,0.28709450364112854,-0.5086150169372559,-0.37962716817855835,0.12363550812005997,-0.8550058603286743,-0.34523966908454895,-0.6355663537979126,-0.890705406665802,0.1390303671360016,-0.20723289251327515,-0.5284270644187927,0.4390244483947754,0.3994242250919342,0.017764927819371223,0.11378362774848938,-0.44137346744537354,-0.9132180213928223,-0.5611942410469055,-0.047319915145635605,-0.65352463722229,-0.2567736506462097,0.5584717392921448,0.08063851296901703,0.24308431148529053,0.0529278889298439,0.2310158759355545,-0.25449445843696594,-0.06708195805549622,0.5200726985931396,0.4088091552257538,0.5780048370361328,0.39485976099967957,0.8424787521362305,0.16915203630924225,-0.045772939920425415,0.5665578842163086,-0.665178656578064,-0.39128729701042175,-0.8754473924636841,-0.13887642323970795,-0.14430822432041168,-0.6806997656822205,-0.08828721940517426,-0.1885867863893509,-0.12079859524965286,0.4309302270412445,0.06382472068071365,-0.07399770617485046,0.43089908361434937,0.4387638568878174,0.5847066044807434,0.2071772813796997,-0.2509249746799469,0.343660444021225,0.09074297547340393,-0.19785188138484955,0.5603700876235962,-0.3234095871448517,0.024994200095534325,0.4196954667568207,0.5441516637802124,0.8722753524780273,0.018702801316976547,0.6017186045646667,-0.014917675405740738,-0.0011018968652933836,0.2061767280101776,-0.3561476469039917,-0.0015837934333831072,0.05164625868201256,0.34711888432502747,0.6082713603973389,-0.24679754674434662,-0.6185081005096436,-0.6193446516990662,-0.18366721272468567,-0.9946443438529968,0.24345655739307404,0.6622146368026733,-0.3660237491130829,-0.40910494327545166,-0.337251752614975,0.5106950402259827,-0.334183007478714,-0.08993294835090637,0.2628125548362732,-0.38204580545425415,-0.6122554540634155,0.7071962356567383,0.9028351306915283,0.7471488118171692,-0.5192458629608154,0.6042101383209229,-0.4784359633922577,-0.2636798620223999,0.150948166847229,-0.9409316778182983,-0.6505659818649292,0.6570817232131958,0.5457355976104736,-0.8274447321891785,-0.4699663519859314,-0.8524499535560608,0.45882198214530945,-0.28655582666397095,0.14588207006454468,0.7201946377754211,-0.36182206869125366,0.4981386661529541,0.46107080578804016,-0.8555017709732056,-0.5401977896690369,0.6371954679489136,-0.7224816679954529,-0.5542625784873962,0.12468109279870987,-0.7831155061721802,-0.4082622826099396,0.5490046739578247]},"inputHidden":{"rows":40,"columns":40,"weights":[0.9865709543228149,-1.0674538612365723,0.281046599149704,-0.2984972298145294,-0.3098544180393219,-0.8987663388252258,-1.1374961137771606,0.6806216835975647,-0.2918162941932678,0.014516560360789299,-0.0213042963296175,0.2391476035118103,0.19569367170333862,-0.20084898173809052,1.006395697593689,-0.31041818857192993,0.17582716047763824,-0.10094115883111954,0.21239638328552246,-0.10769081115722656,0.07237210869789124,0.3293507993221283,-0.9615758657455444,-1.0774216651916504,0.3186521530151367,0.054189153015613556,-1.0040878057479858,0.16522537171840668,-0.29218852519989014,0.7964612245559692,-0.15366220474243164,-0.11353957653045654,-1.2899208068847656,-0.21816354990005493,0.1261749565601349,-0.5875270366668701,0.3080405294895172,-0.09532368928194046,0.6704161763191223,-0.32482731342315674,0.42320698499679565,-0.81831294298172,0.11200740188360214,0.5499978065490723,-0.11134176701307297,-0.3931578993797302,-0.8706355094909668,0.6530888080596924,-0.09483644366264343,0.2389666736125946,-0.46722814440727234,0.5896515846252441,-0.40477824211120605,0.10483105480670929,0.9825742840766907,-0.3985688388347626,-0.24152740836143494,0.4016640782356262,0.31825101375579834,0.015146247111260891,-0.0029026882257312536,1.599279522895813,-0.8981562852859497,-0.8239075541496277,-1.356507420539856,-0.03593844175338745,-0.6736763715744019,-0.06321486830711365,0.10575349628925323,0.48179832100868225,0.5952715873718262,0.17416802048683167,-0.895470917224884,1.082350730895996,0.1635805368423462,-0.8024546504020691,-0.13018359243869781,-0.5366380214691162,-0.6045880317687988,-0.2639411687850952,-0.16486859321594238,0.22355592250823975,0.10195522755384445,-0.5296680927276611,0.01573154330253601,-0.14074182510375977,-0.0893571674823761,-0.17517100274562836,-0.08283519744873047,-0.22391806542873383,0.742652177810669,-0.9219910502433777,-0.5324393510818481,0.07623456418514252,-0.3129678964614868,0.40071287751197815,-0.2622253894805908,-0.018176913261413574,-0.45080602169036865,0.1595061719417572,-0.07958336174488068,-0.021636003628373146,0.14003975689411163,0.20880362391471863,0.2615925073623657,0.13243503868579865,-0.06748278439044952,0.1938198059797287,0.18932747840881348,-0.04002748057246208,-1.0158146619796753,-0.23954316973686218,0.23868058621883392,0.4056932032108307,-0.09796721488237381,1.1422427892684937,0.055643852800130844,0.05313841998577118,0.15497331321239471,0.17583142220973969,-0.39446526765823364,0.46931636333465576,-0.9792198538780212,-0.6735886931419373,0.26736339926719666,0.1356743425130844,0.2339608371257782,-1.0757681131362915,-1.0525230169296265,-0.6924542784690857,-0.1239207312464714,0.78781658411026,1.0831921100616455,-0.5359314680099487,-0.18142981827259064,1.0325576066970825,-0.5619778633117676,-0.4445222020149231,1.438300371170044,0.5114214420318604,-0.7107813358306885,0.9655863046646118,0.22739659249782562,0.4770228862762451,-0.07857051491737366,-0.4822101593017578,0.6818587183952332,0.6427123546600342,0.4249765872955322,-0.08584044128656387,0.43719252943992615,0.5224069356918335,0.38693052530288696,-0.5445222854614258,-0.3461636006832123,-0.187853142619133,-0.10112331807613373,-0.09753994643688202,0.27645060420036316,0.17138265073299408,-0.6555740833282471,0.37482979893684387,-0.007021226454526186,-1.1523255109786987,0.03725428506731987,0.42553600668907166,-0.22355327010154724,0.08148651570081711,0.025083381682634354,-0.012153304181993008,-0.4222933351993561,-0.42433667182922363,0.36967992782592773,-0.07975944131612778,-0.5014582276344299,0.004395550116896629,-0.12285090982913971,0.20284387469291687,-0.49952957034111023,-0.021748382598161697,0.012359625659883022,0.05129968374967575,0.34097665548324585,0.3345916271209717,0.4927300214767456,0.0558478944003582,0.0630280077457428,0.01944565959274769,-0.017530959099531174,-0.0018525318009778857,-0.9153540730476379,0.027719771489501,0.3421232998371124,0.2579805850982666,-0.4855133295059204,0.7561799883842468,-0.043202269822359085,-0.10644534975290298,-0.08169413357973099,0.43105843663215637,0.5616886615753174,-0.6975020170211792,-0.05899730697274208,0.05970851331949234,0.10791236907243729,-0.3989884555339813,-0.10931015014648438,0.11382055282592773,-0.3095169961452484,